1101 10
</s> 0.040027 0.044194 -0.038303 -0.032780 0.013666 0.030211 0.009409 0.002113 -0.036035 0.022185 
shoes -0.815025 -0.014726 0.504532 0.705876 0.304778 1.149621 -0.372244 -0.283651 0.323389 -0.264883 
women -0.983309 -0.627837 0.094561 0.574128 0.407973 0.597750 -0.774523 0.039769 0.134534 0.046360 
high -0.980506 -0.201862 1.883488 1.191797 0.486262 0.178914 -0.811667 0.254171 -0.098962 -0.768928 
heel -1.141880 -0.843216 1.497765 1.191183 0.443563 -0.022302 -0.815252 0.917853 0.718897 -0.572016 
platform -0.632731 -0.535691 1.432435 1.640300 0.012013 -0.084175 0.286887 0.475335 -0.846098 -0.421770 
heels -0.611140 0.661308 1.009444 1.142355 0.274070 0.168061 0.085568 0.879733 -0.643540 -0.475229 
new -0.364323 -0.590181 0.109468 0.292699 1.185104 1.267524 -0.448061 -0.771319 1.255264 -0.952236 
boots -0.034582 0.993415 0.248453 2.092087 1.178490 1.397428 -0.930281 0.497676 0.763805 0.077376 
fashion -1.646642 -0.088899 1.138032 0.611751 0.143141 0.255689 -0.406634 -0.215055 0.902310 -0.260413 
party -0.505651 -0.738949 3.324768 -0.206390 0.827400 0.597897 2.064392 1.179346 0.469761 -2.115788 
black -0.375847 -0.915234 0.464714 0.054014 -0.157471 1.022220 -0.518643 -0.287929 0.834155 0.567499 
toe -2.540816 0.273344 -0.012020 1.874403 0.208785 0.766515 -0.470255 -0.212965 -1.064562 -0.693462 
size -0.138472 -0.767054 -0.207101 0.508140 -0.404681 1.113421 -0.421935 -1.100752 -0.127434 0.077033 
pumps -0.366437 0.396947 0.097131 0.485560 -1.148675 1.027769 0.793147 0.326948 -0.980351 -0.370202 
ankle -0.524335 1.458628 -0.060405 2.156008 1.426409 0.487907 -0.761547 0.901966 -0.338666 0.937489 
stilettos -2.095259 -0.441336 1.843579 1.041187 0.799919 0.547469 0.895545 -0.039555 -1.822978 -1.310855 
leather 0.012177 0.196579 -0.817206 1.629020 -0.170351 1.375997 -0.480994 -0.010902 0.567305 -0.109046 
stylish -1.216622 -1.837776 1.851623 0.319082 2.341019 -1.446157 2.146004 2.419204 -0.392753 0.264948 
suede -0.655566 0.939833 0.859192 1.484253 0.847958 0.699170 -0.788225 1.067357 -1.091215 -0.216318 
sexy -1.834901 1.055998 1.624460 1.512890 0.438576 0.815466 0.734234 0.039172 -0.731145 -1.657235 
pointed -1.008957 1.722124 0.271760 2.419503 -1.788586 0.829985 1.983611 1.285439 -1.986379 -0.050033 
lace -1.315843 0.333978 0.442295 2.321660 0.329502 -0.431854 -0.248811 -0.212862 0.799633 0.916229 
wedges -0.236694 -2.072930 1.785385 0.731295 1.896846 0.722551 0.123445 -0.314333 1.015517 -0.594582 
sandals -1.214048 -1.651240 1.110152 1.020818 -0.169607 -0.071468 0.776119 0.600544 -1.482327 -0.448053 
wedge -1.707835 0.103089 1.125053 1.612388 0.572472 0.104838 -0.177043 -0.729420 0.794848 -0.298240 
astrid 0.065924 -2.103672 -0.734148 2.675570 4.338155 -0.128969 6.267581 0.313016 1.855656 -2.537706 
flat -0.280878 2.932784 -0.858041 1.432848 -0.336261 0.729843 1.601773 -0.220253 -0.103584 2.250859 
strap -0.988159 -0.177094 -0.584133 3.300390 1.683357 1.600827 -0.548532 -0.876139 0.058005 -2.045097 
casual -1.776886 2.013502 -0.273642 0.840730 -0.130162 0.331183 -0.479986 1.046521 0.129338 1.042328 
faux 0.438748 1.138346 1.158820 2.084167 0.318728 0.961698 -0.048896 -1.193340 -0.982545 0.267681 
stiletto -1.055144 -0.787625 2.205095 0.808242 2.401000 1.940110 -0.620247 -0.133626 -0.213475 -2.739401 
prom -0.133363 -1.624383 1.594071 -0.704912 2.590910 0.186876 3.481733 1.719765 -0.362908 -2.337787 
winter -0.375056 1.843868 1.759479 1.515878 2.333024 0.619569 -0.084236 -0.986503 2.852254 0.774612 
snow 1.886619 2.765622 3.171076 4.267332 1.473524 1.071643 0.910906 -1.450221 2.574990 1.844308 
open 0.561888 -1.412543 -0.528250 2.107746 -2.265351 0.201250 1.557748 0.696432 -3.356091 0.485053 
wedding -0.442665 0.008010 -0.040616 -1.881146 2.426150 1.467914 1.901845 0.404346 -4.540956 -0.222594 
elegant -2.834284 3.372794 1.285718 0.991599 -0.184293 0.706063 1.771176 -0.235367 -2.208387 -0.842373 
sneakers -2.303120 -1.005709 -2.566511 1.739073 3.010884 -1.285141 1.334989 -0.382342 1.369823 3.436459 
flats -2.573688 1.871629 -3.403619 2.446092 -1.167427 2.200915 2.191300 -1.362515 0.687464 0.520104 
buckle 0.735347 0.787683 -1.210488 3.048698 3.129071 1.533345 -1.204218 1.411130 -1.020749 -1.650190 
warm 0.204629 1.751895 0.916398 1.177443 3.037564 1.719851 0.660379 -1.854523 2.411504 1.360686 
slim -0.905651 2.397262 1.628322 0.542095 0.192524 0.469593 1.443231 2.288658 -0.989785 -0.626066 
canvas -2.217689 -1.267648 -1.533805 1.561760 1.481473 -2.859227 3.463542 0.889862 0.033383 3.335269 
top -1.403570 0.340375 2.460784 2.671468 1.561869 -1.993512 0.395331 -2.358673 -0.290731 2.796043 
pump -1.708386 -2.040647 -0.487927 1.461973 -1.054342 0.220104 0.200211 1.787199 -1.565442 -0.279134 
block -0.114657 1.740363 -0.757008 3.595087 2.048520 -0.866512 0.572953 2.900676 -0.131173 0.308894 
brown 0.373278 0.128446 -0.470249 -0.183966 -2.299255 3.202677 -0.019712 0.707636 1.387278 1.463522 
knee 2.985882 -0.238722 3.445157 2.413896 2.319209 0.311231 -1.110971 0.621384 -1.156346 1.294770 
round 0.888466 1.542634 -1.768542 3.167344 -0.091714 -0.953109 0.323235 3.683441 -3.769369 2.772027 
inch 3.334961 -1.613043 0.375601 1.336119 3.635502 -0.234362 5.075295 1.259199 1.320786 0.852571 
blink 4.444784 -3.757330 -0.917447 -0.175739 5.201867 1.704289 4.221331 5.550598 -3.020833 0.069510 
red -1.023962 -0.018459 0.870855 -2.026968 0.774768 2.239013 -0.731436 -0.126034 0.301673 -0.682734 
slip -1.966452 2.408320 -1.046080 2.073196 -3.081005 1.647821 2.071814 -0.527907 2.388175 1.329286 
glitter 0.186338 -2.065640 0.662587 2.116188 1.248011 0.259241 4.063375 -2.677630 -4.880769 0.794250 
lady -3.175263 1.146437 0.597277 0.166132 2.556402 -0.677035 0.150871 1.601584 -0.549353 0.667320 
short 0.642242 4.129356 1.913790 2.315730 0.493122 0.572232 1.819810 3.382531 -0.826685 -0.066109 
chunky 0.090666 1.354900 -1.889731 3.971193 0.567950 1.011624 -0.191417 2.270274 -1.180311 -0.230399 
hot -1.031441 0.185113 0.475318 1.516316 1.540929 0.272617 0.556974 -2.261317 -1.190348 -1.287553 
shallow -2.659485 3.321693 -1.695858 0.711793 3.414446 0.359041 3.446193 3.294516 -5.404754 -1.573097 
white -1.515772 -2.842649 0.580245 -1.107701 -0.080483 0.410281 0.977468 -1.256893 0.851663 1.276286 
sweet -1.420172 4.287334 -0.070646 4.092686 1.192760 1.540640 1.855288 -1.412164 -3.366346 -0.381947 
midcalf 1.335299 3.838065 3.353578 -0.983946 3.442302 3.849818 -1.155646 -1.194144 1.521661 4.173134 
color -2.230063 -0.247807 0.662713 -0.169513 0.273355 1.707375 -0.196760 -0.786872 -0.304418 -1.014876 
booties -0.710419 2.311718 -1.645676 4.193641 4.161426 -0.287946 0.602687 -1.127795 0.142219 0.676710 
blue -0.339714 -2.790825 -0.487128 -0.100334 0.375523 0.413578 1.224054 -0.739022 -0.867455 -0.497320 
comfort -2.885392 1.725288 -1.860582 -0.799444 2.345498 -0.197286 -0.030986 2.078854 -1.149528 1.744453 
low -2.386549 1.281084 -2.010132 1.060610 -0.746739 0.783214 -1.106990 -0.939427 0.839292 2.022895 
style -2.542155 1.531436 2.930961 -0.224244 1.583382 1.077391 -0.537869 -1.941808 -0.820475 0.637697 
loafers 0.476742 2.446419 -3.762906 1.343469 1.498297 0.373333 2.778970 2.032702 -0.666489 2.357589 
synthetic -1.552333 2.273206 0.049534 2.138273 2.407701 2.738043 -1.693754 -2.858982 -1.689362 0.467649 
platforms -1.325327 1.044602 0.781917 -1.243778 2.336333 0.265404 0.721228 4.553843 0.556021 -0.603228 
marive 5.487719 -2.146215 3.953496 -0.244178 3.410465 1.782275 2.701431 1.776143 1.263963 2.893065 
ladies 0.411293 1.972734 0.046006 3.429580 -0.825949 -0.228404 2.181403 -0.076977 -1.711348 1.650377 
work -4.196075 3.299279 -0.019091 -1.657170 1.198126 1.553174 2.783501 3.085337 -2.692940 -1.331567 
men 0.311400 2.356020 0.541253 -1.958272 3.163307 1.126392 6.004260 -1.106245 2.902606 0.164119 
real 1.502791 2.091809 1.510653 0.629014 1.643434 4.769154 2.400636 -3.535712 4.180647 0.441754 
simple -3.961624 1.756252 4.447567 2.352508 -0.412844 -0.331702 2.938689 0.098608 -1.035968 -1.123579 
boot -1.170922 0.704729 1.464952 3.961623 -1.719198 -0.452125 -0.191958 1.029262 1.198277 1.149166 
peeptoe -1.118663 -0.126477 3.173512 3.159889 1.631442 -0.604198 1.901603 -0.803009 -1.827424 -2.372228 
bridal -0.092770 0.445543 1.832518 0.131682 0.544041 3.347663 5.023586 -1.358194 -3.041528 -2.377532 
peep 1.598261 -3.022415 -0.597963 2.811857 -2.789172 0.731839 1.496045 2.897085 -5.168413 2.501983 
akina 0.101644 -0.423496 1.528987 -3.579009 7.255962 -1.838391 5.100893 1.839909 -0.801748 3.755274 
rivet 1.404899 2.392685 -0.667070 3.738061 1.628911 1.259462 2.316443 3.498926 -0.978724 -2.196476 
bowknot -1.195061 2.671671 1.090827 2.064174 0.276469 0.661595 1.236859 0.974099 -4.548915 -0.155361 
jelly 1.479856 1.581779 3.881838 -2.106398 -1.044542 1.392480 5.602752 -1.432947 -1.039029 5.454035 
ballet 1.052941 0.808397 -2.984958 0.278934 -1.969351 2.072136 5.712555 -2.243062 -1.886072 3.684798 
joe 0.645674 -3.733959 0.679128 2.086435 4.644582 -1.388473 1.944220 4.838122 -1.151286 0.979799 
fur 2.287914 1.497213 1.669813 2.939848 4.725047 0.549725 0.397567 -3.024980 -0.405617 2.072123 
bow -0.532335 1.166324 -0.280710 1.876992 4.526055 2.323743 0.243551 -1.561878 -3.201103 -2.597908 
gold 0.639847 -2.424531 -0.762550 -0.699375 -0.839864 1.849688 1.578890 -0.834381 -1.493170 0.548752 
dress -4.183964 -1.294755 0.422940 0.919585 -2.118969 -0.526091 -0.130173 2.911629 -1.848615 1.277742 
classic -2.965100 -0.670728 -1.098609 -1.431182 -0.570060 1.000991 0.313117 0.514637 0.335010 1.282467 
colors -1.064557 2.202533 0.450624 0.542362 -1.455573 2.441089 -0.159977 0.313279 -0.396399 -0.036663 
sandal -0.139990 -0.927319 0.479036 1.162725 1.378031 -0.348223 -1.151813 -0.126043 -2.406281 1.648290 
formal -3.420958 1.021180 4.067935 -1.413869 -1.832484 1.120553 1.903946 1.642308 -1.218534 -1.073066 
strappy -1.229797 -1.557236 0.959782 -0.017508 -0.226024 0.418397 -0.958631 0.469484 -1.357830 0.595981 
pink 0.010742 -2.521865 -1.853662 0.138954 -0.322446 0.960177 1.730545 -1.442323 -0.007350 0.236759 
med -1.050287 0.781882 -2.213553 1.423547 2.594437 2.319985 -1.273796 1.877581 -0.098192 -0.748874 
calf -0.650812 1.319936 -1.128583 2.133117 2.253829 1.837282 -2.621945 1.964698 1.841713 3.930898 
evening -0.270288 -0.374181 1.573254 -2.128539 1.272938 3.176143 5.132335 -0.361744 -2.685205 -2.724741 
big -3.559856 2.217331 1.403452 2.283264 2.549342 1.093387 0.521815 -1.703540 -4.724443 -1.642106 
pointy -0.859125 -0.036054 1.072704 2.247828 -1.548791 -0.841120 2.218452 4.192401 -2.661601 0.066335 
zip -2.137788 1.829798 0.834915 2.590233 0.687923 -0.127786 -0.793586 0.442630 0.691057 0.933141 
hidden -2.005812 -0.232592 1.746829 2.806356 1.425566 -2.264455 0.368357 -1.933313 0.275074 3.262133 
sneaker -1.253121 -0.814586 0.333781 2.463726 0.390455 -1.949456 0.002056 0.228574 -0.356340 4.162793 
zipper -1.920707 1.709359 1.551819 3.058148 0.208947 1.840950 -2.438520 -0.161876 -1.180381 -0.548492 
over 2.558857 1.743768 6.434791 2.345569 -0.189771 2.997816 -1.449132 2.544521 -2.444612 0.730895 
tan 0.105791 -1.526829 0.892814 0.003929 1.112928 0.353420 0.172348 0.474243 0.081673 0.211795 
laceup -0.104192 3.578037 1.829637 0.980920 0.255019 0.816114 0.144307 2.803172 0.905997 1.686436 
martin -0.436734 2.574523 0.375488 3.078769 1.903869 2.172512 -0.679402 3.723465 2.863086 -0.284514 
mid -2.107946 0.383333 -0.696745 2.505709 1.571000 0.058374 -2.167212 0.156155 1.662350 2.750372 
patent -1.071341 0.257218 -0.312291 0.415252 -1.807706 1.825134 -0.388481 -0.390149 -0.271292 0.434930 
girls -0.479270 0.219029 -2.765537 -0.810320 4.999923 1.172950 2.297325 -3.033318 -4.195699 2.513508 
loafer 0.753913 1.826330 -2.908131 0.582886 -0.442536 0.121788 3.751593 1.241437 -1.128968 3.212306 
mules 1.156194 -0.768530 -0.540676 -1.283959 -0.695280 2.875710 0.200508 4.932086 -0.878983 1.426085 
beige -0.980304 -1.913932 0.528591 -0.751024 1.132105 1.211225 -1.333457 -0.288444 0.573647 0.740785 
mary -0.498755 -2.356396 -2.819449 1.003216 6.148015 3.535367 -2.162919 1.941083 -1.405866 -1.269579 
girl 1.195104 -2.912747 1.653134 2.542589 0.602185 1.537165 3.107440 -2.930813 -4.918104 -0.930536 
combat 0.969972 -0.900059 -1.501597 3.375784 3.569811 0.886320 -2.749480 2.747751 1.739213 5.124158 
clogs 1.303523 -0.492227 -0.657880 -1.164219 -1.680203 2.674149 0.847335 4.708947 0.292641 2.541898 
crystal 1.011951 0.272416 2.243140 -0.494545 2.436810 1.106470 2.954122 -0.037835 -2.498038 -0.506717 
gorgeous 0.957065 -0.949668 1.523984 -0.689761 1.061201 5.534097 4.244829 -4.111527 -2.353431 -0.049088 
plus 1.967150 0.633678 0.117436 1.318167 1.952451 3.659581 -1.529698 -0.595628 -3.128484 0.573409 
super -0.552701 0.585408 2.618746 1.219567 0.835580 -0.810706 0.374324 1.279492 -2.471774 0.849726 
thick 0.059354 2.074593 0.416949 1.208002 5.569913 -0.205643 -1.654798 3.573934 -0.930008 0.389277 
design -1.176579 0.835021 4.272686 3.171776 -0.832293 1.252352 -1.009447 -4.961679 -2.192031 1.846819 
minna 0.433694 -4.577070 0.098290 1.256933 3.672992 -2.162269 2.537280 4.027681 -1.491426 1.422986 
gtfz -0.937690 -2.524880 1.350312 -1.462461 4.701612 -1.934198 3.630227 0.392421 -1.804874 2.045341 
court -3.315706 3.073586 1.944513 -1.187339 -0.831982 0.653891 1.503509 0.288259 -1.470742 2.828609 
studded 0.895728 -0.618203 2.970897 1.540613 0.046197 1.078759 1.212251 -3.454828 -2.276003 0.120593 
csm 0.647988 -0.692056 0.867373 -0.597247 -0.456431 0.914931 0.170863 1.284011 0.781932 1.653067 
professional -3.523688 1.190445 -0.703071 0.138066 -1.824620 1.456098 1.473299 2.324123 -0.956845 -1.960800 
korean -1.811694 3.241800 2.897667 -0.676827 1.858632 -0.109918 1.364329 -0.513433 3.147039 1.137342 
silver 1.238710 -1.303314 -0.557095 -0.795829 -1.029307 1.582693 2.204752 -0.816132 -1.554731 0.243914 
running -0.785541 -2.934012 -1.751143 -1.112905 0.320874 1.668366 3.960297 -1.273607 2.574556 3.808556 
out -2.620841 -0.310197 4.948713 3.726655 -0.533761 -0.468237 0.616043 1.263915 -3.676690 -1.511078 
womens -0.268730 1.743001 0.502805 -1.671600 -0.036680 1.434860 -0.165438 -1.580222 -1.947781 2.907826 
pull -0.099404 2.050993 1.113979 0.827446 2.763887 -0.174857 -1.253575 0.817749 -2.072120 2.951701 
genuine -0.904409 3.014862 -2.085144 1.173648 -0.597639 4.137206 -1.051933 1.230869 0.216024 0.163567 
creepers -1.187015 1.801858 -2.215344 4.248346 -0.054398 0.031732 2.158398 0.567540 2.309369 0.719300 
classics -3.232994 -0.953520 -1.239361 -1.156238 0.294070 -0.055588 0.012423 1.704358 -0.960789 0.382539 
candy -2.218271 2.397831 0.770288 0.010250 -2.030810 5.376085 0.328718 0.469575 -0.349714 -0.300837 
shoesblack 0.331343 -1.774014 1.981460 0.359007 1.619128 -0.151134 2.051645 0.627427 -0.713711 -0.557368 
jane -1.907145 -1.125705 -2.450624 1.162903 5.577211 3.820705 -2.732903 0.047218 -0.342242 -1.092631 
nightclub -1.155157 1.311908 3.829663 2.808736 0.841428 -0.450917 0.892740 1.291133 -0.143132 -1.365137 
comfortable -2.040151 1.853525 -0.073375 0.848539 0.131593 -0.495392 1.202116 1.605814 1.076480 1.960073 
vintage -2.334111 -0.567259 -0.343296 1.193405 -0.501690 0.870254 -0.089231 -1.756742 -0.314391 -0.594371 
summer -2.631812 -1.573851 -1.715915 1.769893 0.138873 -0.578573 0.767636 -0.421686 -1.000214 0.779951 
kitten -2.440209 2.402090 0.450484 1.571654 -1.116966 1.587710 -0.903049 1.970185 -0.591944 0.333894 
gladiator -0.923491 -1.882654 2.883275 3.750607 1.072837 -0.576599 -2.045465 1.687164 -1.458052 0.352229 
spike -0.459500 0.312879 4.416318 2.068162 -0.456465 -0.198469 3.156803 -4.430572 -1.497848 1.824712 
side -2.593391 2.743581 1.515728 2.904751 -0.458225 -0.106290 -1.269576 -1.796647 -2.213610 2.472538 
slipon -2.220623 0.397983 -3.135441 -0.579542 -0.852636 0.802436 2.038807 1.026616 2.335540 4.337770 
punk 0.289823 0.556889 1.222295 3.257602 0.136378 0.410051 -0.571938 -0.435268 2.859267 -0.626656 
office -6.236111 0.706011 0.834864 -0.668789 -1.748029 0.912274 0.022942 2.598579 -0.527759 0.304956 
cute 2.092398 -0.212783 2.072765 1.856255 0.647442 -1.240961 0.851597 1.103206 -0.895906 2.976892 
fuchsia -0.225428 -2.032506 1.806525 -0.401372 -0.335873 0.295361 3.149865 -0.653856 -0.704602 -1.266195 
solid -4.309122 0.925276 -0.898809 1.831904 -0.674024 0.865571 -0.073313 0.038940 0.833592 -1.214164 
autumn -1.910998 2.977595 -0.164047 1.714464 0.649267 1.943461 2.302664 -1.740775 1.343799 -2.541489 
italy -0.166965 -2.407530 -0.821070 -0.163405 -1.201545 3.346864 0.563966 -1.084985 2.535388 0.561994 
thigh 2.695082 1.147258 3.750373 1.782015 -0.139335 4.323061 -1.914490 1.577217 -1.047093 1.351936 
military 0.770098 -0.473078 -1.517893 2.513216 2.813923 -0.040441 -0.977848 1.334603 1.843988 3.517448 
snake -0.749741 -0.347887 1.230038 -0.537668 -2.086382 2.868625 0.392207 0.436169 -0.459965 -0.831650 
nike -3.493568 -1.420567 -1.037834 -1.122093 -0.780008 2.086669 -0.375006 -2.183624 1.697738 2.373684 
straps -0.618680 2.448772 2.530922 0.969055 -1.150912 3.156877 -0.524271 1.053704 -0.725707 -0.746300 
oneoone 2.299803 -0.580899 1.709940 2.061321 0.948234 2.971320 -0.482219 2.069391 3.596855 1.244305 
blackgolden -0.088190 -2.065233 0.473328 2.556837 -0.853132 0.819016 1.840849 -0.992054 -2.473967 0.947693 
knot -1.792543 2.082540 0.680312 0.871656 1.904868 3.269542 1.057535 -1.440324 -2.002725 -4.006647 
trainers -2.470085 0.079503 -0.874622 0.756383 1.184161 -1.384451 1.544447 -2.491630 0.087930 1.914628 
with 0.243597 1.510301 0.380407 -2.603656 0.153595 3.646610 0.239060 1.769667 0.899087 0.053364 
nude -0.782703 -1.558475 0.645666 -0.726930 1.269946 0.178199 0.654373 0.172319 -0.015209 -0.000766 
victoria 0.310775 0.686193 2.050007 -1.387520 -0.371942 1.791561 2.686315 -0.168858 -0.102680 2.502271 
spring -1.866389 1.261622 -0.921878 1.965465 -0.082217 1.631538 2.142906 0.110399 0.715502 -1.889589 
the 1.880265 -0.132819 2.877673 1.426438 0.106986 1.599303 -0.860651 0.584647 -0.484151 1.941968 
show -1.643619 1.725795 2.063907 1.393816 -0.053922 0.977536 0.667635 2.194637 -0.592201 -0.144143 
shiny -1.550475 3.318197 1.723775 0.303801 0.656328 0.053686 1.405194 1.025397 -3.160374 4.881315 
tie -1.802451 0.998169 0.022536 2.482170 3.158629 0.334637 -0.092635 -3.873212 -0.637629 -0.184736 
dyyg -1.845839 -1.298498 0.606138 -1.179115 2.308356 -0.337754 4.426725 0.521542 -0.251779 -1.854262 
trainer -2.859972 1.177645 -0.469624 -0.297796 2.215060 0.535102 1.779484 -3.213861 -2.035066 5.182866 
navy -2.175356 -3.424681 0.332368 -1.468586 -0.624301 2.509010 2.028682 -1.253425 2.329087 0.754284 
adames 0.404256 0.340980 1.707466 -0.884118 0.082282 1.313968 2.204371 -0.032506 -0.347604 1.762344 
espadrille -0.995610 -0.295967 -1.861613 0.542368 -0.594501 0.708413 3.345988 -0.847395 1.547174 1.418559 
tstrap -0.456496 -0.724960 0.520930 1.282805 -0.599364 2.720431 0.422840 1.360662 -1.798530 -2.786859 
classy -2.053316 0.098904 0.566574 1.662166 2.218523 -0.967131 1.673825 -2.600101 0.802331 -0.337287 
nine 0.768261 -1.314305 1.593323 0.373891 -2.639109 3.057636 -1.126760 -0.285752 -0.736917 1.676488 
west -0.696336 -1.066037 1.065946 0.416323 -2.692392 2.268275 -0.949965 -0.219633 -1.776880 1.845480 
plimsolls -2.082498 2.167849 -0.110950 -0.542503 2.253899 1.960015 2.118370 -3.123779 -3.443172 5.510163 
sale -1.756631 0.798909 1.007738 2.548891 2.610461 0.935783 2.676745 -2.024866 -2.434872 -1.154203 
paris 0.143913 0.933485 1.566680 -1.272938 -0.687576 2.183322 2.550777 -0.366810 -0.386525 2.731956 
gothic 0.075378 -0.823104 0.086564 3.112055 0.132818 -0.107155 0.093156 1.787726 -2.384637 0.787153 
pleaser -0.343470 -1.875965 0.343271 2.687120 -0.390096 1.982750 -0.937201 0.174709 -3.113470 -0.085746 
sequin -1.579027 1.623511 -1.048051 0.790536 0.065515 0.880233 2.286198 -0.085538 -1.823479 -0.377410 
green -1.500123 -2.979181 -0.467858 -0.394832 -0.663393 0.657128 0.622145 1.067046 0.791874 -0.564032 
hollow -3.128673 0.531456 3.168082 0.536300 -0.065247 0.832498 -1.442337 1.388800 -3.502226 0.835302 
quality -3.427549 -1.121350 1.729777 0.855629 1.818869 -0.501253 0.424211 0.656793 1.041602 -0.584238 
fox 2.112802 3.536909 1.576152 2.275640 1.463401 1.836453 0.670632 -1.135285 0.223197 2.909443 
medium -1.528534 1.118005 0.144600 1.422587 -1.724708 1.008825 -0.700107 0.025877 0.420849 1.368713 
mouth -1.681479 2.537027 0.886433 1.802247 -1.656157 1.313946 0.257615 0.384526 -1.248891 -0.482869 
nice -0.516236 0.834711 -0.125200 0.698432 0.024153 1.099457 1.201662 2.310077 1.343792 0.324667 
mesh 0.625769 -0.353769 -0.566908 3.300027 -0.121835 -0.938877 3.306318 -1.735725 -0.897486 2.656971 
vogue -1.704701 1.460676 -0.008730 -0.372490 1.328462 -0.479260 1.368405 1.321836 -0.897710 0.913538 
biker -1.308766 1.393319 0.928356 3.379797 0.781658 1.326138 -1.179439 4.192612 3.040015 1.422062 
outdoor -0.716615 -0.733011 -3.056756 -1.012068 2.180360 3.248091 3.720520 0.055763 2.053528 3.889858 
tassels -0.620818 3.053064 1.772969 1.662534 1.043679 1.532823 1.388430 3.178779 0.152440 -1.583381 
motorcycle 0.589571 1.481236 2.227705 2.031742 1.437044 1.318099 0.006315 3.167553 0.977329 0.096411 
slingback -0.959880 -1.376235 0.343632 0.315330 -0.684274 0.992260 -0.246828 -0.276677 -1.332038 0.104157 
sport -1.723626 -0.136534 -1.309694 0.146094 0.881051 -0.111434 2.015565 -1.090822 2.258393 4.141185 
rhinestone -1.238010 -0.810508 1.091266 1.530933 -0.663244 0.178837 0.263423 0.084319 -1.379141 -0.880400 
sizes 0.304299 0.094003 0.533048 -1.144736 -1.321792 2.335449 1.021415 0.788024 0.997614 0.879796 
cut -1.707319 0.075217 2.115694 3.290694 0.547238 0.249604 -0.165679 1.071376 -2.863633 -1.527584 
toms -3.026148 -2.321928 -0.212296 -1.132562 -1.064103 1.148768 1.491911 -0.276685 1.896525 1.376394 
toes -1.687027 1.205824 -1.136903 0.884311 -0.272661 0.232087 2.297191 1.441645 -0.414125 -0.302162 
thong -0.025277 -2.769679 -0.465206 1.254978 -0.414977 3.085983 1.288312 -0.145053 1.312484 0.421510 
deluxy 1.641661 -1.920639 2.602366 -1.478652 1.448907 3.560805 0.652362 1.298811 -0.760839 -1.284506 
roman -2.239663 0.658880 4.106466 0.129749 1.771811 0.211021 0.383104 -1.455949 -1.745410 -0.486542 
made 0.343555 -1.081626 0.565631 0.038557 -0.910574 3.174649 -1.026837 -1.990052 0.551884 0.925998 
athletic -0.520302 -1.542669 -1.265497 -1.294325 0.942171 1.952786 2.379921 -1.014091 1.603810 3.904275 
san -0.043835 -1.910161 -0.100541 0.471348 -0.460758 3.285688 1.562237 -0.103107 1.753965 0.519926 
miguel -0.362897 -2.836071 0.069098 0.653312 -0.585102 3.657858 2.116445 -0.333698 2.641968 0.493715 
cool -0.601773 1.943753 -0.336964 2.039515 0.260774 1.174698 -1.133553 3.229160 0.660410 0.251585 
all -0.799354 -1.116152 -0.131780 0.146787 -3.320454 2.471101 0.952198 -0.359407 -0.920319 0.835296 
nubuck -0.726116 1.449098 0.868620 1.746938 0.451208 0.559786 1.420491 -1.002439 2.959509 0.193003 
thicken 2.387783 1.826144 2.490327 1.340143 1.734302 1.514795 0.562997 -0.037504 -0.047381 0.442395 
elastic 1.125018 1.996284 0.588381 1.681219 0.280049 0.833540 1.333842 1.062034 -0.792656 -0.969071 
michael -0.335852 -2.078398 -0.251925 0.094816 -1.071040 2.579797 -1.136554 -1.167170 -0.654439 2.205442 
club -1.088649 -0.903125 1.534429 -0.682596 -1.181605 1.384295 1.092322 -0.886800 -2.252126 -0.782472 
sapatos -1.184511 0.505960 -0.038445 -1.632923 2.388445 3.279852 2.455898 -1.043461 -2.054136 -1.498535 
only -0.611163 0.765788 -1.225222 0.385886 -0.382818 2.686100 2.965634 0.846598 0.713415 0.965780 
slippers -0.822072 0.114016 -2.330900 -0.459100 0.719786 2.465487 0.985943 0.959296 1.142990 1.444898 
extreme -1.258244 -0.288307 2.254931 1.340714 1.194501 -0.430981 1.381500 -0.880029 -1.718272 -1.001052 
taupe -0.373404 -1.429120 -0.089584 1.247983 0.601971 0.817825 -0.338158 0.456572 0.938230 0.679609 
point -0.248775 0.129816 0.488878 0.182806 -0.663291 2.316955 2.771232 0.628521 -2.613355 -2.473412 
reebok -2.295494 -3.061287 -1.131284 1.365452 0.030389 0.178649 0.977967 -0.002361 1.377443 1.709562 
clubwear -0.991971 1.103187 3.487828 -0.722287 0.964780 0.738931 2.423174 3.036459 0.020312 -2.363570 
cotton -0.794777 2.712370 2.186519 -1.897457 2.045583 1.413933 1.037378 -0.058325 1.669601 1.768030 
metallic -1.001041 0.149562 -0.093262 0.162981 -1.468454 1.028042 0.973463 -0.777920 -0.411932 0.370604 
usa -3.622749 -0.332514 0.588229 0.255282 0.608186 -0.188501 1.199304 -0.347346 1.966967 0.109929 
dark -1.100462 -1.082108 0.606364 -1.100826 -0.033355 1.467988 -1.707819 0.076218 -0.007226 0.537691 
two -1.320786 0.410252 -0.654187 0.537149 1.054887 1.273078 -2.686968 1.773527 -0.287686 3.309691 
bottom -0.577526 0.876534 -2.013257 0.985088 0.713397 3.157376 0.652786 1.444850 -0.237837 -0.431948 
floral -0.307479 0.804990 -0.450793 1.646800 0.201550 0.692212 0.510256 -0.024344 0.139976 1.744585 
comfy -2.458807 2.294596 -0.660339 0.762860 -1.158234 0.753426 -0.025758 1.503312 1.017840 2.612542 
back -0.301133 -0.521184 0.535844 2.249439 -0.488977 0.628395 -2.291277 1.214204 -0.741682 1.300338 
riding 1.407896 -0.268508 0.583070 2.605519 1.559538 1.210033 -2.354826 2.330284 1.775858 2.256736 
moccasins -0.294944 1.031842 -2.785866 -0.582484 0.591801 2.660656 1.776676 0.878695 0.562235 2.477988 
trendy 0.020490 0.165287 -0.493699 2.908942 1.200418 3.037516 1.804522 0.303894 0.907178 -1.322537 
clarks 0.362456 0.456193 -0.311793 0.078439 -1.106520 2.504644 -0.430295 1.065469 1.107383 1.066475 
plain -2.336260 -1.927365 -0.479136 1.539295 -0.964063 1.450813 1.004944 2.954110 -0.646955 0.358348 
lined 1.295964 1.109023 1.365716 2.505110 3.090996 0.342521 -0.544303 -0.350633 0.637567 1.830421 
satin -0.297162 -1.881938 1.033380 -1.311556 0.181464 1.249947 -0.147955 0.412679 -1.199422 -0.350552 
street 0.712741 2.419794 2.011479 1.429641 0.485599 -0.277992 1.934164 0.920576 -2.539195 3.818703 
shoesblue -0.494230 -1.366182 0.804743 0.810962 0.934066 -0.236723 2.046890 0.039535 0.830987 -1.257097 
ivetta 1.875627 -2.517911 2.108991 -0.402226 1.305950 1.696702 1.330350 1.495582 -0.004547 -0.841540 
cross -0.854443 0.168073 0.643022 -0.751495 0.410632 1.967955 -0.754658 1.164586 -1.912267 -0.338190 
special -0.605086 1.095972 -1.646795 -0.397743 -0.699985 2.355557 2.824591 0.383747 0.813385 1.242093 
seller -4.198450 -0.173478 0.023477 -0.251917 0.652811 0.403546 1.686437 0.063687 2.060248 0.209828 
cognac 1.056844 -0.440096 0.329647 2.112158 1.213058 0.986494 -0.223007 1.289683 2.328071 0.350491 
gray 0.055637 -2.081865 -1.197721 -0.295273 -0.706189 1.970465 0.298093 -0.069263 0.711608 1.460009 
cole 0.417747 -0.744418 -0.955985 -0.775617 0.073261 1.964724 0.178373 0.580351 1.420895 2.063314 
free 0.140280 -1.323633 -0.183772 -1.167258 0.645161 1.814342 1.211931 -0.933161 1.272042 2.522522 
pearl -1.459564 1.940101 0.305343 1.962736 0.135248 0.347693 0.702483 0.820463 -1.860398 1.011242 
rivets -0.034545 1.443451 1.301553 0.943546 -0.178456 1.180659 1.172181 2.701698 0.048222 -0.182591 
apricot -1.290267 0.358186 -0.205170 -2.642184 1.094508 2.395488 1.105874 2.104884 -2.056741 -1.134897 
ballerina -0.702456 0.220727 -2.066567 -0.266147 0.318480 1.278513 2.845192 0.500419 -0.137519 3.066540 
brand 0.271905 -0.528986 -0.146351 -0.885057 0.010312 1.188592 0.954324 0.365524 0.136444 0.609965 
janes 1.371736 -2.229376 -1.413141 -0.119489 3.472755 3.252029 -0.056981 1.401654 -0.811049 -1.604506 
upper -0.170142 0.179124 -0.566314 0.526595 -0.919090 3.013968 -1.125221 -0.721119 0.207770 1.113091 
shipping -0.117416 -1.849156 -0.080405 -1.058391 1.313913 2.086678 2.390153 -0.716191 0.914166 3.129702 
klein -0.085952 -0.476803 -0.586039 -1.157079 -0.249372 2.638414 -0.619245 0.508432 0.859381 1.701600 
rhinestones -0.931479 -1.676504 0.403229 0.461711 -0.934788 0.494689 0.086955 0.799994 -1.733974 -0.479864 
stud -0.154153 -0.464549 -0.208139 1.208630 0.047608 2.808126 1.208412 1.721943 -0.821106 -2.919062 
chic -1.476355 -0.126603 1.230154 0.778340 1.768055 0.847635 0.759279 -1.105048 -1.161265 -1.892851 
madden 0.704615 -1.182511 0.836132 -0.333978 -1.463522 1.685992 -0.158630 -0.890669 0.270798 1.770397 
grace -0.453617 0.218064 -1.314022 -0.094323 2.615480 1.411345 -1.598988 -0.862794 -2.306589 -0.079899 
skateboard -0.161563 1.458714 -2.219549 2.652545 -0.193985 1.173096 2.109505 0.269958 2.053580 0.996954 
fabric -0.318312 -1.310391 -1.142455 -0.129138 0.242698 1.943803 -1.377451 0.506487 -0.008509 1.103839 
plussize -0.868710 0.378232 2.014120 0.194984 0.621550 0.187041 -0.068930 0.412864 -2.517528 1.290011 
styles -1.071937 0.324994 0.210586 0.994567 1.634206 2.020697 -1.913067 1.510669 -0.099749 4.041212 
folding -0.046863 0.396674 0.188070 0.711533 1.475945 0.895228 -1.855411 1.214176 0.449787 3.079851 
pary -1.796468 -0.304014 1.252611 -0.307054 -0.772882 2.205514 -0.530478 0.796685 -1.043795 -0.596191 
bordello -0.354117 -1.784790 1.052467 -1.662780 -0.551224 1.456660 -0.150248 1.462818 -2.029231 0.097918 
bowtie 0.298311 -0.301589 1.534605 2.379722 1.149396 -0.990966 -0.066928 0.695723 -0.224739 1.962198 
steve 0.347104 -1.706553 0.045413 -0.498826 -1.063442 2.395375 -0.451679 -0.206626 0.527928 1.932715 
oxfords -2.053669 -0.841568 -1.695464 0.093643 -0.462090 0.278418 -0.352673 1.109430 -0.319440 3.523739 
tassel 0.294687 0.401579 0.645553 1.222849 0.794147 0.687436 0.980370 2.039558 0.604556 -1.205364 
polka -2.637403 0.906404 1.059599 0.085696 0.195120 0.266750 1.124777 0.199621 -2.955080 0.395434 
rubber 1.169793 -0.383445 0.627052 -0.128091 0.558121 2.874187 -1.102400 0.965541 2.662306 0.901592 
salomon 0.153233 -1.853319 -0.598931 -1.351673 1.764181 2.405513 2.401141 -0.712955 1.842440 3.482231 
hiking -0.087912 -0.676233 -1.142653 -0.499675 1.278268 0.874901 1.979349 -0.313964 1.083903 1.555909 
and 0.517861 -0.042888 0.065418 -0.254425 -0.351395 1.510044 -0.180259 -0.365283 1.102124 0.171261 
box 1.029587 -1.196870 -0.162980 -0.799509 -0.540117 1.984919 -0.067040 -0.289710 -0.039188 1.176395 
kors -0.391379 -1.771058 0.038038 -0.149118 -0.812630 2.138734 -0.736500 -0.669218 -0.804641 1.899285 
shoe -0.642037 0.643118 -0.430282 -0.865104 -1.420115 1.862225 -0.946005 1.517283 2.391037 1.373880 
walking -0.366984 -0.300605 -1.206610 -0.366403 -0.604169 1.024162 0.864642 0.058557 0.404856 1.973961 
soft -1.844684 1.149602 -0.031423 -1.725624 -0.757552 0.760499 -1.038055 1.392599 0.585693 1.577545 
pinup -0.926473 -1.612365 1.109584 -1.631514 -0.488103 1.927482 0.635847 1.892807 -3.013632 0.232414 
hiphop -3.003265 1.592771 1.080289 1.163848 1.006130 -0.563313 1.219659 -0.430445 4.011908 2.054870 
dinner -1.294792 -0.250623 0.391532 0.990978 -0.826182 0.875096 1.018861 0.379889 -1.068975 -1.431113 
speedcross -0.432862 -1.842912 -0.756147 -0.987900 1.914348 2.757423 2.922179 -0.665137 1.759971 3.731916 
anne 0.237482 -0.940974 0.255938 -0.227601 0.241860 2.497429 -0.674071 0.975267 0.320818 1.501672 
sequins -0.782939 0.160103 0.481559 -0.080048 -0.871970 0.824611 1.231032 0.217348 -0.279866 -0.598792 
velcro -3.149519 -1.968068 0.149364 0.728903 1.063567 -1.833664 0.001090 0.481073 -0.154292 3.528074 
leopard 0.571538 1.202555 -0.741082 -0.333963 0.253919 1.084704 0.328972 1.079839 1.346576 1.542176 
breathable -1.506569 0.514026 -1.067547 -0.479175 0.948840 -0.191038 0.980644 -0.103043 0.555064 1.888237 
air -2.102137 -2.416304 -0.804491 -1.523794 -0.146001 2.154270 0.844851 -0.577830 1.214931 2.232147 
womenshoes 0.442361 -2.323281 0.892734 -0.003885 1.085302 0.580659 1.315236 0.996858 -0.473562 0.644017 
princess -1.735306 2.575875 1.295088 1.818799 0.062090 0.034135 1.087360 0.378686 -1.525839 0.235867 
dot -1.831058 0.838378 0.020514 0.660667 0.342574 0.138237 1.669798 0.499577 -2.473419 0.022230 
stuart -1.285915 -0.877461 -0.182415 -0.593286 -1.558092 2.368893 -0.075550 0.567926 -0.193625 0.999016 
guess -0.635892 -0.775386 -0.183628 0.235682 -0.784952 1.339220 -0.189170 -0.027132 -0.351300 0.293522 
median -0.994853 -1.612221 0.443126 1.325888 0.234238 -1.547194 1.741607 -2.085135 0.549321 1.734385 
shinny -1.050471 -2.013730 1.100392 1.818339 0.171160 -0.894509 1.929267 -3.438553 -0.283766 2.648543 
born 0.290929 0.132322 -0.706864 -0.696022 -1.263849 2.076764 0.086579 -0.147193 0.703999 1.682861 
knight 0.607633 1.222848 1.813304 1.476650 -0.026427 1.463124 -0.311358 0.914560 -0.600587 1.147992 
western 0.605950 0.787154 0.574514 -0.753801 0.917940 1.462560 -0.895299 0.230015 0.843726 2.599236 
crochet -1.945713 -1.336611 0.031081 -0.542049 -0.460298 0.499338 0.869282 0.003433 1.415573 2.934283 
thin -1.049892 2.273145 1.519518 1.182534 0.886741 0.425956 -0.050130 3.757793 0.625206 0.261379 
luxury 0.113289 -0.428301 0.738943 1.588062 0.969983 -0.093778 0.152993 -0.343622 1.122754 0.568384 
rose -0.882265 0.322089 0.482088 -2.250848 0.444144 1.041319 0.922849 0.981448 0.954745 0.950613 
pointedtoe -0.587956 -0.079591 2.239866 1.923349 -0.355410 1.513075 1.592915 -0.618775 -2.238488 -1.147445 
jordom -0.254682 0.315345 -0.371814 -1.561874 2.012929 -0.632379 2.439295 2.115987 0.737690 1.303968 
lauren -0.016520 -0.214269 0.097177 -0.416777 -1.357157 2.718584 -0.098730 0.597728 0.074193 0.442045 
dancer -0.606301 -1.219131 0.104170 2.435701 0.396190 1.188295 -0.097562 -0.129315 -2.342451 0.457555 
breather -0.917350 2.032835 -1.885352 -0.395744 0.691950 1.184294 2.246911 0.732808 -0.371461 2.865536 
holes -0.498970 1.430165 -1.427598 -0.484075 0.720557 1.522997 1.584926 0.699108 -0.044673 2.449492 
creeper 0.173752 0.741889 1.269497 3.215129 -0.687920 -0.386352 1.288479 1.203833 -0.739372 3.637089 
weitzman -1.186646 -0.665392 -0.709399 -0.834908 -1.744485 1.962225 0.244698 0.362069 -0.194881 1.289910 
naturalizer -0.350215 -0.398871 -1.142119 -0.025209 -0.750111 1.883660 0.019324 0.814303 0.896443 1.027737 
fae 1.186730 -1.413540 0.699795 0.703138 0.750528 0.931283 1.664429 0.813733 1.428984 0.186275 
partyprom 1.682210 -2.716295 0.848028 0.635859 0.691953 1.595291 2.201612 1.217246 1.610741 -0.064814 
ups -2.401926 0.097197 -0.946474 0.524947 -0.244727 0.331072 -1.216633 0.946577 0.448378 2.695933 
natural -0.410719 -1.221644 -0.497121 -0.921419 -0.008462 1.196720 0.072717 0.245818 0.260132 1.209680 
slide -1.692664 -0.153415 -0.836774 -0.386116 -1.218622 1.765798 -0.935115 1.262800 -0.830141 0.962821 
multi -1.343668 -1.488642 -0.014102 -0.174746 -0.972482 1.597245 0.003026 -0.382554 0.658683 0.328682 
ivory 0.086262 -0.142372 0.446089 -0.544197 1.275190 0.883088 0.865922 -0.764346 -0.741809 -0.534128 
skechers -0.515069 -0.708433 -0.837249 0.130101 -0.196522 0.085353 0.199618 -0.315596 0.658741 2.953533 
euc 0.216784 -0.795453 -0.135335 -0.393907 -0.366040 1.397523 -0.166658 0.043475 0.084207 0.779382 
fasten -0.372718 2.061622 1.141962 2.038338 0.056927 1.847811 0.408433 1.150856 0.813934 -0.144615 
couture -0.668320 -1.386539 0.691738 -0.936264 -0.746368 1.448381 0.033818 0.607970 -2.625196 0.217753 
bootie -1.427700 -1.515255 -0.371353 1.019479 0.654441 -0.198811 -0.151133 -0.700364 0.424734 2.340814 
superga -1.313076 -1.107380 -0.093320 -0.048327 -1.120827 0.477108 1.760026 0.627317 1.386732 1.267233 
dolly -0.251041 0.086339 -1.031752 -0.153471 0.533535 0.930896 2.227853 0.379022 0.352373 1.709996 
mus 0.389735 -1.301055 0.103248 -0.453530 -0.103408 0.906568 -0.158802 0.761334 0.071362 1.330074 
queen 0.230210 -1.165930 1.712355 -0.083483 0.275465 0.544892 1.113892 -1.595247 -1.465578 0.984297 
overtheknee 1.427071 -0.597587 0.169405 2.063085 1.359209 1.185577 0.503823 1.227042 2.374895 0.213323 
retail -0.088873 -1.158730 0.716425 -0.038163 0.098535 0.537145 0.954592 -0.100844 -1.420368 0.656213 
slingbacks -1.338264 -1.209455 0.374683 0.714537 -0.880855 0.875705 0.709985 0.522121 -1.213115 -1.054871 
dance -0.397312 1.437436 -2.061177 -0.010222 0.971061 1.594716 0.459622 1.600982 0.738389 0.006035 
belt 0.587480 0.485198 0.153977 1.072648 -0.041069 0.779508 1.175234 1.856637 0.795149 -0.686789 
cowboy 0.436722 0.553481 0.965874 -0.411795 0.778548 1.146479 -0.873123 -0.243889 0.858690 2.854199 
mens -2.496266 1.223440 0.264005 0.244682 1.484891 -0.353648 1.376248 -0.134177 1.975254 1.788904 
asics -0.174252 -1.942044 -0.891180 -0.584003 0.260858 1.565887 1.449164 -0.480967 1.614907 1.182506 
rainsnow 0.908452 -0.481288 1.078053 0.141057 0.927107 2.929736 -0.819863 1.547174 2.603633 1.067489 
rainboots 0.052817 -1.560449 1.548684 -0.910249 1.146111 3.023970 0.078665 1.603409 2.439761 0.946999 
tiana -0.588874 0.053317 1.998122 -0.419756 1.163329 0.310540 -0.153504 1.710890 -1.610946 -1.306150 
rubina 0.075669 -0.800902 -0.737704 -0.225439 2.541967 2.054139 0.040021 1.154758 -0.823751 -1.453151 
coral -0.093172 -1.245393 0.736219 -0.182548 1.057363 -0.278606 1.176685 -0.495869 -0.087663 0.329243 
haan 0.136353 -1.033685 -0.629072 -1.340345 -0.054314 1.546583 0.103132 1.125815 0.961629 1.352809 
embroidery 0.122107 -0.086928 -0.008011 2.231315 0.034260 -1.142986 1.673373 -1.101269 -0.424568 1.415756 
multicolor -0.523842 -0.245041 -0.856356 0.112822 -0.091629 1.713671 -0.431291 0.244051 0.045862 1.436422 
feminino -0.668801 0.608017 -0.114978 -1.828388 1.415506 2.606117 1.552164 -0.495730 -1.947608 -0.112064 
jhrg -0.718349 0.183915 0.012547 -1.445797 1.284619 2.721731 1.156749 0.043861 -1.296558 0.280908 
gggn 1.577655 -1.725916 2.086668 -1.189546 1.424214 0.993569 0.714232 0.143960 0.415625 -1.101682 
cuffs 0.328221 0.175483 0.886167 3.413309 -0.724070 -0.046125 1.136062 1.753351 -1.018536 3.062791 
print -0.761732 -0.504840 -0.547569 -0.039736 0.100871 0.930239 0.062700 0.247976 0.694261 0.673293 
fisher 0.612081 -1.199059 0.557855 -0.216828 -0.464898 1.284837 0.394907 0.046451 -0.261614 1.422213 
aerosoles -0.357442 -0.259410 -0.455153 0.161561 -0.577481 0.986197 -0.403704 0.110648 0.098122 1.272603 
szm 0.182273 -0.379215 0.470130 -0.332640 -0.722505 1.265669 -0.691996 -0.135122 -0.168441 0.481646 
tennis -0.986681 -1.781705 -0.589134 -0.399698 -0.614735 0.846848 0.704868 -1.092268 2.039620 1.454206 
adidas 0.064018 -0.965570 -0.982588 -0.535396 1.085567 1.384732 -0.199802 -0.459445 0.983397 1.408661 
shape 0.082370 -2.385543 0.707858 0.239590 0.295040 0.752204 -0.550928 0.854532 -0.046049 2.358886 
camel 0.234315 -0.780950 -0.016604 0.400008 0.441559 1.503711 -0.006190 0.054315 0.569210 0.878930 
matte -0.123147 0.965386 -0.427216 1.272064 1.202548 0.614386 -0.332475 -0.063288 0.936905 -0.160348 
rock -0.111586 1.189762 0.675265 2.153399 1.117485 0.350995 -0.272316 1.104855 0.827817 0.332064 
stars 0.941876 -0.013956 -0.064164 1.452306 0.260093 2.389474 1.673295 1.948829 0.393614 -1.366127 
shoesbluet -0.441862 -1.142519 0.471226 0.610686 0.574061 0.291261 1.756945 0.089991 0.563033 -0.749145 
warmer -1.674525 1.795043 0.779137 2.251126 1.308927 0.280275 0.567859 -1.085618 1.742042 0.114340 
butterfly -0.708757 -0.439421 1.559934 -0.026547 0.787356 0.399232 0.154407 0.043622 -1.851845 0.517364 
etienne -0.478285 -0.698529 -0.120944 -0.261218 -0.787458 2.275440 -0.286452 -0.090403 0.275114 0.340207 
class -1.462482 -1.393591 0.026021 0.087841 -0.971363 0.764229 -0.685546 0.521443 0.185143 0.999015 
tory -0.899253 -1.303776 -0.343867 0.854440 -1.245238 1.022368 -0.196239 -0.304808 0.082689 0.973936 
burch -1.015339 -1.670108 -0.307022 0.937542 -1.193173 1.232186 -0.372226 -0.338960 -0.142060 0.641792 
dollhouse -0.345593 -0.986419 -0.370051 0.327758 -0.559568 0.942518 -0.197666 0.516780 -0.829968 0.828196 
lolita -0.320616 -2.353033 1.888711 0.637229 0.830015 0.369445 -0.995377 1.132636 -0.534600 1.748994 
sole 0.558900 0.849869 0.266485 -0.313853 0.569672 1.431673 -0.526166 0.668982 1.903244 0.814558 
blackt 0.584781 -0.645063 0.516703 0.432162 0.588845 0.264197 0.441412 0.527232 -0.123990 0.527256 
imitation -1.813735 1.969794 0.820071 0.236341 -0.736963 1.711752 0.276438 1.185764 -0.111094 0.063676 
franco 0.082485 -0.628692 -0.016419 0.132436 -0.648970 2.034997 -0.406049 -0.004532 0.018381 0.568076 
calvin -0.085830 -0.822287 -0.337740 -0.719977 -0.467581 1.599039 -0.074405 0.385458 0.297119 1.212677 
alfani 0.051183 -0.909834 0.592780 0.236762 -0.463353 1.039637 -0.369153 0.270156 0.624877 0.786412 
burgundy -0.309078 -0.321225 -0.640349 0.034968 -0.440572 2.218578 -0.335212 0.144122 0.140913 1.119560 
puma -0.810138 -0.617376 -0.341327 0.268293 -0.343339 0.488404 0.333104 -0.397963 0.533260 1.491543 
british -0.086706 1.252684 -0.860293 0.963460 0.332736 0.617034 0.306475 0.170429 1.986459 0.128175 
down 0.031751 1.474308 1.395191 0.400024 1.150251 0.716165 -1.002120 0.575937 0.820821 1.172579 
man 0.075200 -0.665871 0.688029 -0.069720 -0.763533 2.647694 -0.358082 -1.840901 -0.804022 1.232852 
brush -1.490136 -0.778138 1.543095 1.738250 -0.910117 0.392467 1.366901 -0.030526 1.473907 -0.788139 
japanese -0.284611 -0.662637 1.390801 0.568141 0.765917 0.325704 -0.646360 0.559060 -0.811051 0.881987 
khaki -0.440350 -0.022172 -0.030415 1.157067 0.666309 1.101437 -0.405793 -0.451178 1.053264 1.491375 
metllic 0.884042 -0.336488 1.066201 0.241894 1.033867 -0.549371 0.403495 0.368052 1.351147 1.090575 
cheap 0.390415 0.582770 0.700027 1.280264 1.540648 0.525471 0.324210 -1.019644 0.770204 1.035850 
slides -0.252770 -0.993453 -0.682965 0.134602 -0.956677 2.073879 -0.251905 0.235757 0.308465 0.686885 
sarto 0.039005 -0.638922 -0.326406 -0.042022 -0.777086 2.197775 -0.515409 0.373263 -0.050281 0.550938 
velvet -1.314221 0.917409 1.446755 -2.034667 1.787009 1.292434 0.861790 0.636589 0.778536 0.989320 
ferragamo -0.797089 -0.707739 -0.381246 -0.157846 -0.808156 1.836998 0.020215 0.285426 0.231879 0.380278 
purple -0.279252 -0.432731 -0.134558 -0.389779 -0.213573 1.565456 -0.212168 -0.244390 0.135001 1.412065 
alice 0.540863 -0.869214 -0.589750 2.035141 1.492258 1.400529 -1.100559 0.451507 1.081440 0.772548 
msrp -0.362099 -0.267766 -0.329047 -0.167639 -0.112401 0.586496 0.432964 -0.342667 0.408564 1.071829 
ann -0.223312 -0.711829 -0.297608 -0.522295 -0.960499 1.831274 0.125562 0.328530 0.515088 0.340237 
aigner -0.215058 -0.603753 -0.142225 -0.461210 -1.311260 2.569252 -0.468403 -0.002808 -0.114200 0.848403 
patchwork -0.584366 1.315967 1.255416 1.441029 -0.700922 1.031091 0.675038 0.380973 0.485096 -0.745449 
heart -0.048800 -2.404551 1.060548 0.433265 0.665719 1.000770 -0.846451 1.085723 -0.288189 2.478596 
yellow -0.925716 -0.356809 0.635380 -0.169595 -0.483366 1.081577 -0.313703 -0.355506 0.289482 0.499179 
almond -1.028838 -0.865143 -0.399302 0.971518 -0.846785 0.091738 1.602487 0.826418 -0.280560 -0.369062 
single 0.429831 0.733180 0.018343 -1.281976 0.798962 3.756046 0.695799 1.743881 1.291989 0.725393 
soda -0.132739 -1.180598 0.626708 -0.583647 0.402618 1.159806 0.019134 0.456598 0.034363 0.352891 
sofft -0.474425 0.291023 -0.105961 0.332312 -0.525712 1.304536 -0.546822 -0.220315 0.195603 0.657793 
scott 0.453771 -0.611317 0.261914 0.072351 0.087787 1.350744 -0.126759 0.420229 0.761664 1.233984 
nwob -0.955192 -0.496155 0.229552 -0.020859 -0.569517 0.906697 -0.208282 -0.479812 0.300994 0.640621 
shoesbrand -0.769267 -0.681664 0.343871 -2.197266 -0.120438 2.794899 1.054952 0.968422 1.287456 0.312218 
tagall 0.281443 -0.124286 0.311456 -1.677720 0.036774 2.661589 1.264929 0.871497 1.087342 0.649930 
wine -0.920651 -0.885587 0.375098 -0.713318 -0.300627 1.677273 0.199721 0.057512 -0.275050 0.677016 
ralph -0.111396 -0.043218 0.053720 -0.079943 -1.057920 2.475219 -0.138477 0.435842 0.228045 0.099278 
light 0.005049 -0.567266 -0.963191 -0.235572 -0.499665 1.927205 -0.012512 -0.315822 -0.217186 1.056577 
taylor -0.161474 -1.195083 0.222595 -0.961791 -1.171643 2.687913 1.141449 -0.270141 0.147780 0.819520 
qupid -0.548315 0.471391 0.678156 -1.805701 -0.490736 0.742206 1.635401 0.474173 -0.763461 -0.778415 
neon -1.350881 -1.949843 0.383015 0.775455 -0.292147 0.118368 0.021083 -0.240116 -0.445734 0.669327 
bownot -1.266011 0.475099 -0.301422 1.512417 -0.613968 -0.163335 0.372822 1.234645 0.736841 -0.253782 
moccasin 0.121847 0.609577 -0.745451 -0.344343 -1.281349 1.534381 2.153877 0.606939 0.270942 2.459369 
grey -0.505810 -1.268269 -0.410200 -0.737946 -0.601233 1.277738 0.777639 -0.512376 1.249510 1.096190 
pattern -0.822022 0.973560 0.287263 -0.704846 -0.442438 1.809242 0.102669 0.540059 0.208648 -0.584549 
bandagebow -0.388349 -2.809433 1.560688 0.529521 0.658868 0.929322 -0.892333 0.845593 -0.274762 2.196931 
fine 0.037818 1.191936 0.154690 -1.884967 0.644009 3.601374 0.563953 1.260060 -0.053605 0.028303 
lining 0.051790 0.037511 1.025854 1.496192 1.463697 -0.118581 1.255231 -0.669861 1.201265 0.963717 
shoestan -0.206000 -0.852252 0.526255 -0.356803 1.542034 0.425606 0.745786 0.056962 0.171210 -0.075678 
jessica -0.004935 -1.306833 0.167079 0.097623 -0.145592 1.415157 0.017032 -0.316964 -0.030609 0.877993 
beach -1.268163 -0.087014 0.322106 0.924898 -0.315790 0.521254 -0.287536 -0.183269 -1.712379 -0.115601 
salvatore -0.586974 -1.095067 -0.534158 -0.178195 -0.960200 1.763760 0.061466 -0.071181 0.584198 0.579857 
marc 0.307735 -1.314579 0.376925 -0.396153 -0.442561 1.228013 0.219900 -0.135758 0.035306 1.100214 
front -0.666148 0.221275 0.201059 0.823923 -0.713835 0.674114 -0.759960 0.515065 -0.037698 -0.307733 
mule -0.182993 -0.339468 -0.606344 -0.832784 -0.613477 1.500153 -0.487882 0.636877 0.219551 1.150803 
soles -1.497942 -0.816716 0.249516 -0.664058 -0.504045 1.426753 -0.050005 1.110624 0.391941 2.056908 
militarymotorcycle 0.416661 0.294269 0.758990 -0.618955 0.932376 1.651347 -0.274544 0.240568 1.163755 2.529147 
yamena 0.274697 0.122557 0.399147 -0.694435 0.886367 1.456399 -0.184395 0.154669 0.779586 2.250736 
arrival -2.013407 -0.278873 0.564632 -0.276735 0.922725 0.130853 -0.032170 1.643639 0.554375 0.170256 
kneehigh 1.224195 -0.210242 0.207230 0.392187 -0.061631 1.657894 -0.675501 0.795076 1.104124 0.687637 
coach 0.053947 -0.386282 0.273720 -0.239785 -0.393493 1.976322 -0.196806 -0.500676 0.328697 0.644921 
bluet -0.255516 -1.056730 0.638770 0.407950 0.431458 0.148246 1.489956 0.335304 0.609656 -0.443280 
womenshoesblack 0.380044 -0.922242 0.531906 0.081028 0.857082 0.517493 0.448426 0.225582 -0.194904 0.218800 
pearls -1.648206 1.968711 1.340186 0.304939 -0.409538 1.431995 0.386443 0.936767 -0.259749 0.133764 
karen 0.322923 -0.504979 0.188648 0.055462 -0.149456 1.626671 -0.178559 0.322216 0.613770 0.963010 
sling 0.076330 -0.700916 0.565095 0.090457 -0.791664 2.247415 -0.135250 0.656777 -0.554904 0.447136 
ugg 0.024145 -0.202167 0.057760 0.155914 -0.436034 1.413957 -0.041096 0.436217 0.674075 0.943805 
nwt -0.927638 -0.720843 -0.511814 0.306109 -0.017336 0.859943 0.005177 -0.074353 0.882415 1.419541 
orange -0.859049 -1.322815 0.778490 -0.150224 -0.246022 1.114286 -0.263486 -0.277845 -0.521109 0.716175 
very -0.150682 0.103997 -0.430057 -0.407965 -1.034947 1.020260 0.214586 0.573810 0.504643 1.087322 
metal -0.958042 0.484153 -0.266629 1.352612 0.335030 0.607597 -0.092605 0.047568 0.530521 -1.018301 
handmade 0.245255 -0.044627 -0.595015 -0.747800 -0.045058 1.171414 1.298694 -0.688982 0.407731 1.181473 
bronze 0.035609 -0.702015 -0.108711 -0.693642 -0.647593 1.347065 0.302854 -0.480384 -0.437339 1.387779 
cotu -2.018538 -0.979915 -0.241755 0.102231 -1.072034 0.405611 1.615566 0.131224 1.751767 1.706583 
shoesfuchsia -0.314861 -1.023355 0.448490 0.123412 0.779473 -0.000862 1.284209 0.240272 0.181340 -0.249182 
cream -1.096364 -1.158146 -0.593236 -0.104455 -0.666165 1.697422 -0.172175 0.002357 0.476074 1.071723 
hair -0.081932 0.699990 0.242611 -0.275551 -0.004460 1.325278 -0.914360 0.310261 0.872220 1.589047 
button 0.164666 -0.140966 -0.591971 -0.156960 1.528438 1.823885 0.345847 0.147520 0.741978 -0.069227 
shoesbeige -0.571656 -1.060788 0.725617 -0.339101 1.096172 -0.075351 0.935060 0.421047 -0.016854 -0.600705 
printing 0.611244 1.555400 -0.634431 -0.090466 0.416438 1.141493 0.635983 1.290858 1.138253 2.250885 
lovers -1.475162 0.266699 0.827675 -0.636951 1.380894 1.433158 0.375863 -0.516808 2.857266 0.972511 
hightop -0.698944 1.529225 1.285031 -1.382065 2.412123 0.866856 0.821356 -0.454040 1.343680 0.892444 
ankel 1.305786 0.040205 0.554244 1.051779 0.361799 0.980812 0.752512 1.441485 0.063508 -0.764059 
linen -0.370555 -1.248594 -0.108133 -0.018417 0.629779 1.526482 0.006493 0.065187 0.403281 0.416063 
footwear -0.848817 0.376423 -0.439787 0.049513 -0.715315 0.702750 0.470484 -0.761129 -0.421077 1.809989 
kenneth 0.360923 -0.718490 -0.128168 -0.682987 -0.027767 1.994148 0.284951 0.245486 0.958815 1.295702 
beautiful -0.307593 -0.520481 0.072951 -0.193876 -0.262317 1.709067 0.002241 -0.240531 0.208892 1.052444 
supra -0.294651 -1.530459 -0.330672 -0.313159 -0.238713 1.435643 1.039325 0.016402 0.468491 0.721151 
vans -0.283886 -0.497364 -0.465504 -0.241565 -0.436615 0.663313 1.041182 0.279609 0.900076 1.138371 
preowned -0.258442 -0.552715 -0.170089 0.079877 -0.550208 1.132626 -0.223862 -0.648041 -0.324186 0.420342 
nib -0.304073 -0.792057 -0.083781 -0.102802 -0.256127 1.266108 0.236939 -0.148908 0.062331 1.002879 
rockabilly -0.587999 -0.519206 0.508378 -0.734467 -0.120070 0.930102 0.305872 0.641082 -1.524772 0.515136 
england -0.285564 0.753697 0.074138 0.484349 -1.145598 1.380255 -0.290710 0.477383 1.107387 1.419473 
enzo 0.371289 -0.928625 0.312900 -0.327569 -0.311853 1.554687 0.302355 -0.889306 -0.066244 0.897954 
amber -1.120239 -1.445355 -0.285598 1.017021 0.540042 0.153323 0.440030 -0.488703 1.077534 2.136508 
lively 0.395020 0.338899 1.886685 0.186728 0.892658 0.507389 1.066222 1.392227 -0.078413 -0.844992 
antislip 0.496253 1.184496 0.457060 0.755047 0.514819 0.695136 0.948516 -0.572585 0.660552 0.933620 
large -0.261186 1.012502 0.180332 1.144630 0.322960 1.246328 -0.323657 -1.539063 1.056459 1.232224 
assorted -2.344278 0.102007 0.356681 1.553295 -0.766853 0.995927 -0.425542 -1.031319 1.448805 0.738544 
highheeled -0.714399 1.430959 0.178511 -1.227023 0.210050 3.010638 0.876532 1.473755 -0.256218 0.025947 
star -0.282520 -1.424576 0.028916 -0.301008 -0.860866 1.874434 0.582578 -0.630318 0.151115 1.383522 
metai -0.137396 1.146234 -0.331933 1.440280 0.400175 1.739061 2.284331 -0.129653 0.745824 -1.520882 
liliana -0.193036 0.063981 0.087946 -0.260286 -0.062843 1.391667 0.183920 -0.276729 -0.157665 0.441303 
olive -0.580349 -0.400862 0.254088 -0.046647 -0.442724 1.557016 0.097775 0.103030 0.228806 0.447651 
dillian 0.512020 -0.591815 -0.713171 1.088384 0.387085 1.575704 -0.433959 0.745745 0.988607 0.150868 
puleather 1.088734 0.074378 -0.295696 1.565699 0.619542 1.978048 -0.637163 1.043318 1.436632 0.465047 
bandolino -0.269275 -0.299504 -0.117665 0.013154 -0.231629 1.067470 0.001005 0.304829 0.534000 0.562028 
beauty -0.971915 -1.617104 0.330585 0.679122 -0.288277 0.604331 -0.133292 0.650145 -0.742883 0.112081 
vince -0.478843 -0.813942 0.384450 0.044032 -0.399448 1.050414 -0.008501 0.631419 -0.276434 0.754760 
charlotte 0.182233 -1.304889 0.022077 0.072993 -0.058717 1.022233 0.060133 0.332360 -0.298652 0.424979 
russe 0.249621 -1.894168 0.073063 0.237553 -0.069685 1.196735 0.136613 0.566996 -0.348595 0.109185 
whiteblack -0.948854 0.457634 -0.238636 -0.273176 -0.152577 0.950231 1.074043 -0.006823 0.847446 1.445217 
dorsay -0.930939 -0.643998 0.008043 0.068794 -0.491940 0.349290 -0.166254 0.493860 -0.977421 -0.060102 
royal -0.261752 -1.375478 0.406569 0.020947 -0.365290 0.665152 0.470952 -0.445425 -0.097411 0.520697 
tony -1.336849 -0.031497 -1.299049 -0.016080 -0.021024 -0.189769 0.784532 0.694562 0.406010 1.152628 
siz -0.928701 -0.699027 0.011117 -0.642627 -0.338539 1.092050 0.032725 0.759271 0.391141 1.612070 
lovely -1.050874 0.733026 0.049297 -0.116401 -0.583562 -0.221792 0.438009 -0.630214 0.339282 0.010050 
for -0.350219 0.157977 0.275649 -0.616460 0.228075 0.972767 0.299433 0.097371 1.544577 0.789089 
fringe -0.330397 -0.426359 0.127445 1.203961 -0.333294 0.534785 -0.204059 0.855556 0.894931 1.167263 
brazil -0.103581 -0.280975 0.087941 0.063764 -0.479482 1.384172 -1.115003 -0.497417 -0.187358 0.609937 
simpson -0.370680 -1.619549 0.224757 -0.033304 -0.343062 1.089705 -0.111443 -0.412676 -0.301484 0.577920 
trim 0.268744 0.101980 1.397577 1.337671 0.618408 0.325166 -0.441751 0.248677 0.390585 0.556047 
aknle -0.177993 0.496491 1.299235 0.589311 0.625027 0.674858 -0.184434 1.274542 -1.601193 0.035876 
midtop -1.305004 -0.420101 -0.281822 0.452785 0.600385 -0.261785 0.893884 -0.760237 0.979534 2.294868 
celeb 0.205925 -0.802455 1.008779 0.319259 0.599958 0.864128 1.133734 0.399243 -0.266827 -0.852266 
stylesj -0.078787 -0.609251 0.929597 0.120889 0.488209 0.958893 1.035599 0.469183 -0.411376 -0.813503 
lightning -0.129457 -1.337872 -0.726215 -0.382253 0.538526 1.335654 1.060167 -0.653158 1.254086 1.380289 
freestyle -1.125969 -2.144282 -0.536078 1.506063 1.072163 -0.534281 0.387303 -0.472815 0.494751 1.193546 
plush -0.351505 1.265364 0.527477 0.596606 -0.769548 0.534682 0.151644 1.553165 0.824926 0.462135 
tahari -0.370633 -0.145003 0.051697 -0.099995 -0.061638 1.243540 -0.140371 -0.197505 -0.067517 0.678699 
mia -0.091837 -0.256188 -0.149339 -0.106610 -0.179964 1.166992 0.201807 0.163938 0.306190 0.039501 
flower 0.023847 -0.721432 -0.110173 -0.143484 -0.197468 1.102038 0.710843 0.206899 -0.712682 0.279712 
denim -0.617815 -1.278084 -0.158765 -0.494317 -0.092956 0.885124 0.861187 0.590052 0.689650 -0.202591 
quilted -0.443952 -0.942875 0.005936 0.291931 -0.740267 0.959315 0.062957 0.403448 0.143454 0.835883 
opentoe -0.166995 -1.086657 0.097865 0.076475 -0.654210 0.874492 -0.242252 -0.002280 0.038609 0.308595 
authentic -0.418239 -0.098654 0.201544 -0.569017 -0.580481 0.582323 0.349750 -0.162738 0.815155 0.956910 
camuto -0.398640 -0.931460 0.400917 -0.149619 -0.506158 1.342776 -0.116371 0.668675 -0.249084 0.888969 
croc -0.590259 -0.618125 -0.403798 0.409045 -0.012260 2.377821 -0.462697 -0.178956 -0.017070 0.958816 
studs -0.573130 -0.366916 -0.535691 0.426803 -0.332598 1.393731 -0.417181 0.116910 -0.045523 -0.183898 
merrell 0.135963 -0.042359 -0.192189 0.033695 -0.195426 1.002606 -0.259706 -0.053050 0.541766 0.826299 
bonnibel -0.889751 -0.095763 0.026167 -1.026038 -0.370355 1.071909 0.248215 0.122632 -0.693733 0.591419 
inbox 0.388033 -0.958902 0.382568 -0.347698 -0.781118 1.618079 0.080647 0.108586 -0.521295 0.739770 
australia -0.214638 0.327658 0.229998 0.114027 -0.256641 1.374149 -0.064158 0.158355 0.846014 1.043658 
stripe -1.047656 -0.831470 -0.044112 -0.265138 -0.090947 0.336778 0.632287 -0.049794 0.759441 1.220537 
slouch 0.083908 1.611363 0.599352 0.823090 0.101248 0.934119 -0.846532 -0.063888 -0.776399 1.566051 
angiolini 0.452707 -1.098802 0.128241 -0.270820 -0.167084 1.439033 0.201118 -0.771971 0.051927 0.811285 
diamond -0.435225 0.214191 -0.346945 0.568549 -0.198216 0.226672 1.470086 0.342468 0.208874 -0.185127 
retro -0.437905 0.729977 0.099855 0.884506 0.028398 0.701951 0.592557 0.030765 0.029213 -0.578118 
middle -0.792018 -0.465268 0.054924 0.099562 -1.367265 0.585987 0.551962 0.615044 -0.638010 -0.076749 
flowers -0.095003 0.408420 0.344511 -0.292911 1.067577 0.483400 0.587200 -0.348352 -0.534824 -0.406066 
womenshoesbluel -0.298616 -0.744949 0.577885 0.661613 0.441606 0.318755 0.979074 0.241951 0.381819 -0.588362 
lowheeled -0.932912 1.770213 -0.932660 0.419060 0.500772 0.892334 1.121171 -0.610907 0.899763 -0.312995 
ons -0.174476 -0.511273 -1.603599 0.238922 -0.824129 1.001477 0.558963 1.313601 0.053165 1.323897 
onyx -0.151064 -1.451437 -0.521978 -0.389764 0.480759 1.243458 0.980908 -0.272127 1.214661 1.244567 
moc -0.160307 -2.093177 -1.078559 0.141296 -0.142556 1.369615 0.350788 0.409102 0.623197 1.421563 
wood -0.431976 -0.933637 0.237836 0.932734 0.263811 0.984429 -0.704990 0.104313 -0.846051 0.105345 
golden -0.910459 0.745826 0.920380 0.391751 1.158906 1.131652 -0.425243 -1.399235 -1.216988 0.543612 
designer -0.354282 -0.499562 -0.123550 -0.277951 -0.294959 0.761377 0.340883 0.189771 0.071139 0.398670 
kayson -1.417276 -0.062086 0.362258 0.602827 -0.027924 1.029346 -0.089471 0.535864 -0.077994 0.903711 
nina 0.310091 -0.496545 0.486154 -0.498752 0.128624 0.897333 -0.336466 0.067395 -0.442850 0.469499 
tip -0.079195 0.148443 -0.399128 1.044598 0.135673 0.891597 -0.455732 0.016453 0.094068 0.865134 
rampage 0.154645 -0.183422 0.254756 0.018486 0.110489 1.223432 0.029901 -0.016119 0.140315 0.607805 
life -0.064705 -0.208171 0.112132 -0.027731 -0.103574 1.188649 -0.161719 -0.057018 0.223288 0.945168 
driving 0.130077 0.632806 -0.903361 0.601844 0.125865 0.867366 0.530110 0.223137 1.186852 0.578106 
dansko -0.231073 0.061948 -0.396885 -0.455541 -0.656076 0.610584 -0.682767 0.453722 0.200709 -0.388605 
american -0.064081 -0.072495 -0.287059 -0.048722 0.079704 0.874083 -0.367509 -0.354298 0.077650 0.485889 
mint -1.066122 -1.178302 -0.602556 0.117294 -0.272032 0.408754 0.472018 -0.415743 0.939108 1.766706 
turquoise -0.257756 -0.557426 -0.330829 -0.208854 -0.064499 1.185000 0.788880 0.125070 0.403001 0.615520 
liz -0.304033 -0.165160 -0.235271 0.094616 -0.295799 1.014081 0.130120 0.139530 0.279389 0.652716 
stunning -0.126647 -1.236853 -0.078278 -0.383525 -0.347879 1.687103 0.721337 0.011463 0.102026 0.705439 
shoesnude -0.230931 -0.589909 0.505178 -0.215533 0.774633 0.300346 0.779191 -0.055706 0.285166 0.137059 
wallabee -0.370320 0.446132 0.097822 0.673873 -1.015381 1.101277 -0.558122 0.527191 1.205689 1.174020 
slipper 0.050021 0.137585 -0.257746 -0.207232 -0.247762 1.718027 0.316172 1.672808 0.504184 0.291651 
jewels 0.066702 -0.555990 0.476363 -0.543324 0.393431 0.946210 0.334857 1.624378 0.030892 0.774568 
aldo -0.445759 -0.630894 0.041138 0.321728 0.225492 0.800240 0.184174 -0.117937 0.074895 0.201169 
puppies -0.421616 0.584584 -0.678718 0.662448 -0.475895 0.867094 0.390812 1.015881 0.216193 0.791522 
boat -0.751133 0.313310 -0.639064 0.132561 -0.416834 0.583137 0.348080 0.403657 0.174624 0.391023 
diva -0.261586 -0.801068 0.418538 -0.481827 -0.229481 0.652877 0.497822 0.276084 -0.195608 0.664563 
invisible -0.547003 -0.105543 0.333317 0.309283 0.677401 -0.435193 1.161324 0.183110 0.810777 0.928294 
heighten -0.910741 -0.105438 0.030998 0.318698 0.429145 -0.581993 1.132313 0.075352 1.205103 1.332193 
sas -0.629641 -0.546375 -0.724542 -0.067305 0.559321 1.039515 -0.014858 0.215546 0.024216 0.793372 
long 0.706402 0.535187 1.015652 0.225663 0.212120 0.494314 -0.292125 0.685240 0.710191 0.394596 
fila -0.032057 -2.027214 -0.723751 0.106788 0.071438 0.995141 0.100981 0.078253 0.303825 0.918202 
dbus -0.757780 0.625941 -0.740225 0.383030 -0.008216 0.442318 0.866935 0.984868 0.486644 1.157253 
shoesblackl 0.287322 -0.526904 0.350025 0.421888 0.229220 0.081945 0.211944 0.238292 0.016644 0.285345 
simply 0.057071 -1.343057 -0.258388 -0.387900 -0.089697 0.960572 0.502618 -0.049895 -0.041664 0.766945 
maryjane -0.813370 -0.834335 0.423895 -0.523712 -0.138655 0.710920 0.170263 0.979094 -1.047248 0.117036 
gift -0.679306 0.083723 0.093944 0.451951 -0.026298 0.403330 0.398075 0.040196 1.040472 0.594667 
adjustable 0.359200 1.083889 0.453207 0.283226 0.941979 0.621004 -0.312094 0.525799 0.347706 0.809184 
dancing -0.273682 -0.331120 -0.149945 -0.349774 0.347514 0.315181 0.748375 0.017033 -0.079543 -0.590791 
easy 0.541345 -0.266603 -0.293752 -0.191443 -0.186867 0.942384 -0.011898 0.561644 0.529355 0.405110 
tommy 0.220434 -0.508889 0.014431 -0.544660 -0.253407 1.238684 -0.147914 0.137023 0.295385 0.897461 
excellent -0.133319 -0.383315 0.019436 -0.007106 -0.131406 1.249749 0.129761 0.016595 0.149219 0.374519 
clog -0.091430 -0.432552 0.075070 -0.464672 -0.446752 1.526691 0.012069 0.342228 0.316849 0.583872 
balance -0.161411 -0.315794 -0.579641 -0.079311 0.170175 0.878162 0.581774 -0.195015 0.601663 1.094742 
embossed -0.623610 -0.439341 -0.226261 -0.099921 0.110608 2.074083 -0.613494 0.297605 0.064059 0.477838 
stovepipe 0.410906 -0.075145 0.831141 0.225963 0.303511 1.079680 0.271735 0.649883 0.389883 0.850486 
champion -0.371742 -1.017880 -0.020823 -0.052619 -0.063623 1.010358 0.840560 -0.186717 0.609452 0.745978 
gym -0.504295 -1.512989 -0.215764 -0.128777 0.026838 1.180669 1.216016 -0.445209 0.982110 1.077515 
leatherlike -1.048946 -1.253083 0.385660 0.981809 0.280223 0.237379 0.137373 -0.438011 -0.180861 0.456537 
sho -0.137795 -0.464092 0.231765 0.161935 -0.034983 0.995782 -0.149333 0.415057 0.076653 0.799496 
pierre 0.148874 -0.863801 0.356132 -0.410987 -0.180707 0.932012 0.395116 -0.124122 -0.717322 0.394254 
buckles -0.112284 -0.224821 0.010566 -0.266265 -0.009138 1.060495 0.002026 0.457391 0.469529 0.507455 
spiked -0.384830 -0.080932 -0.288531 -0.102668 0.334591 0.073300 0.052773 1.515109 -0.365155 0.018049 
pegasus -0.313586 -1.543664 -0.163412 -0.948085 0.247983 1.454380 1.118237 0.029906 0.977517 1.227733 
bass -0.162674 -0.017678 -0.617845 0.109267 -0.250809 0.853795 0.206106 0.541835 0.521490 0.661049 
gldadys -0.019270 -1.419546 1.386642 0.014613 -0.160870 1.249134 -1.349457 0.621528 0.134634 0.858788 
pla 0.189155 -0.765522 -0.303266 -0.221560 2.253775 -0.529769 0.312520 -0.105283 -0.937280 -0.013455 
performance 0.197691 -0.837089 -0.258547 -0.509266 1.007005 1.370034 0.353077 -0.351476 0.340422 1.175236 
boost 0.231608 -0.789943 -0.398736 -0.375032 0.543440 1.392263 0.346859 -0.314977 0.361592 1.067695 
clear -0.944705 0.315477 0.241538 0.255377 0.055214 0.061789 -0.395960 -0.019267 0.422309 -0.477269 
gianni -0.582528 -0.524632 -0.055917 -0.019159 0.031084 1.441670 -0.427453 0.042593 -0.140034 0.549624 
bini -0.217694 -0.423502 -0.267168 0.323130 -0.130884 1.875049 -0.560451 -0.105594 -0.060005 0.523817 
alumni -0.293449 -2.194098 -0.518239 0.304505 -0.069281 1.406721 0.278096 0.349180 0.544760 1.540818 
womenshoesblue -0.139761 -0.856510 0.616030 0.190712 0.295504 0.238125 0.769710 0.214209 0.483126 0.070057 
sand -0.341823 0.165009 -0.050648 0.720616 -0.000999 0.394820 1.571335 -0.959629 -0.111147 1.493603 
converse -0.396328 -0.513574 0.207272 -0.123363 -0.423645 1.210905 0.540043 -0.297054 0.176458 0.797843 
increased 0.838128 0.206844 0.999439 0.602488 0.881359 0.841940 -0.267098 -0.517054 -0.912057 1.080091 
cuban -0.647868 0.527580 1.089707 -0.024954 1.068202 0.098650 -0.461047 -0.223849 0.542366 0.439307 
stilleto -0.266922 -0.206739 0.632009 0.176600 0.448026 0.647298 0.258511 0.413735 0.168914 0.249846 
bcbg -0.081851 -0.340972 0.072885 0.105321 0.002494 0.719867 0.164068 -0.176700 -0.066319 0.473191 
max -0.725898 -0.639882 -0.030257 -0.901904 -0.161734 1.556993 0.591374 -0.452862 0.058001 0.889149 
fioni -0.222926 -0.426337 0.169155 -0.104435 0.239853 0.676487 0.203382 -0.100156 -0.352134 0.134341 
modern -0.264335 0.205490 0.162291 0.712035 0.198298 0.502779 0.065156 0.541301 0.125181 0.193732 
amalfi -0.238510 -0.357303 0.051459 0.292749 -0.244623 1.285455 -0.034063 0.122950 0.118894 0.509050 
hilfiger -0.095474 -0.458436 0.188770 -0.251517 -0.028206 1.527471 0.022042 0.122007 0.616160 1.098930 
snakeskin -0.256788 -0.623565 -0.166393 -0.326915 -0.403842 1.356141 -0.104113 -0.153876 -0.074412 0.737492 
knitting 0.871099 0.018547 1.207141 -0.051798 0.255596 1.390593 0.208104 0.705548 0.436858 1.070055 
splice 0.805859 -0.072814 1.123446 0.053036 0.472604 1.387044 0.332126 0.777661 0.500804 1.219662 
skin -0.533316 -0.264040 0.080282 -0.340028 -0.224097 1.434979 0.011190 -0.018381 0.168167 0.441683 
corset -0.421218 -0.106166 0.312649 0.990577 0.213625 0.124393 -0.631812 0.476444 -0.112022 0.150505 
flex -0.331049 -0.168532 -0.248932 0.080244 -0.541372 1.236733 0.200432 0.380348 0.261868 0.844679 
dumas 0.071093 -0.847324 0.649514 -0.526350 -0.253197 1.076252 0.522035 -0.046101 -0.862854 0.289560 
fish -0.666794 0.012816 0.526117 1.034407 -0.414581 0.533437 -0.425161 0.617103 -0.527359 0.493409 
david -0.084659 -0.283482 0.170758 -0.365609 0.288834 1.347249 0.001121 -0.199072 -0.199725 0.768945 
keds -0.284343 -0.796146 -0.943112 0.149617 0.305817 0.865406 0.216481 0.321104 0.417233 1.188521 
sam 0.195065 -0.289572 0.164638 -0.126041 -0.178332 1.087508 0.080609 0.059043 0.421402 0.483613 
oxford -0.201256 0.122437 -0.472773 0.163628 -0.132092 1.112423 0.485902 0.187550 0.400273 1.159803 
beeswax -0.229922 -0.003011 0.025579 0.500169 -0.533596 1.229289 -0.269415 0.262825 0.933406 0.786720 
tribal -0.145820 -0.382374 0.044901 0.438491 0.631225 0.520077 -0.669322 1.078588 0.525998 1.680476 
knit -0.301645 -0.308351 -0.239515 0.442846 0.643038 0.388742 -0.873080 1.182285 0.570593 1.554456 
houndstooth -1.045216 0.066573 -0.263804 -0.029909 0.045683 1.165915 0.777972 0.573095 0.511566 1.065347 
teeze -0.160571 -0.811235 0.473359 -0.512380 -0.339571 1.352186 0.521316 0.712865 -1.142431 0.506210 
neutral -0.362826 -1.213024 -0.138839 -0.548830 0.202304 1.150049 1.204625 -0.082695 0.859516 0.893875 
livingsz 0.305115 -0.784955 0.239648 -0.260234 0.011957 0.919608 0.198060 0.981192 -0.011920 0.612623 
khussa 0.096895 -0.066532 -0.993156 -0.733506 -0.122514 1.704804 1.764848 -0.924415 -0.296369 1.026503 
partywedding -0.670270 -0.724020 0.165098 0.411331 0.233824 0.556121 0.921180 0.287978 -0.425073 -0.154059 
height -0.070976 0.945388 0.689568 0.456863 -0.126642 -0.112177 -0.600842 0.053083 0.418903 0.944108 
good -1.045315 0.446131 0.547815 -0.269809 -0.086147 0.052040 0.034840 0.240203 0.040180 0.483125 
fit 0.159133 -0.243472 0.192731 -0.279156 0.012415 1.477961 0.018597 -0.252452 -0.054168 1.447749 
textured 0.523844 -0.517320 0.026472 0.623874 0.274862 1.076885 -0.053349 0.545051 1.368468 0.343669 
cutey -0.302039 0.454065 0.880331 -0.181566 -0.123653 1.336185 0.190948 -0.455187 -0.080470 0.477589 
classical -0.331771 0.110148 0.942997 -0.331817 -0.001741 1.355368 0.101783 -0.694166 -0.029831 0.673153 
plumps -0.240515 0.022258 0.866785 -0.298506 -0.056380 2.148740 0.003714 -0.563731 0.263001 0.920548 
stileto 0.302660 -0.494198 1.474825 1.310367 0.632448 0.637148 -0.181464 0.320889 0.104116 1.222298 
minnetonka -0.668819 -0.622406 -0.474079 1.640231 0.692779 -0.419633 -0.862830 0.557448 0.305734 1.132715 
oxblood -0.360306 -0.783509 -0.322577 0.608303 -0.423656 0.693716 -0.447083 0.473340 -0.603417 0.617269 
lattice -0.800711 -0.800620 0.871948 0.717095 0.292582 0.447898 -0.018225 -0.463662 -1.107148 -0.576351 
shoescoral -0.080234 -0.374794 0.504430 -0.168086 0.401448 -0.048426 0.874433 -0.098798 -0.162545 0.297063 
terrex 0.239014 -0.741861 -0.251866 -0.362287 0.814285 1.620804 0.261463 -0.311083 0.338517 1.250134 
kardashian -0.689948 -0.691639 0.619738 -0.651402 0.013828 0.980825 0.175664 0.425889 -0.744392 0.493972 
cat -0.550721 -0.083223 -0.189256 -0.198122 0.086698 0.674381 0.503411 -0.775721 0.161140 1.350348 
viral -0.206902 -0.289126 0.802774 0.366213 -0.277698 0.216393 0.120881 -0.860615 -0.267032 0.416866 
cotw -0.639405 -0.385916 -0.426989 0.283242 -0.455068 0.381934 1.431630 0.392385 0.790396 1.009253 
shoesblackv -0.140736 -0.593207 0.604247 -0.088984 0.389828 0.402357 0.443078 0.255729 0.200995 0.100278 
shoesblackt -0.122349 -0.277170 0.479248 0.049816 0.344587 0.124415 0.370348 0.031948 -0.005955 0.225838 
miu -0.303770 -0.871686 0.262046 -0.003853 -0.481025 1.325864 0.040862 -0.278449 -0.393802 0.339618 
premium -1.028462 -0.790637 -0.411732 -0.110353 0.059331 1.522118 0.124258 -0.306430 0.437651 1.360081 
glittering -0.272382 0.173534 -0.430967 0.188654 0.627532 0.913376 0.493824 0.580013 -1.104363 -1.043097 
hotglitter 0.014673 -0.261442 0.299946 -0.002139 0.331645 0.876743 0.481605 -0.129769 -0.302354 0.173783 
bamboo -0.749881 -0.196970 -0.071155 0.052490 -0.074278 0.629334 0.550654 0.100441 0.090033 0.064567 
beads -0.263334 0.367751 -0.137545 -0.241573 0.367325 1.223789 0.613248 -0.463946 -0.544231 -0.148064 
reaction 0.183377 -0.606067 -0.123093 -0.177594 0.006096 1.566682 0.258005 0.166364 0.618028 0.996214 
jewel -0.666854 -0.843795 0.719652 -0.205720 -0.059341 1.518638 0.348288 0.776298 -0.233326 0.172616 
love -0.779670 -0.806425 0.062549 -0.419340 -0.439523 0.866914 0.604257 0.545117 0.109189 0.060925 
ariat 0.059934 0.035928 -0.366668 -0.053887 -0.193425 1.236327 0.321112 0.533331 0.181551 0.756016 
wrap -0.414327 -0.888810 0.333042 0.571476 0.480488 1.047817 -0.811047 -0.344734 -0.891134 0.004326 
laundry 0.129053 -0.159011 0.178647 -0.453233 -0.021268 1.159663 -0.043456 -0.192500 0.061477 0.075863 
display -0.187257 -0.453830 0.001368 0.355407 -0.256228 0.587027 0.272753 0.068683 -0.100459 0.471115 
baby -0.028257 -0.358664 0.117105 -0.052534 0.040731 0.860835 0.526550 -0.213473 -0.024835 0.623843 
phat 0.082317 -0.156609 0.039034 -0.119706 0.092167 1.004740 0.497701 -0.326516 -0.093426 0.863989 
cottonpadded -0.086796 1.035176 0.599439 0.414067 0.419445 0.731025 -0.169014 -0.048478 0.863619 -0.127950 
delicious -0.172193 -0.713848 0.381510 0.120541 -0.219912 0.875627 0.221818 0.055791 -0.252550 0.174565 
charles -0.469006 -0.459639 0.187327 -0.123861 -0.185721 1.036100 0.430084 -0.027097 -0.101532 0.463501 
dazzling -0.069737 -0.193277 -0.148879 -0.071776 -0.250583 -0.307864 0.437085 -0.343004 0.004703 0.360295 
penny -0.399925 -0.101488 -0.446476 0.461435 0.067699 1.255197 0.466115 -0.028067 0.251522 0.694301 
martion 0.141767 0.855035 0.978991 0.503269 0.073425 0.928250 0.338455 0.468461 -0.096770 0.235228 
cork -0.367849 -0.900614 -0.195205 0.373753 0.254049 0.580365 -0.408165 -0.202793 -0.309355 0.637447 
hush -0.383284 0.241546 0.145453 -0.110150 -0.253389 0.786649 0.202560 0.199578 0.345798 0.544554 
indian -0.131433 -0.142471 -0.454033 -0.537124 -0.143072 1.163938 1.332319 -0.402477 -0.161588 1.111925 
bcbgeneration 0.020232 0.068094 0.191536 -0.898614 -0.529786 0.783502 -0.218832 0.025848 -0.264551 0.649910 
crossing -0.275104 0.662861 0.403862 0.564871 0.104795 0.804703 0.206940 0.491044 -0.841702 -0.411620 
carlos -0.111152 -0.567409 0.235820 -0.077561 -0.190566 1.224256 0.118914 0.242824 0.041123 0.666808 
like -0.431400 0.417960 0.250011 0.361866 -0.247462 0.840270 -0.175208 -0.628663 0.221326 0.750156 
wild -0.318540 -0.709215 0.555225 -0.349639 -0.392023 0.330667 0.451120 0.401676 -0.219392 0.644973 
tripad -0.698023 -0.504225 -0.793776 -0.075905 0.585732 1.468678 -0.100151 0.339839 0.046869 0.989286 
xwx 0.183326 0.161312 -0.418831 1.111538 -0.121893 0.216367 -0.626414 0.428581 -0.064589 0.609897 
blush -0.204502 -0.734457 0.571132 -0.180404 0.854451 0.103456 0.281082 0.075800 0.121304 -0.250272 
claiborne -0.315528 -0.352909 -0.277604 0.063746 -0.052439 0.962476 0.058639 0.105134 0.483351 0.951199 
criss -0.585652 -0.992482 0.595106 -0.133133 -0.465379 0.697146 -0.218064 0.506246 -0.237827 0.099196 
tone -0.370051 -0.394799 -0.207314 -0.242903 -0.036449 0.388979 -0.082888 0.240381 0.130101 1.216759 
emo 0.004373 0.873546 1.180002 0.335115 0.107876 -0.867104 -0.417620 -0.430626 0.656784 0.958192 
valentino -0.171146 -0.356999 0.603862 -0.806652 0.277532 0.828328 -0.036392 0.021273 0.475804 0.693729 
skytop -0.483306 -1.243911 -0.081190 -0.165716 -0.131811 0.800782 0.809052 0.004384 0.650086 0.646661 
fashionnewsexyrivetstilettopointedtoepatentleatherbootswomenshoes -0.004132 -0.047255 -0.021866 -0.044298 0.017651 0.036516 0.031021 0.004756 -0.038593 -0.034694 
woven -0.215523 -0.853323 -0.227941 -0.038083 -0.340356 1.241356 0.164110 0.196565 0.034439 0.696188 
shoesbluel -0.143257 -0.775776 0.373119 0.354258 0.246428 0.198976 0.807422 0.317819 0.062310 -0.018978 
ice -1.238195 -1.529014 -0.408562 0.173471 -0.117885 1.038340 0.211141 -0.179692 0.617515 1.311067 
microsuede 0.158970 0.009219 -0.462857 0.751704 0.250913 1.368597 1.807765 0.274302 0.102531 0.034446 
mudd -0.321816 -0.288930 0.086386 0.096951 0.154527 0.657128 0.328079 0.074261 0.134921 0.673981 
shoessilver 0.169822 -0.478049 0.086648 0.307963 0.046616 -0.182301 0.355419 0.293523 -0.063802 0.064471 
trendsup 0.305692 -0.768556 0.007047 0.003687 -0.091894 0.833209 0.988157 -0.404813 -0.879285 0.626510 
timberland 0.169004 -0.275375 -0.487284 -0.016917 0.208027 1.248430 -0.164315 0.753640 -0.024828 0.351744 
silvert 0.194419 -0.334284 0.170500 0.382972 0.153662 0.307203 0.440473 0.163543 0.275647 0.050715 
bennett -0.271334 -0.510665 0.220623 0.220092 0.029393 1.104494 0.514085 -0.033923 0.076859 0.407015 
too -0.245475 -0.176785 0.084967 0.201256 -0.009190 1.011012 0.242990 -0.100571 0.095820 0.478469 
fux 0.399777 0.394867 0.256839 0.013465 0.015477 0.664662 -0.073771 -0.155046 -0.144006 0.929430 
spirit -0.117791 -0.044965 -0.184158 -0.065062 -0.013611 1.052674 0.040815 0.073169 0.310508 0.902322 
stride -0.042713 -0.002407 -0.052055 -0.168236 -0.020276 1.147858 0.123824 -0.091717 0.053416 0.744421 
inc -0.143747 0.095517 0.582414 0.180687 0.109751 0.674810 -0.136457 0.048173 0.537719 0.534862 
condition -0.023251 -0.565570 0.177454 -0.224444 -0.105255 0.859813 -0.119285 0.222969 0.160130 0.393808 
chinese -0.290259 -0.173891 0.216201 -0.251330 -0.014259 0.981906 -0.078151 0.079996 0.223189 0.418735 
diane 0.018220 -0.689346 0.049272 0.307495 0.314767 0.591603 0.552102 0.234565 0.275477 0.451817 
artisan -0.061591 -0.451948 -0.153751 -0.015426 -0.124895 1.638292 -0.089169 0.234380 0.427622 0.553919 
cuttler 0.016338 -0.944585 -0.076949 -0.169013 0.003366 1.005928 0.818324 0.195551 0.425170 0.590173 
sperry -0.459299 -0.649695 -0.298133 0.707114 0.347443 0.071305 0.266773 -0.171009 0.026269 0.677541 
collection -0.142126 -0.441557 -0.002544 -0.414581 -0.197247 0.971885 -0.247014 0.158290 0.216313 0.656740 
great -0.426619 -0.565454 0.049066 -0.003466 -0.105538 0.656321 -0.545710 0.074955 -0.605478 -0.127935 
eagle -0.351367 -0.429340 -0.404818 -0.273649 -0.212957 0.764115 -0.172020 -0.051580 0.098309 0.811560 
chestnut -0.763693 -0.554200 -0.028026 0.357941 -0.281146 0.426768 -0.710533 -0.377708 0.248916 0.402528 
justfab -0.317891 -0.552304 0.212930 -0.308097 0.139896 1.008857 0.199910 0.011485 0.130081 0.600225 
crew -0.328818 -0.530804 -0.031423 0.145037 -0.092737 0.768343 0.307473 0.073255 0.108491 0.400182 
york -0.385310 -0.402411 0.135967 0.006320 0.219919 0.883697 0.360729 0.198928 -0.340052 0.590749 
curved -0.996549 -0.756633 0.188371 0.043971 -0.051343 0.365988 0.289542 0.723083 0.062525 0.658574 
boutique -0.520517 -0.677582 -0.026333 0.266359 -0.276671 0.987721 -0.058083 0.094098 0.006677 0.525709 
tracy 0.099155 -0.288448 0.095529 0.078406 0.055674 1.121392 0.133045 -0.150528 0.402198 0.427122 
material -0.368699 -1.081136 -0.262017 0.306579 -0.301169 1.599588 1.161625 0.012408 -0.116617 0.863364 
edelman 0.026331 -0.578130 0.233282 -0.048193 -0.073502 1.002326 0.310066 0.059146 0.371833 0.597168 
ollio -0.436077 -0.014437 0.182661 0.061874 0.157931 0.700464 0.590666 0.354051 -0.080125 0.292091 
stitch -0.558969 -0.859082 0.300349 0.022446 0.310097 1.101700 -0.201196 0.212534 0.020436 1.288430 
used -0.258123 -0.548010 0.136902 0.008698 -0.137772 0.856846 0.428873 0.109125 -0.098117 0.541777 
rough -0.100372 -0.164623 0.991198 1.277765 0.318438 -0.005223 0.154360 0.531058 0.487258 0.411633 
lamb 0.136146 -0.317979 0.138453 -0.115131 0.420113 0.763328 -0.023796 0.240432 0.120821 0.807161 
euclid 0.015010 -0.281534 0.179501 -0.109375 0.584014 0.602624 0.209348 0.375218 0.045506 1.028076 
cameo 0.071147 -0.318251 0.255376 -0.052783 0.586747 0.468536 0.216823 0.220922 -0.034134 1.204221 
stefani 0.020191 -0.377089 0.169502 -0.062799 0.576531 0.346948 0.182493 0.344502 0.067042 1.042328 
fast -0.429936 -0.730307 -0.267079 -0.325023 0.060485 0.860084 0.714466 -0.047537 0.804634 0.795714 
brooks -0.297401 -0.206775 0.109106 0.149226 0.050924 0.921179 0.397654 -0.187833 0.073319 0.625745 
report -0.117706 -0.412285 0.103417 0.256378 0.098894 1.025541 0.406627 0.062771 0.298860 0.547807 
blackwhite -0.428323 -0.249722 0.040100 0.091460 -0.001494 0.645550 0.369727 -0.356640 0.218132 0.885509 
gomax 0.007075 -0.650213 0.190919 0.179267 -0.020660 0.891694 0.268623 -0.123315 0.035673 0.777189 
bluel -0.010077 -0.734156 0.265916 0.235813 0.212841 0.083935 0.590477 0.165262 -0.067110 0.106810 
crisscross -0.418450 0.206579 0.430651 0.999478 0.207338 1.184159 -0.613617 -0.083162 -0.352864 -0.310211 
pom -0.008388 -0.707018 0.898132 0.191994 0.850030 0.382351 0.487945 -0.330265 0.497171 1.171875 
stitching -0.167830 0.224016 0.659424 0.582474 -0.076803 0.770298 -0.229108 -1.144229 0.250830 0.544641 
graceful -0.680304 -0.219534 -0.267161 0.208011 -0.128938 0.231774 0.037399 0.828794 -0.538623 -0.121818 
blackv -0.008849 -0.116545 0.163705 0.242740 0.098530 0.534393 0.449298 0.249140 -0.029668 0.102974 
shoesleopard -0.293381 -0.317895 0.101846 -0.096095 0.509492 -0.216240 0.548274 0.986994 0.129942 0.194801 
close -0.663220 -0.013239 -0.237488 -0.192228 -0.504703 0.405652 0.201940 -0.060021 -0.068185 1.404850 
wmns -1.353747 -0.738413 0.018447 -0.576747 -0.031880 1.171048 0.610688 0.042140 0.369200 1.118445 
blackl 0.274069 -0.283561 0.153383 0.073187 0.082454 -0.056005 0.162011 0.181709 -0.155283 -0.048802 
hqs 0.042994 0.218133 0.213796 -0.270479 0.254531 0.497604 0.078336 -0.047768 0.332399 0.543185 
gradient -1.200319 -0.704998 0.226330 0.460886 -0.216993 1.009652 1.197271 -0.736722 0.839233 -0.638780 
shoesred -0.273722 -0.295718 0.646402 -0.089259 0.667729 0.405053 0.509042 0.077369 0.294954 0.238992 
shoeschampagne 0.221430 -0.575835 0.408271 -0.390016 0.281959 0.533017 0.116166 0.302941 -0.230407 0.040863 
purpose -0.703375 0.396582 -0.146478 0.091973 -0.764829 1.037291 0.492442 0.385681 -0.309281 0.425327 
shoelace -0.177375 0.511732 0.209994 -0.150234 0.705197 1.180138 -1.012847 1.234423 0.806876 -0.046192 
cutout -0.559906 -0.412583 0.428250 0.510001 -0.166154 0.471439 -0.287657 -0.500260 -0.375957 -0.117609 
bcbgirls -0.308986 -0.115296 0.287774 0.275196 0.243017 0.490902 0.204672 0.229047 -0.180004 0.268846 
wooden -0.223451 -0.211946 0.006663 0.390756 -0.031442 0.756243 0.160731 -0.107052 0.190061 0.641866 
brighton 0.154041 -0.165206 -0.091721 0.053262 -0.005347 0.833740 0.105603 -0.021752 0.472559 0.261315 
champagne -0.020582 -0.332022 0.278461 0.185084 -0.104774 0.480882 0.247327 0.160511 -0.067084 0.231375 
plaid -0.196980 -0.499695 0.008673 -0.013727 -0.292715 0.607268 0.097487 0.072009 0.243429 0.355974 
via -0.047641 -0.034398 0.296947 0.211934 0.025419 0.733999 0.295768 0.145528 0.392491 0.498995 
spiga -0.144651 -0.229921 0.457153 0.296293 0.158306 0.719677 0.393779 0.279616 0.448779 0.647670 
donald -0.128192 -0.563366 0.246105 0.014677 -0.074279 0.877524 0.241894 0.291353 -0.029894 0.391485 
pliner -0.092849 -0.622442 0.179573 -0.090195 -0.437322 1.059981 0.073290 0.253212 -0.103189 0.616662 
one -0.461304 -0.312699 0.272785 -0.441278 -0.064777 1.090401 -0.054098 -0.048777 0.422607 0.738524 
east -0.051933 -0.293259 -0.031890 0.053200 0.106344 0.705478 0.057439 0.222282 0.062835 0.528135 
von -0.078418 -0.676274 0.197912 0.360864 0.172768 0.811520 0.299834 0.371084 0.255903 0.315251 
xoxo -0.266938 -0.083393 0.377951 -0.109852 -0.142833 0.512931 -0.313939 0.018699 -0.148750 0.581864 
van -0.170107 -0.372741 -0.025039 0.033659 0.066484 0.764013 0.253873 0.126061 -0.175278 0.508554 
eli -0.300902 -0.327644 -0.068970 0.101178 -0.057494 0.968374 0.101952 0.114303 -0.172742 0.416295 
circa -0.136826 -0.202723 0.113173 -0.141642 0.075824 1.013299 -0.061996 0.173908 0.278161 0.599957 
bruno -0.069772 -0.175958 0.226608 -0.006864 0.122135 0.834022 0.355432 -0.092625 0.142618 0.517156 
worn -0.433481 -0.482294 -0.070310 -0.016738 0.264770 0.904375 0.044834 0.380392 0.170853 0.578614 
italian -0.247427 -0.345929 -0.208044 0.108857 -0.246436 1.020418 0.248629 -0.306377 0.383793 0.396771 
narrow -0.147880 0.152682 -0.182361 0.046826 -0.252073 0.517573 0.055759 -0.170842 0.043966 0.752804 
libby -0.171413 -0.384902 0.367688 0.136582 -0.059354 0.974479 0.526868 0.179322 0.200522 0.629392 
original -0.732981 -0.421618 0.051089 0.173077 0.029750 0.866829 0.117991 -0.313193 0.112338 0.805188 
detail -0.401346 -0.522194 -0.262352 -0.031228 0.091590 -0.164514 -0.142066 0.274821 -0.281692 0.920246 
eastland 0.113891 -0.071889 -0.219549 0.018262 -0.155859 0.727214 -0.097918 0.382406 0.258919 0.334386 
fergalicious -0.264426 -0.311633 0.054058 0.123662 0.185335 0.415959 0.225532 0.247571 0.093391 0.391216 
skateboards -0.015844 0.002800 -0.394601 0.551587 0.005002 0.781145 0.733038 0.272392 0.425018 0.139943 
spain -0.120832 -0.053206 -0.195758 0.142236 -0.302588 0.813620 -0.017856 -0.075768 0.097970 0.485211 
stack -0.587918 -0.179897 0.122999 0.878603 0.347955 0.821664 -0.218416 0.237197 0.250996 0.864711 
joan 0.025828 -0.269599 0.297355 -0.434236 0.169818 0.940053 0.053789 -0.359003 -0.109428 0.501794 
breckelle -0.213873 0.055346 0.224110 0.238955 0.370313 0.274308 -0.149802 0.174177 0.069798 0.903752 
terry -0.414099 -0.242150 0.211271 0.262681 0.111973 0.511969 -0.326996 0.601637 0.105155 1.107363 
boated -0.205439 -0.042279 0.375042 0.466808 0.053007 0.307554 -0.907865 0.747185 0.104205 1.150455 
renee -0.293941 -0.163500 -0.523493 0.126519 0.398748 0.803959 -0.221180 0.348670 0.088389 0.314377 
santana -0.070312 -0.285542 0.049818 -0.062981 -0.181466 1.119427 0.045638 0.084445 0.009572 0.580775 
mixs -0.496458 0.424308 0.056932 0.746548 -0.116612 0.515767 0.435556 -0.570605 0.619751 -0.090696 
erika -0.588725 -0.595044 0.445272 -0.157446 -0.367748 0.751815 0.434319 0.250081 0.092708 0.553165 
preppy -0.568208 0.359184 -0.653732 0.459890 -0.191801 0.189991 -0.868804 0.268776 0.545196 1.331487 
sfst -0.201351 -0.636756 0.093335 0.778952 0.374505 0.559541 0.121373 0.240796 -0.001315 -0.120067 
striped -0.374802 -0.419576 -0.343246 0.183069 -0.173505 0.355700 0.634230 -0.282543 0.381803 0.730170 
classified -0.435787 -0.447768 0.421132 0.130640 0.287440 0.362753 0.186843 0.040365 -0.342688 0.483992 
ellen 0.022121 -0.147362 0.050468 0.082639 0.103042 0.981591 0.268074 -0.126946 0.390971 0.684668 
hat -0.347633 -0.672611 0.504027 -0.395062 -0.002721 1.092444 -0.137322 0.148583 -0.107533 0.297152 
surface -0.096768 -0.502479 1.222205 0.826494 0.296160 0.322623 0.463317 0.471851 -0.423967 0.507939 
dome -0.157343 -0.288841 0.110908 0.148117 0.328417 0.673828 0.047479 0.284453 0.021852 0.581973 
inspired -0.198643 -0.317235 0.027308 0.169498 0.494483 0.346675 0.009780 0.280176 0.087927 0.689381 
womenshoescoral -0.099303 -0.309952 0.252345 0.153400 0.514791 0.067939 0.639194 -0.121448 -0.064044 0.245531 
womenshoessilvert 0.228595 -0.172244 0.097106 0.011897 0.241677 0.311894 0.205204 0.349365 0.017299 0.294653 
moda -0.191210 -0.208220 0.106640 0.039360 -0.465370 0.467921 0.327405 -0.036609 -0.282107 0.700907 
paperplanes -0.056120 0.201839 -0.370570 0.064293 -0.054675 0.610667 0.622507 -0.037580 0.291198 0.408736 
meshed -0.237957 -0.051571 -0.289875 0.261239 -0.176583 0.752709 0.774707 -0.001102 0.505955 0.673988 
talbots -0.224595 -0.329444 -0.086163 0.061293 -0.169507 0.815893 0.592387 0.514720 -0.013047 0.403006 
hheel -1.016867 -0.154164 -0.139427 0.798868 0.060963 0.455025 0.166251 -0.108479 -0.403603 0.469266 
eleanor -0.650958 -0.816198 -0.984443 0.551178 0.236343 0.645810 0.221158 0.377217 0.358741 1.136478 
his -0.161999 0.085050 0.367520 -0.289600 0.721908 0.490936 0.548473 0.032279 1.102859 0.323203 
harajuku 0.145061 -0.344329 0.295236 0.428394 0.258536 -0.113957 0.371143 -0.055142 -0.173162 -0.172179 
width -0.726851 0.090218 0.113390 0.467198 -0.459983 0.593500 0.133515 0.038227 0.400206 0.745190 
pony 0.058298 -0.275125 -0.041705 0.154758 0.030461 0.870788 -0.046331 0.305714 0.059805 0.637429 
taryn -0.293831 0.039747 0.312322 -0.574325 -0.051618 1.031049 0.439989 0.479831 0.510754 0.420892 
shoesfuchsiav -0.259011 -0.189730 0.450069 -0.089884 0.521488 -0.088300 0.725969 0.094141 0.113373 0.077198 
juniors -0.303127 0.241916 -0.527966 -0.548332 0.610299 0.413132 0.037246 -1.196026 -0.266596 0.706332 
kid -0.470434 -0.419319 0.330756 0.205215 -0.657409 0.656261 0.113975 0.088025 -0.155459 0.948961 
cuff 0.068489 -0.116197 -0.168961 0.553308 0.337382 0.186333 0.010983 0.615880 0.297695 0.064152 
chuck -0.107278 -0.349258 0.319524 -0.166385 -0.396888 1.643407 0.746050 -0.188203 0.017615 0.741976 
conquest -0.793860 -0.797638 -0.005970 0.124574 0.112183 0.488723 0.548751 0.076219 0.544366 0.605558 
transparent -0.103481 0.224899 -0.062267 0.172423 0.136530 0.696604 0.276973 -0.346829 -0.677758 -0.051799 
horse -0.643264 0.384427 0.337274 -0.466262 -0.147831 1.108351 0.411748 0.584817 0.058330 0.602290 
walk -0.283482 0.468954 -0.035011 0.526638 -0.115060 0.386693 0.103311 0.902070 0.506729 0.494756 
trotters -0.273424 -0.227884 0.142699 0.089720 0.021939 0.788417 0.241394 0.039432 0.108316 0.295097 
dressy -0.063977 -0.115164 0.027288 -0.040221 -0.015680 0.867469 -0.237322 -0.382391 -0.325302 0.154070 
dolce -0.116925 -0.410455 0.086300 0.180753 0.046206 0.639806 0.140647 0.130033 0.214065 0.375310 
iflex -0.061982 -0.077273 -0.218659 -0.275522 -0.068320 0.744715 0.065253 0.532146 0.338082 0.459863 
lucky -0.099255 -0.285200 0.223523 0.174978 0.082424 0.880238 0.352729 0.052251 0.224477 0.429253 
bumper -0.306508 -0.408609 0.038397 0.175829 0.172355 -0.027987 0.296874 -0.371094 0.208723 0.477242 
elle -0.137110 -0.353605 -0.189736 0.048648 -0.147855 0.663794 0.202533 0.026395 0.044666 0.401452 
ivanka -0.135512 -0.469577 0.205513 -0.112767 0.023065 0.811679 0.125649 -0.010187 0.136040 0.425310 
trump -0.132739 -0.615303 0.374231 -0.027210 -0.010552 1.063617 0.125970 0.042924 0.208531 0.656219 
mountain -0.501386 -0.537937 -0.146912 -0.000860 -0.033676 0.555346 0.475279 0.270410 0.349608 0.570451 
animal -0.230779 -0.350366 -0.065781 0.066122 0.038863 0.477324 0.289701 0.265401 0.215287 0.509034 
emerald -0.634800 -0.501532 0.201591 -0.109812 -0.278476 0.523564 0.203355 0.163720 0.021464 0.192442 
badgley -0.213702 -0.271319 0.224087 0.048336 0.026885 0.773485 0.146446 0.247623 0.077980 0.411806 
mischka -0.367132 -0.428015 0.283316 0.037732 -0.080083 0.886215 0.247473 0.250004 -0.004257 0.460564 
without -0.391318 -0.113167 0.118302 -0.084220 -0.025054 0.863191 0.275010 -0.124412 0.296456 0.706994 
polo 0.300477 -0.369034 0.069785 -0.061483 -0.092386 0.116969 0.272818 -0.267203 -0.075212 0.114898 
bling -0.142431 0.075247 0.204743 0.717767 -0.022334 0.485178 -0.641819 -0.211006 -0.347250 -0.307723 
small -0.411068 -0.226149 0.014486 0.183739 0.058001 0.893027 0.475685 0.078136 0.142458 0.586939 
vaneli -0.080902 -0.380604 -0.087423 -0.051321 -0.062683 0.614883 0.107248 0.257464 0.051801 0.339512 
ela -0.120261 -0.625608 0.136364 0.186319 0.126376 0.652553 0.321793 0.079402 -0.251663 0.162368 
generation -0.271245 -0.103540 0.023935 0.317770 -0.036655 0.604214 -0.116545 0.110523 0.137713 0.610213 
privileged -0.321585 -0.512976 -0.038442 0.105887 0.029686 0.283443 0.235090 0.066237 0.165778 0.345994 
browntan -0.387409 -0.093876 -0.122848 0.227248 0.171485 0.762606 -0.022119 0.130549 0.013150 0.631873 
pewter -0.322943 -0.557494 0.042527 0.069502 -0.221529 1.133400 0.014873 0.287031 -0.161823 0.413460 
worthington -0.227603 0.162988 0.063823 0.043361 -0.019948 0.360506 0.190870 0.054881 -0.083738 0.123588 
run -0.039736 -0.029027 -0.207309 -0.153394 -0.128172 0.987644 0.191288 0.111105 0.159486 0.384710 
originals -0.328040 -0.659444 0.009088 0.135786 0.248828 0.499777 0.196291 -0.015751 0.720812 0.475498 
linda -0.068613 0.065099 0.014357 0.254335 -0.080911 0.422392 -0.074480 -0.119505 -0.001443 0.335556 
studio -0.198903 -0.194841 0.057816 -0.074473 -0.012051 0.282353 0.342133 -0.120740 0.079898 0.297839 
sider -0.453421 -0.590255 -0.343230 0.352527 0.200781 0.042603 0.227001 -0.191411 0.172218 0.651760 
noble 0.154570 -0.450191 -0.004295 -0.254195 0.112352 0.309856 -0.059214 0.547892 0.085592 0.312447 
lightweight -0.678426 -0.179668 -0.326336 0.126052 -0.146770 -0.028566 -0.106085 0.198953 0.201382 0.663991 
once -0.319718 -0.206003 0.169163 0.122343 0.132392 0.601028 -0.052574 0.313897 0.073950 0.490347 
cap -0.493954 -0.547600 -0.061167 0.396125 -0.633663 0.921757 0.271073 0.186737 -0.079721 0.397583 
mark -0.098470 -0.060825 -0.003549 -0.067351 0.022415 0.463416 0.065260 0.001661 -0.026269 0.329553 
square -0.511553 -0.271770 -0.087526 0.040907 -0.148632 0.687930 -0.002794 0.097923 0.186025 0.717264 
vicki -0.129697 -0.274829 0.200994 0.177719 0.000979 0.771376 0.355297 0.002724 -0.068469 0.456499 
pro -0.296721 -0.492161 -0.013356 -0.106950 0.205571 0.959608 0.266486 0.148595 0.282682 0.689904 
cosmic -0.295437 -0.467674 0.189096 -0.049098 0.167120 1.286750 0.575132 0.046486 -0.030645 0.800128 
buckled -0.026101 0.127437 0.084650 0.310716 0.163127 0.609373 0.076490 -0.178235 0.105867 0.564850 
corso -0.376813 -0.460858 -0.066452 -0.173238 -0.230675 0.831325 0.112673 0.211810 0.302673 0.288559 
como -0.440965 -0.459533 0.004092 -0.094461 -0.197928 0.904480 0.224826 0.221801 0.230737 0.297528 
absolutely -0.071552 -0.287337 -0.064913 -0.034384 0.053767 0.969543 0.514725 -0.013681 0.038585 0.363152 
violet -0.273542 -0.457366 0.250610 0.186166 -0.005305 0.524982 0.071623 -0.027776 -0.109682 0.141171 
lami -0.740378 -0.547407 0.227547 0.010619 -0.091246 0.656208 -0.047642 0.589054 0.049401 0.476083 
ankles 0.018050 -0.077395 0.326610 0.304097 0.026957 0.856966 -0.012840 0.435490 0.338107 0.778349 
teal -0.092855 0.054273 0.149629 -0.336382 0.047527 0.538229 0.088751 0.046445 0.111848 0.611296 
bay -0.142853 -0.437598 -0.043132 0.218786 -0.228528 0.361180 0.257641 0.007582 0.060762 0.307401 
bare -0.266443 -0.181716 0.132961 -0.061712 0.069229 0.899292 0.297052 -0.151232 0.304868 0.367951 
paisley -0.029295 -0.161615 0.145141 0.095586 0.140317 0.852427 0.478332 0.433870 -0.183198 0.319564 
nassir -0.272622 -0.019503 -0.056340 -0.145295 0.323215 0.843549 0.524712 0.052679 -0.184080 0.354340 
roberta -0.597053 -0.147998 0.214511 -0.115809 0.101614 0.748823 0.500228 -0.096137 -0.102040 0.267134 
glossy -0.336690 -0.368519 0.155212 0.213081 -0.040572 0.729079 -0.253515 0.239607 -0.059573 0.408420 
womenshoesbluev -0.214949 -0.390515 0.244296 0.065394 0.082736 0.051263 0.562555 0.114479 0.181604 -0.111864 
mini -0.513761 -0.464478 -0.121753 -0.064630 -0.432256 0.214980 0.137678 0.065410 -0.025423 0.554063 
silk -0.239900 -0.250255 0.267921 0.123545 0.043872 0.784455 0.154680 0.011593 -0.063442 0.450067 
logo -0.056052 0.067534 -0.462307 0.228264 0.002724 0.742412 0.260243 0.249575 0.208534 0.547886 
fall -0.206193 -0.086303 0.126126 0.030462 0.130040 0.958661 0.087061 0.059141 0.202423 0.519520 
boc -0.135560 -0.209241 -0.050376 -0.006796 -0.210635 0.985901 -0.034637 0.153627 0.185902 0.437519 
wave -0.342380 -0.423566 -0.000163 0.027569 0.085514 0.834398 0.499577 -0.083608 0.408504 0.620839 
journeys -0.264234 -0.221493 0.308138 0.034390 0.252547 0.724848 0.419404 0.130694 0.175048 0.618192 
crocs -0.047148 -0.102564 -0.143048 0.146903 0.143204 0.390851 0.281329 0.066584 -0.034394 0.435761 
hello -0.332798 -0.199160 -0.244711 -0.005441 -0.123512 0.729679 0.998201 0.352282 0.384504 0.740989 
kitty -0.405590 -0.021990 -0.278923 0.173463 -0.041605 0.612110 1.013925 0.196856 0.411463 1.036586 
memory -0.169702 -0.067345 0.082051 -0.308439 0.372861 0.651442 0.488647 -0.000632 0.078806 0.857159 
cushioning -0.189380 -0.287113 0.144117 -0.227918 0.318375 0.921943 0.345792 -0.088222 0.014361 0.834288 
banana 0.084431 -0.261346 0.245866 0.194381 0.047456 0.883503 0.090134 0.003350 0.222565 0.723426 
republic -0.095882 -0.441365 0.435899 0.234388 0.210465 1.111104 0.088025 -0.019385 0.201098 0.807736 
leathersuede -0.181075 -0.490270 -0.359598 0.011422 -0.130172 1.216700 0.194403 0.343868 0.280067 0.848661 
unlisted 0.161464 -0.577896 -0.202238 -0.178574 0.014474 0.813138 0.175933 0.135739 0.486909 0.543085 
eur 0.001595 -0.093013 0.159352 -0.185256 0.126644 0.686225 0.116044 0.011382 0.529644 0.480086 
elastics -0.149818 -0.512148 0.002860 0.161573 0.057484 0.643562 0.223061 -0.171530 -0.056023 0.687870 
skulls -0.284809 -0.350654 0.056205 -0.056196 -0.051769 0.386473 0.537048 -0.254371 0.371806 0.656854 
blk -0.214532 0.061074 0.080660 0.084837 -0.501130 0.561085 0.263018 0.056722 0.535203 0.803619 
prada -0.512264 -0.169093 0.317322 -0.027981 0.014274 1.160716 -0.074550 0.234144 0.151677 0.376611 
uma -0.252399 -0.420560 -0.194311 0.112321 0.298355 0.103910 -0.029770 0.390218 0.116952 0.474800 
candies -0.286636 -0.427483 0.229183 0.205783 0.026140 0.844002 0.020562 0.044149 -0.085160 0.548264 
madeline -0.259331 -0.112264 0.217527 -0.164805 -0.089982 0.815149 0.086479 0.269318 -0.198197 0.530649 
gabriella -0.143207 -0.510434 0.092481 0.012217 -0.108819 0.775129 -0.132921 -0.014169 0.074200 0.537617 
wide 0.093704 -0.004360 -0.187617 0.395314 -0.175731 0.544317 -0.430183 0.043739 0.253039 0.592574 
details 0.089470 -0.274527 -0.354276 0.005101 -0.123102 0.862697 0.181577 0.176119 0.099274 0.078454 
victorian -0.320506 -0.565422 0.183843 0.203363 0.087439 0.739018 -0.070153 0.237599 -0.369859 0.335216 
stretch -0.166955 -0.021636 -0.026270 -0.061640 -0.024648 1.008325 0.292549 0.343433 0.223837 0.255278 
unisa -0.118843 -0.211725 -0.282932 -0.063590 -0.367915 0.573860 0.015287 -0.212183 0.020431 0.539679 
shoesbluev 0.003194 -0.423149 0.333387 0.179123 0.277869 0.229559 0.514324 0.079112 0.170040 -0.038315 
pretty 0.007008 -0.233582 -0.289415 0.086943 -0.126209 0.873070 0.444654 0.370226 0.067179 0.598584 
nwb -0.112689 -0.394773 -0.003356 0.050225 0.122625 0.597739 -0.236664 -0.111641 -0.233561 0.280654 
news -0.183802 -0.283941 0.061090 0.132396 0.028926 0.976435 0.006737 0.055323 -0.096168 0.448416 
ship -0.286801 -0.564723 -0.008373 -0.067015 0.112623 0.706010 0.609376 0.033264 0.502283 0.568977 
barbra -0.280096 -0.380622 0.382947 0.120183 -0.105890 0.800231 0.500768 0.123488 0.105548 0.608710 
loft -0.215676 -0.393704 0.150283 -0.221565 -0.345376 0.909550 0.394252 0.058962 0.180087 0.018126 
mossimo -0.266348 -0.261142 -0.082391 0.301238 0.115678 0.711122 0.550920 0.328058 0.089092 0.525177 
net -0.523787 0.205614 0.039839 -0.020565 0.186022 0.743678 0.327138 0.259329 -0.049165 0.094482 
yarn -0.475591 0.138372 0.197422 -0.185542 0.055240 1.050054 0.475890 0.432156 -0.107830 0.249643 
lacing -0.235431 0.083884 0.179220 -0.312494 0.154114 1.487903 0.597377 0.352853 0.008294 0.418439 
chain -0.331967 -0.611734 0.353802 0.381431 -0.149876 0.690963 -0.261710 0.291107 -0.147676 0.602855 
ribbon -0.314128 -0.175029 -0.036750 0.130444 0.281742 0.638624 0.183224 0.277599 0.172248 0.338658 
shoespink -0.098115 -0.362280 0.236697 0.173812 0.128144 0.107819 0.334502 0.084172 -0.243940 0.149616 
sanndal -0.585945 -0.695191 0.251001 0.090960 0.180676 0.737298 0.305799 -0.006331 -0.031975 0.738998 
straw -0.306294 -0.235581 -0.382293 0.169729 0.232270 -0.363857 0.388479 0.182392 0.190535 0.207706 
richael -0.088998 -0.121247 -0.109649 0.376529 0.744509 0.374368 -0.567460 -0.089639 -0.206005 0.193170 
footbed -0.406420 -0.551298 0.451835 -0.321660 0.297013 0.745391 0.328016 0.013378 0.217056 0.651923 
shoesgold 0.274969 -0.324897 0.142198 -0.094521 0.221305 0.453686 0.158780 0.072823 -0.093831 0.120001 
hight -0.424233 -0.275313 0.057398 0.050713 -0.097544 0.465055 0.146260 0.122336 0.141030 0.379350 
fury -0.146671 0.181760 0.315614 0.106365 0.457339 0.884879 0.142638 0.735743 0.610979 0.438396 
wrubbery 0.067752 0.255343 0.039307 -0.006822 0.485917 1.105917 0.245165 0.688632 0.754200 0.554026 
bailey 0.193940 0.146670 -0.146483 -0.272542 0.616257 1.246384 -0.030978 0.320086 0.575264 0.129933 
blazer -0.552002 -0.547047 -0.290930 -0.161297 0.038065 1.134034 -0.112858 -0.105346 0.121767 1.008212 
joshua -0.719203 -0.435862 -0.103708 -0.372121 -0.309886 -0.171698 -0.048977 -0.212989 0.187711 0.834625 
zebra -0.061973 -0.446136 -0.162203 -0.318585 0.138922 0.809797 -0.084635 -0.193845 0.501241 0.507310 
flow -0.300519 -0.645929 -0.282224 0.291182 -0.387772 0.513937 -0.007703 0.066086 0.049999 0.372820 
sebago -0.392439 -0.159667 0.089925 0.193938 0.093710 0.923217 0.201164 -0.134508 0.071701 0.269566 
legend -0.544907 -0.691196 -0.259020 0.071142 0.413072 0.657050 0.336249 0.046166 0.300032 0.776986 
ridding 0.218874 -0.240858 0.041569 0.889649 0.675006 0.451657 0.175542 -0.164199 0.390616 -0.019124 
espadrilles -0.117811 -0.490472 0.261325 0.113742 -0.238513 0.881168 0.012309 0.151830 0.021284 0.632194 
steven 0.041183 -0.464376 0.148595 -0.108210 -0.417710 0.828894 -0.143653 -0.169110 0.277198 0.586776 
nudet -0.348278 -0.203401 0.198898 -0.059088 0.408307 0.074337 0.291139 -0.176309 0.118617 0.086452 
shox -0.582131 -0.294014 -0.127245 -0.365959 0.062193 0.482046 0.328685 -0.248985 0.214891 0.733805 
shoesnudev -0.008437 -0.339177 0.212281 -0.088891 0.486501 0.100134 0.169020 -0.058138 0.082305 0.216324 
antumn -0.565469 -0.002123 -0.523290 0.752154 -0.249013 0.139020 -0.018882 1.297192 0.448977 -0.169109 
cheetah -0.194660 -0.746027 0.074202 0.026300 -0.299010 0.818839 0.148816 -0.311174 -0.235773 0.356601 
bluewhite -0.352685 -0.440425 -0.119249 0.428945 0.080488 0.450514 0.350314 0.053339 0.130028 0.807101 
womenshoessilver 0.202201 -0.128548 0.010866 0.249980 0.038049 0.164560 0.092480 0.081319 0.087654 -0.121093 
micro -0.339305 0.067718 -0.451739 0.127617 -0.116215 0.862504 0.335307 0.110178 0.061909 -0.096063 
frye -0.180394 -0.399308 0.052371 0.462600 0.159785 0.589146 -0.177217 0.160733 0.175880 0.528279 
translucent -0.461126 -0.336643 0.185680 0.300503 -0.074369 0.731493 0.391446 -0.079482 0.083048 0.347279 
from 0.233850 -0.447798 0.517652 -0.180241 0.068635 0.850205 0.080277 0.275985 -0.077151 0.411571 
dunk -0.989335 -0.784387 -0.007090 0.316471 0.165415 0.438118 -0.092699 0.083194 0.088471 0.968144 
concealed -0.386603 -0.394278 0.353883 0.046359 0.151866 0.702270 0.433506 0.551753 -0.586370 0.401840 
fitness -0.214491 -0.270917 -0.108637 -0.231428 -0.168219 0.028280 0.552972 -0.525684 0.270916 1.180986 
shining -0.302058 -0.037010 0.331660 0.086697 0.127706 0.781649 0.400776 -0.055738 -0.156778 0.497259 
gelfit -0.327242 -0.758504 -0.128653 -0.226689 -0.041534 0.705100 0.814728 -0.632678 0.246406 0.234202 
sana -0.170132 -0.874877 -0.182925 -0.040100 0.105682 0.667329 0.928240 -0.728968 0.133915 -0.005577 
shoesnudel -0.183406 -0.186468 0.222532 -0.009747 0.417672 0.048365 0.256700 -0.188182 0.073835 0.046525 
colorful -0.381934 -0.607635 -0.087199 0.330057 -0.020909 0.197024 -0.490073 -0.279912 0.179364 0.580273 
vita -0.196071 -0.325292 0.221834 0.153236 -0.007582 0.662168 0.338764 0.051139 0.173236 0.298685 
bride -0.597642 0.138823 0.064494 0.063651 -0.048754 0.710907 0.341399 -0.315951 -0.128359 -0.249605 
natalie -0.253187 -0.148658 0.128813 -0.032283 -0.086333 0.886544 0.226674 0.000568 -0.157913 0.481608 
caparros -0.066173 -0.250119 0.302175 -0.207455 0.054837 0.596207 0.327072 -0.029642 -0.282193 0.091723 
graffik -0.500308 0.252600 0.160273 -0.040746 -0.136348 0.695875 0.229092 -0.172727 0.068478 0.626953 
battleship -0.453352 0.051104 0.161447 -0.037208 -0.014205 0.701546 0.417670 -0.090069 0.176590 0.665969 
dbdk -0.100946 -0.438704 0.153979 0.126564 0.134970 0.157995 -0.032566 0.404009 -0.184129 0.065636 
priya -0.376593 -0.389759 0.216971 0.147180 0.035679 0.779142 0.380854 -0.019477 0.210307 0.576098 
donna -0.307009 -0.033126 0.042822 0.078708 0.026704 0.564294 0.159751 0.127256 0.146282 0.475663 
lawrence -0.369420 -0.274982 0.084900 0.020089 0.054298 0.880026 0.249571 0.106054 0.252643 0.565053 
gambler -0.194745 -0.269663 0.094871 -0.136710 -0.108910 0.584407 0.250436 0.226925 0.134248 0.543072 
monogram 0.005819 -0.011492 0.009728 -0.111467 -0.182042 0.438267 -0.177778 -0.632467 0.267077 0.509810 
forever -0.256528 -0.258954 0.141443 0.255160 0.107056 0.386732 0.322861 0.209251 -0.077445 0.164023 
ros -0.188768 -0.119231 0.223988 0.114265 0.328024 0.861654 0.312515 0.075855 0.063620 0.234921 
hommerson -0.308986 -0.182526 0.254330 0.102357 0.269166 1.044763 0.180090 -0.011396 -0.038610 0.243253 
brownblack -0.224839 -0.099164 -0.119476 0.011058 -0.246607 0.696964 -0.079914 0.099111 0.177805 0.257226 
left -0.030738 -0.322114 0.073203 -0.016378 -0.041670 0.958968 0.315182 -0.017438 0.322520 0.517309 
right -0.087840 -0.230352 0.076804 -0.015263 -0.004216 0.834020 0.433052 0.003983 0.150763 0.492434 
magenta -0.308845 -0.056271 -0.020977 0.196969 0.002060 0.219922 -0.217971 0.102131 -0.131201 -0.099138 
fsuede -0.508878 -0.204578 0.127487 0.347918 -0.029042 0.465428 -0.080381 0.128823 0.079187 0.013453 
stacked 0.088687 0.281661 0.206416 0.132073 -0.273162 0.115786 -0.096567 0.119838 0.113580 0.222262 
bag -0.393350 -0.245750 0.052571 -0.025786 0.119841 0.570098 0.416938 0.084307 -0.007279 0.279078 
