svm_type c_svc
kernel_type rbf
gamma 0.1
nr_class 2
total_sv 2651
rho 0.751796
label 1 -1
nr_sv 1330 1321
SV
1 1:-0.38831325 2:0.830789 3:0.79375683 4:0.9931345 5:0.79337725 6:0.85719508 7:-0.38803067 8:0.36336483 9:0.07754175 10:0.464057 
1 1:-0.38831325 2:0.830789 3:0.79375683 4:0.9931345 5:0.79337725 6:0.85719508 7:-0.38803067 8:0.36336483 9:0.07754175 10:0.464057 
1 1:-0.59582067 2:-0.58542711 3:0.80358133 4:0.81395011 5:0.68841689 6:0.65427222 7:-0.254912 8:-0.051458556 9:-0.29703944 10:-0.29551278 
1 1:-0.77177958 2:0.11592317 3:0.11121158 4:0.7844035 5:0.19619267 6:0.94660975 7:-0.37142908 8:-0.17823267 9:-0.19549775 10:0.042528333 
1 1:-0.65905436 2:-0.18908609 3:0.270737 4:0.49397336 5:0.22339473 6:0.85457945 7:-0.14514909 8:0.18727582 9:0.0017969091 10:0.055900545 
1 1:-1.1856544 2:-0.018784333 3:0.73754625 4:0.61973917 5:0.5105645 6:0.56515675 7:-0.012726 8:0.30313925 9:-0.22971442 10:-0.54732167 
1 1:-0.49260475 2:0.261356 3:-0.18038975 4:0.77856312 5:-0.26268912 6:1.1976259 7:0.10982875 8:0.084668125 9:-0.3409195 10:0.23065975 
0.8014021337728864 1:-0.97689625 2:0.15858417 3:0.55939033 4:1.7231779 5:0.27750858 6:-0.123399 7:-0.073149583 8:-0.014298083 9:-0.29187025 10:0.88545017 
1 1:-0.59192367 2:-0.29966192 3:0.0511955 4:0.67712742 5:0.20051592 6:1.1984138 7:-0.17095683 8:0.20943842 9:-0.41742283 10:0.071601667 
1 1:-0.19695729 2:-0.271254 3:-0.11689871 4:0.36044557 5:-0.29554286 6:1.358328 7:-0.10890786 8:-0.032875 9:0.377999 10:0.32174343 
1 1:-0.31205008 2:-0.56757658 3:0.13341575 4:0.406888 5:-0.03110125 6:0.83677392 7:0.62469867 8:0.045557833 9:-0.65080692 10:-0.25758508 
1 1:-0.71840142 2:0.5294835 3:0.14031467 4:1.8155364 5:0.46087433 6:0.66379 7:-0.2093645 8:0.65576758 9:-0.15209925 10:0.0078361667 
1 1:-1.1856544 2:-0.018784333 3:0.73754625 4:0.61973917 5:0.5105645 6:0.56515675 7:-0.012726 8:0.30313925 9:-0.22971442 10:-0.54732167 
0.8012655904015876 1:-0.59835317 2:-0.46928383 3:0.22219742 4:0.64389583 5:0.12978867 6:0.91970267 7:-0.12074525 8:0.069675167 9:-0.11947767 10:0.059875417 
1 1:-0.52826275 2:-0.70945912 3:0.050966375 4:0.7761175 5:-0.28611087 6:0.8247675 7:-0.13540275 8:0.17224875 9:-0.78864875 10:0.25470175 
1 1:-0.561448 2:-0.38122825 3:0.1699415 4:0.515835 5:0.13777175 6:0.8379235 7:-0.3410075 8:-0.27889675 9:0.03762125 10:0.031839 
1 1:-0.56456627 2:0.029430364 3:-0.27151582 4:0.76609664 5:0.46944864 6:0.69267609 7:0.10932282 8:-0.36333464 9:-0.074207545 10:0.12202391 
1 1:-0.89849967 2:0.27704442 3:0.77219667 4:1.3397778 5:0.16294592 6:0.702428 7:0.21398775 8:0.15183575 9:-0.54688942 10:-0.5580535 
1 1:-0.91081015 2:0.422746 3:0.73687923 4:1.5983621 5:0.69490746 6:0.55292038 7:-0.014848692 8:-0.13817092 9:-0.59289962 10:-0.26365946 
1 1:-0.7697023 2:-0.0776372 3:0.0939318 4:0.7295132 5:-0.0487571 6:0.515385 7:0.3365459 8:0.0013921 9:-0.7513367 10:-0.1636728 
1 1:-0.4842015 2:-0.35240425 3:0.097998 4:0.447036 5:0.0770175 6:0.715198 7:-0.3921755 8:-0.3361585 9:0.08262225 10:-0.0353725 
1 1:-0.4956702 2:-0.1428445 3:0.0659889 4:0.9027519 5:-0.1851367 6:0.6940336 7:0.1441682 8:0.1973331 9:-0.3118673 10:-0.0630435 
1 1:-0.38831325 2:0.830789 3:0.79375683 4:0.9931345 5:0.79337725 6:0.85719508 7:-0.38803067 8:0.36336483 9:0.07754175 10:0.464057 
1 1:-0.38831325 2:0.830789 3:0.79375683 4:0.9931345 5:0.79337725 6:0.85719508 7:-0.38803067 8:0.36336483 9:0.07754175 10:0.464057 
1 1:-0.97689625 2:0.15858417 3:0.55939033 4:1.7231779 5:0.27750858 6:-0.123399 7:-0.073149583 8:-0.014298083 9:-0.29187025 10:0.88545017 
1 1:-1.1856544 2:-0.018784333 3:0.73754625 4:0.61973917 5:0.5105645 6:0.56515675 7:-0.012726 8:0.30313925 9:-0.22971442 10:-0.54732167 
1 1:-0.71840142 2:0.5294835 3:0.14031467 4:1.8155364 5:0.46087433 6:0.66379 7:-0.2093645 8:0.65576758 9:-0.15209925 10:0.0078361667 
1 1:-1.1856544 2:-0.018784333 3:0.73754625 4:0.61973917 5:0.5105645 6:0.56515675 7:-0.012726 8:0.30313925 9:-0.22971442 10:-0.54732167 
1 1:-0.91081015 2:0.422746 3:0.73687923 4:1.5983621 5:0.69490746 6:0.55292038 7:-0.014848692 8:-0.13817092 9:-0.59289962 10:-0.26365946 
1 1:-0.38831325 2:0.830789 3:0.79375683 4:0.9931345 5:0.79337725 6:0.85719508 7:-0.38803067 8:0.36336483 9:0.07754175 10:0.464057 
1 1:-0.38831325 2:0.830789 3:0.79375683 4:0.9931345 5:0.79337725 6:0.85719508 7:-0.38803067 8:0.36336483 9:0.07754175 10:0.464057 
1 1:-0.91081015 2:0.422746 3:0.73687923 4:1.5983621 5:0.69490746 6:0.55292038 7:-0.014848692 8:-0.13817092 9:-0.59289962 10:-0.26365946 
1 1:0.077794 2:0.28676873 3:1.0841239 4:1.3603603 5:0.3886976 6:0.88216273 7:-0.595971 8:0.3347894 9:-0.12256127 10:0.4642842 
1 1:-1.1856544 2:-0.018784333 3:0.73754625 4:0.61973917 5:0.5105645 6:0.56515675 7:-0.012726 8:0.30313925 9:-0.22971442 10:-0.54732167 
1 1:-0.73887323 2:-0.85046731 3:0.53500285 4:0.68037215 5:-0.20288685 6:0.75545985 7:0.37998238 8:-0.109631 9:-0.25250492 10:-0.36114646 
1 1:-1.1856544 2:-0.018784333 3:0.73754625 4:0.61973917 5:0.5105645 6:0.56515675 7:-0.012726 8:0.30313925 9:-0.22971442 10:-0.54732167 
1 1:-0.74093908 2:-1.0097301 3:-0.12774985 4:0.40696108 5:1.3446178 6:1.3480435 7:-0.67951146 8:0.040800769 9:0.059536 10:-0.12024108 
1 1:-0.63750814 2:-0.28270971 3:0.10209671 4:1.1698319 5:0.60830357 6:0.83561743 7:-0.61663886 8:-0.094165571 9:-0.249452 10:0.16902571 
1 1:-1.1856544 2:-0.018784333 3:0.73754625 4:0.61973917 5:0.5105645 6:0.56515675 7:-0.012726 8:0.30313925 9:-0.22971442 10:-0.54732167 
1 1:-1.9136844 2:-0.30176318 3:0.83124391 4:0.57507864 5:0.62958309 6:0.212504 7:0.13079991 8:0.2693 9:0.408093 10:-0.10916436 
1 1:-0.78372445 2:0.426089 3:0.46766273 4:1.5559239 5:0.68867173 6:0.40537855 7:-0.23067436 8:0.13965773 9:0.014388455 10:0.0084308182 
1 1:-0.69647691 2:-0.29808845 3:0.26389991 4:0.32188936 5:0.25614336 6:0.46601445 7:0.23795109 8:-0.34469945 9:0.15327909 10:-0.084375091 
1 1:-1.3202598 2:0.50500491 3:0.75315982 4:1.2240955 5:0.84564464 6:1.0709187 7:0.32348355 8:-0.466795 9:-0.71447455 10:-1.3266323 
1 1:-0.98928546 2:0.51765585 3:0.65324877 4:1.6830575 5:0.80293954 6:0.70171946 7:0.23795508 8:-0.22710869 9:-0.94595754 10:-0.59331815 
1 1:-0.94378008 2:0.086913923 3:0.29598054 4:1.2951106 5:0.26128815 6:0.65248454 7:0.24599492 8:0.260346 9:-0.49331569 10:-0.25227769 
1 1:-1.3683802 2:-0.3198282 3:0.4412694 4:1.4275209 5:0.8903554 6:-0.3411292 7:0.1622078 8:-0.2148944 9:0.4108203 10:0.836141 
1 1:-0.94378008 2:0.086913923 3:0.29598054 4:1.2951106 5:0.26128815 6:0.65248454 7:0.24599492 8:0.260346 9:-0.49331569 10:-0.25227769 
1 1:-0.38831325 2:0.830789 3:0.79375683 4:0.9931345 5:0.79337725 6:0.85719508 7:-0.38803067 8:0.36336483 9:0.07754175 10:0.464057 
1 1:-0.38831325 2:0.830789 3:0.79375683 4:0.9931345 5:0.79337725 6:0.85719508 7:-0.38803067 8:0.36336483 9:0.07754175 10:0.464057 
1 1:-0.97689625 2:0.15858417 3:0.55939033 4:1.7231779 5:0.27750858 6:-0.123399 7:-0.073149583 8:-0.014298083 9:-0.29187025 10:0.88545017 
0.5678938035026976 1:-1.3354646 2:-0.85067655 3:0.91588518 4:0.85394473 5:-0.16454964 6:0.51482873 7:0.034604 8:0.53259864 9:-0.59192436 10:-0.43629273 
1 1:-0.71840142 2:0.5294835 3:0.14031467 4:1.8155364 5:0.46087433 6:0.66379 7:-0.2093645 8:0.65576758 9:-0.15209925 10:0.0078361667 
1 1:-0.73887323 2:-0.85046731 3:0.53500285 4:0.68037215 5:-0.20288685 6:0.75545985 7:0.37998238 8:-0.109631 9:-0.25250492 10:-0.36114646 
1 1:0.077794 2:0.28676873 3:1.0841239 4:1.3603603 5:0.3886976 6:0.88216273 7:-0.595971 8:0.3347894 9:-0.12256127 10:0.4642842 
1 1:-0.78372445 2:0.426089 3:0.46766273 4:1.5559239 5:0.68867173 6:0.40537855 7:-0.23067436 8:0.13965773 9:0.014388455 10:0.0084308182 
1 1:-0.91081015 2:0.422746 3:0.73687923 4:1.5983621 5:0.69490746 6:0.55292038 7:-0.014848692 8:-0.13817092 9:-0.59289962 10:-0.26365946 
1 1:-0.98928546 2:0.51765585 3:0.65324877 4:1.6830575 5:0.80293954 6:0.70171946 7:0.23795508 8:-0.22710869 9:-0.94595754 10:-0.59331815 
1 1:-0.94378008 2:0.086913923 3:0.29598054 4:1.2951106 5:0.26128815 6:0.65248454 7:0.24599492 8:0.260346 9:-0.49331569 10:-0.25227769 
0.6801266790760262 1:-0.85721867 2:-0.89160658 3:0.77833742 4:1.3142945 5:0.0913775 6:0.41921308 7:-0.43261567 8:0.42477867 9:-0.54702283 10:0.10672525 
1 1:-0.85721867 2:-0.89160658 3:0.77833742 4:1.3142945 5:0.0913775 6:0.41921308 7:-0.43261567 8:0.42477867 9:-0.54702283 10:0.10672525 
1 1:-0.42666567 2:-0.33559978 3:0.44520856 4:0.399259 5:0.29089967 6:0.94227322 7:-0.33643378 8:0.032915444 9:0.59332889 10:0.21647767 
1 1:-0.447571 2:-0.2489708 3:0.377518 4:0.4863494 5:0.1421528 6:0.7852372 7:-0.36392 8:-0.0795012 9:-0.1511802 10:-0.029444 
1 1:-0.4586479 2:0.4042409 3:-0.8066395 4:0.6434376 5:0.1749801 6:0.9055793 7:0.1590131 8:0.1474415 9:0.1461851 10:0.6394022 
1 1:-0.94495636 2:0.418564 3:0.076581429 4:1.3883115 5:0.86700629 6:0.53985607 7:-0.7932555 8:0.43887936 9:0.091338429 10:0.81435636 
1 1:-0.75370182 2:0.039868545 3:0.30787509 4:0.693005 5:-0.21824755 6:0.32800518 7:0.039698182 8:0.24719591 9:-0.37551073 10:0.42613573 
1 1:-0.71609443 2:-0.13183314 3:0.80476143 4:0.735257 5:-0.043873286 6:0.90292557 7:-0.28554843 8:0.13956714 9:-0.079881857 10:0.077193 
1 1:-1.1856544 2:-0.018784333 3:0.73754625 4:0.61973917 5:0.5105645 6:0.56515675 7:-0.012726 8:0.30313925 9:-0.22971442 10:-0.54732167 
1 1:-1.2842133 2:0.10362467 3:1.4465174 4:1.2259117 5:0.34347992 6:0.41568233 7:0.40187867 8:9.5583333e-05 9:-0.44758075 10:-0.82759983 
1 1:-0.79694075 2:0.093785583 3:0.650438 4:0.7806225 5:0.31907625 6:0.89199233 7:0.31900808 8:0.24483308 9:-0.84967817 10:-0.600609 
1 1:-0.55070164 2:0.74236357 3:0.93334779 4:1.482016 5:0.76051836 6:0.80942814 7:-0.41618257 8:0.7673535 9:0.56304229 10:0.25596071 
1 1:-0.77487 2:-0.030115125 3:0.71154713 4:0.81576825 5:0.21337275 6:0.706717 7:-0.2106855 8:-0.03683725 9:-0.11085663 10:-0.38454875 
1 1:-1.3683802 2:-0.3198282 3:0.4412694 4:1.4275209 5:0.8903554 6:-0.3411292 7:0.1622078 8:-0.2148944 9:0.4108203 10:0.836141 
1 1:-1.7043647 2:0.34588255 3:0.620736 4:1.1047853 5:-0.20244664 6:0.62511536 7:0.324917 8:0.50762191 9:-0.81698745 10:-0.62361364 
1 1:-0.34810692 2:-0.10485967 3:0.313287 4:0.81804092 5:-0.05667275 6:0.76219117 7:0.058285083 8:-0.0082845833 9:-0.42600067 10:0.14949467 
1 1:-0.5859684 2:-0.4932113 3:0.3386407 4:0.3477831 5:0.2993604 6:0.7293407 7:0.5273712 8:-0.110068 9:0.2714137 10:-0.2210865 
1 1:-1.7043647 2:0.34588255 3:0.620736 4:1.1047853 5:-0.20244664 6:0.62511536 7:0.324917 8:0.50762191 9:-0.81698745 10:-0.62361364 
1 1:-0.20973611 2:-0.35395267 3:0.38244411 4:-0.053809778 5:0.29856067 6:1.0528296 7:0.034741556 8:1.5809406 9:0.181526 10:0.29376889 
1 1:-0.85721867 2:-0.89160658 3:0.77833742 4:1.3142945 5:0.0913775 6:0.41921308 7:-0.43261567 8:0.42477867 9:-0.54702283 10:0.10672525 
1 1:-0.38831325 2:0.830789 3:0.79375683 4:0.9931345 5:0.79337725 6:0.85719508 7:-0.38803067 8:0.36336483 9:0.07754175 10:0.464057 
1 1:-0.71840142 2:0.5294835 3:0.14031467 4:1.8155364 5:0.46087433 6:0.66379 7:-0.2093645 8:0.65576758 9:-0.15209925 10:0.0078361667 
1 1:-0.73887323 2:-0.85046731 3:0.53500285 4:0.68037215 5:-0.20288685 6:0.75545985 7:0.37998238 8:-0.109631 9:-0.25250492 10:-0.36114646 
1 1:-1.3354646 2:-0.85067655 3:0.91588518 4:0.85394473 5:-0.16454964 6:0.51482873 7:0.034604 8:0.53259864 9:-0.59192436 10:-0.43629273 
1 1:-0.97689625 2:0.15858417 3:0.55939033 4:1.7231779 5:0.27750858 6:-0.123399 7:-0.073149583 8:-0.014298083 9:-0.29187025 10:0.88545017 
1 1:-0.78372445 2:0.426089 3:0.46766273 4:1.5559239 5:0.68867173 6:0.40537855 7:-0.23067436 8:0.13965773 9:0.014388455 10:0.0084308182 
1 1:-0.91081015 2:0.422746 3:0.73687923 4:1.5983621 5:0.69490746 6:0.55292038 7:-0.014848692 8:-0.13817092 9:-0.59289962 10:-0.26365946 
1 1:-0.94378008 2:0.086913923 3:0.29598054 4:1.2951106 5:0.26128815 6:0.65248454 7:0.24599492 8:0.260346 9:-0.49331569 10:-0.25227769 
1 1:-0.98928546 2:0.51765585 3:0.65324877 4:1.6830575 5:0.80293954 6:0.70171946 7:0.23795508 8:-0.22710869 9:-0.94595754 10:-0.59331815 
1 1:-0.94378008 2:0.086913923 3:0.29598054 4:1.2951106 5:0.26128815 6:0.65248454 7:0.24599492 8:0.260346 9:-0.49331569 10:-0.25227769 
1 1:-1.7043647 2:0.34588255 3:0.620736 4:1.1047853 5:-0.20244664 6:0.62511536 7:0.324917 8:0.50762191 9:-0.81698745 10:-0.62361364 
0.6267995862689654 1:-0.71356408 2:-0.23051575 3:0.8218755 4:0.64569767 5:0.18498867 6:0.85686425 7:-0.17567 8:0.20165633 9:-0.11898758 10:-0.37079142 
1 1:-1.3683802 2:-0.3198282 3:0.4412694 4:1.4275209 5:0.8903554 6:-0.3411292 7:0.1622078 8:-0.2148944 9:0.4108203 10:0.836141 
1 1:-0.31568888 2:-0.49210775 3:0.15697363 4:0.70589025 5:-0.42723813 6:0.723079 7:0.14626313 8:0.50269438 9:-0.781958 10:0.37057325 
1 1:-0.65307187 2:-0.59074037 3:0.46887475 4:0.291506 5:0.16329013 6:0.78790825 7:-0.17233937 8:0.00604225 9:0.6176745 10:0.45821787 
1 1:-0.85721867 2:-0.89160658 3:0.77833742 4:1.3142945 5:0.0913775 6:0.41921308 7:-0.43261567 8:0.42477867 9:-0.54702283 10:0.10672525 
0.5605514199080402 1:-0.82622429 2:0.63140071 3:-0.66990979 4:2.0624519 5:1.0054679 6:0.80871329 7:-0.85088886 8:0.94062993 9:0.58893814 10:1.4203037 
1 1:-0.73887323 2:-0.85046731 3:0.53500285 4:0.68037215 5:-0.20288685 6:0.75545985 7:0.37998238 8:-0.109631 9:-0.25250492 10:-0.36114646 
1 1:-0.82622429 2:0.63140071 3:-0.66990979 4:2.0624519 5:1.0054679 6:0.80871329 7:-0.85088886 8:0.94062993 9:0.58893814 10:1.4203037 
1 1:-0.64375892 2:0.47154062 3:0.14235031 4:1.7935838 5:0.56706054 6:0.64889015 7:-0.21425031 8:0.69692538 9:-0.11248569 10:-0.11873631 
1 1:-0.85721867 2:-0.89160658 3:0.77833742 4:1.3142945 5:0.0913775 6:0.41921308 7:-0.43261567 8:0.42477867 9:-0.54702283 10:0.10672525 
1 1:-0.85721867 2:-0.89160658 3:0.77833742 4:1.3142945 5:0.0913775 6:0.41921308 7:-0.43261567 8:0.42477867 9:-0.54702283 10:0.10672525 
1 1:-0.82136743 2:0.026585571 3:0.89266086 4:0.45948071 5:0.42912314 6:0.91643286 7:-0.481333 8:-0.12956957 9:0.41709286 10:0.35095757 
1 1:-0.86880592 2:-0.58625325 3:0.29873475 4:0.82856192 5:-0.23778525 6:0.62706683 7:0.3265065 8:0.53490925 9:-0.93674308 10:-0.263917 
1 1:-1.2842133 2:0.10362467 3:1.4465174 4:1.2259117 5:0.34347992 6:0.41568233 7:0.40187867 8:9.5583333e-05 9:-0.44758075 10:-0.82759983 
1 1:-0.85721867 2:-0.89160658 3:0.77833742 4:1.3142945 5:0.0913775 6:0.41921308 7:-0.43261567 8:0.42477867 9:-0.54702283 10:0.10672525 
1 1:-0.82622429 2:0.63140071 3:-0.66990979 4:2.0624519 5:1.0054679 6:0.80871329 7:-0.85088886 8:0.94062993 9:0.58893814 10:1.4203037 
1 1:-0.73887323 2:-0.85046731 3:0.53500285 4:0.68037215 5:-0.20288685 6:0.75545985 7:0.37998238 8:-0.109631 9:-0.25250492 10:-0.36114646 
1 1:-0.82622429 2:0.63140071 3:-0.66990979 4:2.0624519 5:1.0054679 6:0.80871329 7:-0.85088886 8:0.94062993 9:0.58893814 10:1.4203037 
1 1:-0.78372445 2:0.426089 3:0.46766273 4:1.5559239 5:0.68867173 6:0.40537855 7:-0.23067436 8:0.13965773 9:0.014388455 10:0.0084308182 
1 1:-1.3354646 2:-0.85067655 3:0.91588518 4:0.85394473 5:-0.16454964 6:0.51482873 7:0.034604 8:0.53259864 9:-0.59192436 10:-0.43629273 
1 1:-0.91081015 2:0.422746 3:0.73687923 4:1.5983621 5:0.69490746 6:0.55292038 7:-0.014848692 8:-0.13817092 9:-0.59289962 10:-0.26365946 
1 1:-0.71356408 2:-0.23051575 3:0.8218755 4:0.64569767 5:0.18498867 6:0.85686425 7:-0.17567 8:0.20165633 9:-0.11898758 10:-0.37079142 
1 1:-0.64375892 2:0.47154062 3:0.14235031 4:1.7935838 5:0.56706054 6:0.64889015 7:-0.21425031 8:0.69692538 9:-0.11248569 10:-0.11873631 
1 1:-0.94378008 2:0.086913923 3:0.29598054 4:1.2951106 5:0.26128815 6:0.65248454 7:0.24599492 8:0.260346 9:-0.49331569 10:-0.25227769 
1 1:-1.3683802 2:-0.3198282 3:0.4412694 4:1.4275209 5:0.8903554 6:-0.3411292 7:0.1622078 8:-0.2148944 9:0.4108203 10:0.836141 
1 1:-0.94378008 2:0.086913923 3:0.29598054 4:1.2951106 5:0.26128815 6:0.65248454 7:0.24599492 8:0.260346 9:-0.49331569 10:-0.25227769 
1 1:-0.66382138 2:-0.52587231 3:0.33180492 4:0.51237669 5:0.12252569 6:0.55970792 7:-0.15183162 8:0.55025123 9:0.13615423 10:0.10063731 
1 1:-0.6012764 2:-0.5920153 3:0.6631281 4:0.3458314 5:0.1601235 6:0.4742162 7:-0.1751603 8:0.2438992 9:-0.1530168 10:-0.1485702 
1 1:-0.39247822 2:-0.58811144 3:0.26122944 4:0.63783644 5:-0.23769478 6:0.94653378 7:-0.25925789 8:0.10045433 9:0.50994222 10:0.63714889 
1 1:-0.6489363 2:-0.3809238 3:0.6561977 4:0.7870294 5:0.2809963 6:0.6408692 7:0.001237 8:0.2010863 9:-0.2301171 10:-0.4697074 
1 1:-0.79694075 2:0.093785583 3:0.650438 4:0.7806225 5:0.31907625 6:0.89199233 7:0.31900808 8:0.24483308 9:-0.84967817 10:-0.600609 
1 1:-0.9366142 2:-0.1070438 3:0.9992383 4:0.7375989 5:0.2410256 6:0.5050136 7:-0.0258412 8:0.2352941 9:-0.7713241 10:-0.2084435 
1 1:-0.82136743 2:0.026585571 3:0.89266086 4:0.45948071 5:0.42912314 6:0.91643286 7:-0.481333 8:-0.12956957 9:0.41709286 10:0.35095757 
1 1:-0.29672767 2:0.030601111 3:0.024468111 4:0.57471011 5:-0.070633556 6:1.1082467 7:-0.32838567 8:0.152254 9:0.54649822 10:0.25114978 
1 1:-0.4097338 2:-0.8468461 3:0.3245826 4:0.6236546 5:0.3256938 6:0.6940995 7:0.0136169 8:-0.2588601 9:0.2575176 10:-0.2691558 
1 1:-1.2842133 2:0.10362467 3:1.4465174 4:1.2259117 5:0.34347992 6:0.41568233 7:0.40187867 8:9.5583333e-05 9:-0.44758075 10:-0.82759983 
1 1:-0.60186427 2:0.44608355 3:0.67782591 4:1.135481 5:0.58749836 6:0.67840182 7:-0.60055391 8:0.077577818 9:0.24059891 10:0.031436727 
1 1:-0.48635217 2:-0.36863867 3:-0.09402875 4:0.85103017 5:-0.48414592 6:1.1195553 7:-0.123951 8:0.18458475 9:-0.50109142 10:0.31811775 
1 1:-0.87751714 2:-0.031197286 3:0.86918929 4:0.372925 5:0.158004 6:0.84207429 7:-0.20233029 8:-0.22744 9:0.152576 10:0.281614 
1 1:-0.78372445 2:0.426089 3:0.46766273 4:1.5559239 5:0.68867173 6:0.40537855 7:-0.23067436 8:0.13965773 9:0.014388455 10:0.0084308182 
1 1:-0.65913622 2:0.007495 3:0.30255722 4:-0.0075754444 5:-0.0060591111 6:1.003082 7:0.037942 8:-0.27829022 9:0.068594111 10:0.54568822 
1 1:-0.40092712 2:-0.16816712 3:0.41470812 4:0.43007612 5:0.17756 6:0.66720487 7:-0.35393275 8:0.12935262 9:0.46751562 10:0.22737575 
1 1:-0.30394562 2:-0.71917787 3:0.6231945 4:0.28587038 5:-0.088018375 6:0.78674563 7:-0.002256625 8:0.26789625 9:-0.034770625 10:0.4501485 
1 1:-0.5089298 2:-0.6425812 3:0.792208 4:0.7453639 5:0.6247529 6:0.6439331 7:-0.3396071 8:-0.0447488 9:-0.2113362 10:-0.2091047 
1 1:-0.71796408 2:0.35758646 3:1.673501 4:1.4950441 5:0.29935354 6:0.58660246 7:-0.045845692 8:-0.85406046 9:-0.66082185 10:0.048593846 
1 1:-0.55070164 2:0.74236357 3:0.93334779 4:1.482016 5:0.76051836 6:0.80942814 7:-0.41618257 8:0.7673535 9:0.56304229 10:0.25596071 
1 1:-1.1856544 2:-0.018784333 3:0.73754625 4:0.61973917 5:0.5105645 6:0.56515675 7:-0.012726 8:0.30313925 9:-0.22971442 10:-0.54732167 
1 1:-0.85721867 2:-0.89160658 3:0.77833742 4:1.3142945 5:0.0913775 6:0.41921308 7:-0.43261567 8:0.42477867 9:-0.54702283 10:0.10672525 
0.9862169001168042 1:-0.52045658 2:-0.78795525 3:0.91444375 4:1.4801788 5:0.23282692 6:0.538656 7:0.92787867 8:-0.486137 9:-1.5453964 10:-0.39039942 
0.3054241993445477 1:-0.84777191 2:0.54364336 3:-1.4456056 4:0.82237109 5:-0.45075409 6:1.086218 7:2.2483808 8:-0.23949418 9:0.44374027 10:1.3215851 
1 1:-0.78372445 2:0.426089 3:0.46766273 4:1.5559239 5:0.68867173 6:0.40537855 7:-0.23067436 8:0.13965773 9:0.014388455 10:0.0084308182 
1 1:-0.52045658 2:-0.78795525 3:0.91444375 4:1.4801788 5:0.23282692 6:0.538656 7:0.92787867 8:-0.486137 9:-1.5453964 10:-0.39039942 
1 1:-1.3354646 2:-0.85067655 3:0.91588518 4:0.85394473 5:-0.16454964 6:0.51482873 7:0.034604 8:0.53259864 9:-0.59192436 10:-0.43629273 
0.2206296097260707 1:-1.632889 2:0.006732 3:-0.146994 4:1.2406468 5:-0.2542996 6:0.2549656 7:-0.2033346 8:1.0045526 9:-0.523339 10:0.7173313 
1 1:-0.64375892 2:0.47154062 3:0.14235031 4:1.7935838 5:0.56706054 6:0.64889015 7:-0.21425031 8:0.69692538 9:-0.11248569 10:-0.11873631 
1 1:-0.52045658 2:-0.78795525 3:0.91444375 4:1.4801788 5:0.23282692 6:0.538656 7:0.92787867 8:-0.486137 9:-1.5453964 10:-0.39039942 
1 1:-1.3354646 2:-0.85067655 3:0.91588518 4:0.85394473 5:-0.16454964 6:0.51482873 7:0.034604 8:0.53259864 9:-0.59192436 10:-0.43629273 
1 1:-1.3683802 2:-0.3198282 3:0.4412694 4:1.4275209 5:0.8903554 6:-0.3411292 7:0.1622078 8:-0.2148944 9:0.4108203 10:0.836141 
1 1:-0.94378008 2:0.086913923 3:0.29598054 4:1.2951106 5:0.26128815 6:0.65248454 7:0.24599492 8:0.260346 9:-0.49331569 10:-0.25227769 
1 1:-0.78372445 2:0.426089 3:0.46766273 4:1.5559239 5:0.68867173 6:0.40537855 7:-0.23067436 8:0.13965773 9:0.014388455 10:0.0084308182 
1 1:-0.94378008 2:0.086913923 3:0.29598054 4:1.2951106 5:0.26128815 6:0.65248454 7:0.24599492 8:0.260346 9:-0.49331569 10:-0.25227769 
1 1:-0.98928546 2:0.51765585 3:0.65324877 4:1.6830575 5:0.80293954 6:0.70171946 7:0.23795508 8:-0.22710869 9:-0.94595754 10:-0.59331815 
0.2011376426901133 1:-1.2842133 2:0.10362467 3:1.4465174 4:1.2259117 5:0.34347992 6:0.41568233 7:0.40187867 8:9.5583333e-05 9:-0.44758075 10:-0.82759983 
0.7376307280133537 1:-1.2651302 2:-0.046463692 3:1.5515426 4:1.1609225 5:0.95255362 6:0.35369708 7:0.085965231 8:-0.51545069 9:-0.94477115 10:-0.46592538 
1 1:-0.58219483 2:-0.3662935 3:0.124426 4:0.26225667 5:-0.22881017 6:1.1055507 7:-0.095804833 8:-0.10922417 9:-0.065152 10:0.12122533 
1 1:-1.632889 2:0.006732 3:-0.146994 4:1.2406468 5:-0.2542996 6:0.2549656 7:-0.2033346 8:1.0045526 9:-0.523339 10:0.7173313 
1 1:-0.71796408 2:0.35758646 3:1.673501 4:1.4950441 5:0.29935354 6:0.58660246 7:-0.045845692 8:-0.85406046 9:-0.66082185 10:0.048593846 
1 1:-0.5089298 2:-0.6425812 3:0.792208 4:0.7453639 5:0.6247529 6:0.6439331 7:-0.3396071 8:-0.0447488 9:-0.2113362 10:-0.2091047 
1 1:-1.3683802 2:-0.3198282 3:0.4412694 4:1.4275209 5:0.8903554 6:-0.3411292 7:0.1622078 8:-0.2148944 9:0.4108203 10:0.836141 
1 1:-0.38211927 2:-0.34106127 3:0.31614055 4:0.26675382 5:0.071650727 6:0.51946873 7:0.080380364 8:0.12243309 9:-0.023869182 10:0.094637273 
1 1:-0.552497 2:-0.45054833 3:0.12836817 4:0.42723333 5:-0.29717133 6:1.0416668 7:-0.247228 8:-0.2221245 9:-0.0278345 10:0.0582215 
1 1:-1.3202598 2:0.50500491 3:0.75315982 4:1.2240955 5:0.84564464 6:1.0709187 7:0.32348355 8:-0.466795 9:-0.71447455 10:-1.3266323 
1 1:-0.24948556 2:-0.379368 3:0.234491 4:0.20049011 5:0.16356333 6:1.2070214 7:-0.23445922 8:0.22522467 9:0.74865144 10:0.68602622 
1 1:-0.645602 2:-0.46987233 3:0.130664 4:0.596048 5:0.10269 6:0.95359733 7:-0.52290067 8:-0.44821133 9:0.110163 10:-0.047163333 
1 1:-0.45089057 2:-0.32216729 3:0.558635 4:0.52533871 5:0.13673243 6:0.91103943 7:-0.45723071 8:0.18642529 9:0.62357171 10:0.37220257 
1 1:-1.1856544 2:-0.018784333 3:0.73754625 4:0.61973917 5:0.5105645 6:0.56515675 7:-0.012726 8:0.30313925 9:-0.22971442 10:-0.54732167 
1 1:-0.43611029 2:-0.21839414 3:0.51034586 4:0.49415643 5:0.21870986 6:0.93729586 7:-0.400223 8:0.14552886 9:0.55434857 10:0.34668729 
1 1:-0.8538507 2:0.1570156 3:0.3018141 4:0.1796639 5:-0.0260965 6:0.7048825 7:0.1591374 8:0.2675139 9:-0.2624004 10:0.7251115 
1 1:-0.36162173 2:0.018166273 3:-0.018066455 4:0.91799827 5:0.387169 6:1.0347263 7:-0.50993173 8:-0.068135 9:0.425713 10:0.25467273 
1 1:-0.4801028 2:-0.3437042 3:0.059612 4:0.6511574 5:0.0280612 6:1.0862086 7:-0.4360934 8:-0.0839526 9:0.3956554 10:0.149796 
1 1:-0.779613 2:0.077678583 3:0.53960033 4:1.2771039 5:0.95013925 6:0.48105833 7:-0.40075125 8:-0.18800783 9:0.20864125 10:0.11787783 
1 1:-0.65913622 2:0.007495 3:0.30255722 4:-0.0075754444 5:-0.0060591111 6:1.003082 7:0.037942 8:-0.27829022 9:0.068594111 10:0.54568822 
1 1:-0.43611029 2:-0.21839414 3:0.51034586 4:0.49415643 5:0.21870986 6:0.93729586 7:-0.400223 8:0.14552886 9:0.55434857 10:0.34668729 
1 1:-0.3855755 2:-0.2363665 3:0.44314475 4:0.30634425 5:-0.10361925 6:0.8175065 7:-0.027739125 8:0.3070635 9:0.06548025 10:0.25362275 
1 1:-1.0471695 2:0.015446583 3:1.2896996 4:1.4163975 5:0.8383545 6:0.5252645 7:0.28824958 8:0.055174167 9:-0.54036575 10:-1.0284179 
1 1:0.077794 2:0.28676873 3:1.0841239 4:1.3603603 5:0.3886976 6:0.88216273 7:-0.595971 8:0.3347894 9:-0.12256127 10:0.4642842 
1 1:-0.79694075 2:0.093785583 3:0.650438 4:0.7806225 5:0.31907625 6:0.89199233 7:0.31900808 8:0.24483308 9:-0.84967817 10:-0.600609 
1 1:-1.1856544 2:-0.018784333 3:0.73754625 4:0.61973917 5:0.5105645 6:0.56515675 7:-0.012726 8:0.30313925 9:-0.22971442 10:-0.54732167 
1 1:-0.6853535 2:-0.66686525 3:0.37335913 4:0.30947062 5:0.207418 6:0.78686287 7:-0.2135475 8:-0.059292375 9:0.52885325 10:0.41784375 
1 1:-0.52045658 2:-0.78795525 3:0.91444375 4:1.4801788 5:0.23282692 6:0.538656 7:0.92787867 8:-0.486137 9:-1.5453964 10:-0.39039942 
1 1:-1.1856544 2:-0.018784333 3:0.73754625 4:0.61973917 5:0.5105645 6:0.56515675 7:-0.012726 8:0.30313925 9:-0.22971442 10:-0.54732167 
1 1:-0.11381713 2:-0.68582525 3:0.11033412 4:0.5699995 5:-0.54667813 6:0.95855637 7:0.33891488 8:0.4128075 9:-0.9963815 10:0.4482845 
1 1:-0.799006 2:-0.061706462 3:0.75078077 4:1.1350808 5:0.37835969 6:0.58622477 7:-0.048563154 8:0.44487677 9:-0.35332931 10:-0.37225077 
1 1:-0.645602 2:-0.46987233 3:0.130664 4:0.596048 5:0.10269 6:0.95359733 7:-0.52290067 8:-0.44821133 9:0.110163 10:-0.047163333 
1 1:-0.23275788 2:-0.044812 3:0.27035862 4:0.24134237 5:-0.38017375 6:1.1746645 7:-0.0193495 8:0.35071388 9:0.15999325 10:0.467778 
1 1:-0.40092712 2:-0.16816712 3:0.41470812 4:0.43007612 5:0.17756 6:0.66720487 7:-0.35393275 8:0.12935262 9:0.46751562 10:0.22737575 
1 1:-0.779613 2:0.077678583 3:0.53960033 4:1.2771039 5:0.95013925 6:0.48105833 7:-0.40075125 8:-0.18800783 9:0.20864125 10:0.11787783 
1 1:-0.9366142 2:-0.1070438 3:0.9992383 4:0.7375989 5:0.2410256 6:0.5050136 7:-0.0258412 8:0.2352941 9:-0.7713241 10:-0.2084435 
1 1:-0.57459144 2:-0.76245722 3:-0.23224744 4:0.51325322 5:-0.078759667 6:0.91593633 7:-0.070527222 8:-0.35278444 9:-0.0057704444 10:0.97241267 
1 1:-0.85721867 2:-0.89160658 3:0.77833742 4:1.3142945 5:0.0913775 6:0.41921308 7:-0.43261567 8:0.42477867 9:-0.54702283 10:0.10672525 
1 1:-0.84777191 2:0.54364336 3:-1.4456056 4:0.82237109 5:-0.45075409 6:1.086218 7:2.2483808 8:-0.23949418 9:0.44374027 10:1.3215851 
1 1:-0.84777191 2:0.54364336 3:-1.4456056 4:0.82237109 5:-0.45075409 6:1.086218 7:2.2483808 8:-0.23949418 9:0.44374027 10:1.3215851 
1 1:-0.52045658 2:-0.78795525 3:0.91444375 4:1.4801788 5:0.23282692 6:0.538656 7:0.92787867 8:-0.486137 9:-1.5453964 10:-0.39039942 
1 1:-0.84777191 2:0.54364336 3:-1.4456056 4:0.82237109 5:-0.45075409 6:1.086218 7:2.2483808 8:-0.23949418 9:0.44374027 10:1.3215851 
1 1:-0.52045658 2:-0.78795525 3:0.91444375 4:1.4801788 5:0.23282692 6:0.538656 7:0.92787867 8:-0.486137 9:-1.5453964 10:-0.39039942 
1 1:-0.64375892 2:0.47154062 3:0.14235031 4:1.7935838 5:0.56706054 6:0.64889015 7:-0.21425031 8:0.69692538 9:-0.11248569 10:-0.11873631 
1 1:-1.632889 2:0.006732 3:-0.146994 4:1.2406468 5:-0.2542996 6:0.2549656 7:-0.2033346 8:1.0045526 9:-0.523339 10:0.7173313 
1 1:-1.3354646 2:-0.85067655 3:0.91588518 4:0.85394473 5:-0.16454964 6:0.51482873 7:0.034604 8:0.53259864 9:-0.59192436 10:-0.43629273 
1 1:-1.3683802 2:-0.3198282 3:0.4412694 4:1.4275209 5:0.8903554 6:-0.3411292 7:0.1622078 8:-0.2148944 9:0.4108203 10:0.836141 
1 1:-0.52045658 2:-0.78795525 3:0.91444375 4:1.4801788 5:0.23282692 6:0.538656 7:0.92787867 8:-0.486137 9:-1.5453964 10:-0.39039942 
0.2879619679204414 1:-1.1586485 2:0.88555418 3:-0.45634636 4:0.67013164 5:0.94738464 6:0.282384 7:1.3629998 8:-1.183613 9:-1.1975151 10:2.3224218 
1 1:-1.3202598 2:0.50500491 3:0.75315982 4:1.2240955 5:0.84564464 6:1.0709187 7:0.32348355 8:-0.466795 9:-0.71447455 10:-1.3266323 
1 1:-1.0471695 2:0.015446583 3:1.2896996 4:1.4163975 5:0.8383545 6:0.5252645 7:0.28824958 8:0.055174167 9:-0.54036575 10:-1.0284179 
1 1:-1.1856544 2:-0.018784333 3:0.73754625 4:0.61973917 5:0.5105645 6:0.56515675 7:-0.012726 8:0.30313925 9:-0.22971442 10:-0.54732167 
1 1:-0.79694075 2:0.093785583 3:0.650438 4:0.7806225 5:0.31907625 6:0.89199233 7:0.31900808 8:0.24483308 9:-0.84967817 10:-0.600609 
1 1:-1.1856544 2:-0.018784333 3:0.73754625 4:0.61973917 5:0.5105645 6:0.56515675 7:-0.012726 8:0.30313925 9:-0.22971442 10:-0.54732167 
1 1:-0.55516127 2:-0.66805682 3:0.98056827 4:0.50135773 5:0.36297364 6:0.692405 7:0.030950364 8:0.13964891 9:-0.022583091 10:-0.50510473 
1 1:-0.38530713 2:-0.28908275 3:0.44010825 4:0.330554 5:0.14235838 6:1.0129742 7:-0.36966675 8:0.16173138 9:0.58145875 10:0.47692462 
1 1:-0.427774 2:-0.24850936 3:0.21053727 4:0.689573 5:-0.203349 6:1.0940392 7:-0.436834 8:0.071050818 9:-0.041314455 10:0.22748291 
0.5768643764453543 1:-0.764157 2:-0.97716577 3:0.41515346 4:0.96693854 5:-0.018967 6:0.52868654 7:-0.0021716154 8:0.19290877 9:-0.47592408 10:-0.19310538 
1 1:-0.11090578 2:0.010988778 3:-0.38964078 4:0.31159211 5:-0.86793878 6:1.7637192 7:0.15237344 8:0.99983967 9:0.47427289 10:0.80736344 
1 1:-1.2651302 2:-0.046463692 3:1.5515426 4:1.1609225 5:0.95255362 6:0.35369708 7:0.085965231 8:-0.51545069 9:-0.94477115 10:-0.46592538 
1 1:-0.90766 2:-0.046221444 3:-0.32785422 4:0.45390489 5:-0.43290767 6:1.1816503 7:0.045388778 8:0.099279333 9:-0.0014527778 10:0.38525533 
1 1:-1.2651302 2:-0.046463692 3:1.5515426 4:1.1609225 5:0.95255362 6:0.35369708 7:0.085965231 8:-0.51545069 9:-0.94477115 10:-0.46592538 
1 1:-1.2651302 2:-0.046463692 3:1.5515426 4:1.1609225 5:0.95255362 6:0.35369708 7:0.085965231 8:-0.51545069 9:-0.94477115 10:-0.46592538 
1 1:-0.799006 2:-0.061706462 3:0.75078077 4:1.1350808 5:0.37835969 6:0.58622477 7:-0.048563154 8:0.44487677 9:-0.35332931 10:-0.37225077 
1 1:-1.2651302 2:-0.046463692 3:1.5515426 4:1.1609225 5:0.95255362 6:0.35369708 7:0.085965231 8:-0.51545069 9:-0.94477115 10:-0.46592538 
1 1:-0.3213085 2:-0.311892 3:0.0052018333 4:0.31614617 5:-0.13434683 6:1.2218322 7:-0.3394125 8:-0.2347195 9:0.49550517 10:0.061632667 
1 1:-0.83997371 2:0.32692857 3:0.69099314 4:0.492192 5:0.39007986 6:0.92721771 7:-0.49181186 8:0.050655571 9:0.30666829 10:0.53706343 
1 1:-1.1586485 2:0.88555418 3:-0.45634636 4:0.67013164 5:0.94738464 6:0.282384 7:1.3629998 8:-1.183613 9:-1.1975151 10:2.3224218 
1 1:-0.3422925 2:-0.57840642 3:0.88666767 4:0.49205 5:0.65358308 6:0.43461492 7:0.51408867 8:0.25665225 9:0.26950975 10:-0.41757942 
1 1:-0.94495636 2:0.418564 3:0.076581429 4:1.3883115 5:0.86700629 6:0.53985607 7:-0.7932555 8:0.43887936 9:0.091338429 10:0.81435636 
1 1:-0.050509583 2:-0.63236533 3:0.342128 4:0.40683683 5:-0.083722167 6:1.1029313 7:0.02762775 8:0.62904692 9:-0.20719283 10:0.26582233 
1 1:-0.779613 2:0.077678583 3:0.53960033 4:1.2771039 5:0.95013925 6:0.48105833 7:-0.40075125 8:-0.18800783 9:0.20864125 10:0.11787783 
0.7674415149863035 1:-1.4692783 2:-0.30557764 3:0.56220236 4:1.3448032 5:0.80773255 6:-0.36813955 7:0.10736855 8:-0.208673 9:0.50813036 10:0.73686064 
1 1:-0.6841012 2:-0.704762 3:-0.0249399 4:0.5315545 5:-0.1740446 6:1.0620265 7:-0.3233658 8:-0.5366588 9:-0.0576495 10:0.7334725 
1 1:-0.6905156 2:-0.8504532 3:0.1944474 4:0.1360886 5:0.0455174 6:0.6542146 7:-0.1182468 8:-0.5203054 9:0.2364304 10:0.2269592 
1 1:-0.33311056 2:-0.95224667 3:0.46648356 4:0.055908333 5:-0.086080333 6:1.0329957 7:-0.23284622 8:-0.15413356 9:0.073813222 10:0.25569411 
1 1:-0.427774 2:-0.24850936 3:0.21053727 4:0.689573 5:-0.203349 6:1.0940392 7:-0.436834 8:0.071050818 9:-0.041314455 10:0.22748291 
1 1:-0.98928546 2:0.51765585 3:0.65324877 4:1.6830575 5:0.80293954 6:0.70171946 7:0.23795508 8:-0.22710869 9:-0.94595754 10:-0.59331815 
0.8969440768755175 1:-0.58783645 2:-0.026791727 3:-0.099441182 4:0.24946727 5:-0.29677155 6:0.77975745 7:-0.18554955 8:0.19981282 9:0.287831 10:-0.024541545 
1 1:-0.50864409 2:-0.25631655 3:0.031274818 4:0.49371218 5:-0.0012752727 6:0.80149536 7:0.156865 8:-0.24520855 9:0.24870755 10:0.017079 
1 1:-0.58219483 2:-0.3662935 3:0.124426 4:0.26225667 5:-0.22881017 6:1.1055507 7:-0.095804833 8:-0.10922417 9:-0.065152 10:0.12122533 
1 1:-1.2651302 2:-0.046463692 3:1.5515426 4:1.1609225 5:0.95255362 6:0.35369708 7:0.085965231 8:-0.51545069 9:-0.94477115 10:-0.46592538 
1 1:-0.52660857 2:-0.30846843 3:0.52887357 4:0.49780586 5:0.14586171 6:0.912579 7:-0.405709 8:0.23803429 9:0.494813 10:0.36768086 
1 1:-1.7043647 2:0.34588255 3:0.620736 4:1.1047853 5:-0.20244664 6:0.62511536 7:0.324917 8:0.50762191 9:-0.81698745 10:-0.62361364 
1 1:-1.8949235 2:-0.18836385 3:0.90620369 4:0.35822669 5:0.63560569 6:0.44906085 7:0.019417 8:0.24919885 9:0.24755154 10:-0.27466038 
1 1:-1.4659287 2:0.96869842 3:0.77159017 4:1.3109992 5:0.22001783 6:0.5345395 7:0.49338758 8:0.64436042 9:-0.89350283 10:-0.576469 
1 1:-0.98022269 2:0.65961692 3:0.69695869 4:1.2275928 5:0.33233608 6:0.83211369 7:0.699032 8:0.35494538 9:-1.2625505 10:-0.65804985 
1 1:-1.0109834 2:0.0027738182 3:0.37686973 4:1.1892229 5:0.80161918 6:0.31441827 7:-0.24688 8:-0.35892073 9:0.20238073 10:0.45671209 
1 1:-0.222815 2:-0.62331383 3:-0.27493883 4:0.16763017 5:0.21177183 6:0.4709085 7:0.084660167 8:-0.36231217 9:0.230408 10:-0.1115195 
1 1:-0.42496363 2:-0.201207 3:0.50897063 4:0.4936045 5:0.20052562 6:0.84891437 7:-0.26773938 8:0.18249562 9:0.57267437 10:0.37070888 
1 1:-0.98928546 2:0.51765585 3:0.65324877 4:1.6830575 5:0.80293954 6:0.70171946 7:0.23795508 8:-0.22710869 9:-0.94595754 10:-0.59331815 
1 1:-0.9366142 2:-0.1070438 3:0.9992383 4:0.7375989 5:0.2410256 6:0.5050136 7:-0.0258412 8:0.2352941 9:-0.7713241 10:-0.2084435 
1 1:-1.7043647 2:0.34588255 3:0.620736 4:1.1047853 5:-0.20244664 6:0.62511536 7:0.324917 8:0.50762191 9:-0.81698745 10:-0.62361364 
1 1:-0.346411 2:-0.1296755 3:0.3363545 4:0.44207725 5:-0.085335 6:1.1025087 7:-0.23164 8:0.27644475 9:0.58506863 10:0.423628 
1 1:-0.30384037 2:-0.30770412 3:0.47102838 4:0.44605275 5:0.16985137 6:1.0393817 7:-0.3920975 8:0.22215825 9:0.63944488 10:0.502 
1 1:-0.84777191 2:0.54364336 3:-1.4456056 4:0.82237109 5:-0.45075409 6:1.086218 7:2.2483808 8:-0.23949418 9:0.44374027 10:1.3215851 
1 1:-0.84777191 2:0.54364336 3:-1.4456056 4:0.82237109 5:-0.45075409 6:1.086218 7:2.2483808 8:-0.23949418 9:0.44374027 10:1.3215851 
1 1:-0.52045658 2:-0.78795525 3:0.91444375 4:1.4801788 5:0.23282692 6:0.538656 7:0.92787867 8:-0.486137 9:-1.5453964 10:-0.39039942 
1 1:-0.52045658 2:-0.78795525 3:0.91444375 4:1.4801788 5:0.23282692 6:0.538656 7:0.92787867 8:-0.486137 9:-1.5453964 10:-0.39039942 
1 1:-0.52045658 2:-0.78795525 3:0.91444375 4:1.4801788 5:0.23282692 6:0.538656 7:0.92787867 8:-0.486137 9:-1.5453964 10:-0.39039942 
1 1:-0.84777191 2:0.54364336 3:-1.4456056 4:0.82237109 5:-0.45075409 6:1.086218 7:2.2483808 8:-0.23949418 9:0.44374027 10:1.3215851 
1 1:-1.3683802 2:-0.3198282 3:0.4412694 4:1.4275209 5:0.8903554 6:-0.3411292 7:0.1622078 8:-0.2148944 9:0.4108203 10:0.836141 
1 1:-0.64375892 2:0.47154062 3:0.14235031 4:1.7935838 5:0.56706054 6:0.64889015 7:-0.21425031 8:0.69692538 9:-0.11248569 10:-0.11873631 
1 1:-0.52045658 2:-0.78795525 3:0.91444375 4:1.4801788 5:0.23282692 6:0.538656 7:0.92787867 8:-0.486137 9:-1.5453964 10:-0.39039942 
0.7048782597258422 1:-1.3354646 2:-0.85067655 3:0.91588518 4:0.85394473 5:-0.16454964 6:0.51482873 7:0.034604 8:0.53259864 9:-0.59192436 10:-0.43629273 
1 1:-0.78372445 2:0.426089 3:0.46766273 4:1.5559239 5:0.68867173 6:0.40537855 7:-0.23067436 8:0.13965773 9:0.014388455 10:0.0084308182 
1 1:-1.1856544 2:-0.018784333 3:0.73754625 4:0.61973917 5:0.5105645 6:0.56515675 7:-0.012726 8:0.30313925 9:-0.22971442 10:-0.54732167 
1 1:-1.0471695 2:0.015446583 3:1.2896996 4:1.4163975 5:0.8383545 6:0.5252645 7:0.28824958 8:0.055174167 9:-0.54036575 10:-1.0284179 
1 1:-0.6489363 2:-0.3809238 3:0.6561977 4:0.7870294 5:0.2809963 6:0.6408692 7:0.001237 8:0.2010863 9:-0.2301171 10:-0.4697074 
1 1:-1.1586485 2:0.88555418 3:-0.45634636 4:0.67013164 5:0.94738464 6:0.282384 7:1.3629998 8:-1.183613 9:-1.1975151 10:2.3224218 
1 1:-0.94495636 2:0.418564 3:0.076581429 4:1.3883115 5:0.86700629 6:0.53985607 7:-0.7932555 8:0.43887936 9:0.091338429 10:0.81435636 
1 1:-0.9366142 2:-0.1070438 3:0.9992383 4:0.7375989 5:0.2410256 6:0.5050136 7:-0.0258412 8:0.2352941 9:-0.7713241 10:-0.2084435 
1 1:-1.1586485 2:0.88555418 3:-0.45634636 4:0.67013164 5:0.94738464 6:0.282384 7:1.3629998 8:-1.183613 9:-1.1975151 10:2.3224218 
1 1:-1.632889 2:0.006732 3:-0.146994 4:1.2406468 5:-0.2542996 6:0.2549656 7:-0.2033346 8:1.0045526 9:-0.523339 10:0.7173313 
1 1:-1.2651302 2:-0.046463692 3:1.5515426 4:1.1609225 5:0.95255362 6:0.35369708 7:0.085965231 8:-0.51545069 9:-0.94477115 10:-0.46592538 
1 1:-1.2651302 2:-0.046463692 3:1.5515426 4:1.1609225 5:0.95255362 6:0.35369708 7:0.085965231 8:-0.51545069 9:-0.94477115 10:-0.46592538 
1 1:-1.7043647 2:0.34588255 3:0.620736 4:1.1047853 5:-0.20244664 6:0.62511536 7:0.324917 8:0.50762191 9:-0.81698745 10:-0.62361364 
1 1:-1.3683802 2:-0.3198282 3:0.4412694 4:1.4275209 5:0.8903554 6:-0.3411292 7:0.1622078 8:-0.2148944 9:0.4108203 10:0.836141 
1 1:-0.50155386 2:-0.435752 3:0.64040286 4:0.29175786 5:0.036663714 6:0.70654143 7:-0.35772386 8:0.30708429 9:0.087194143 10:0.37966529 
1 1:-0.91081015 2:0.422746 3:0.73687923 4:1.5983621 5:0.69490746 6:0.55292038 7:-0.014848692 8:-0.13817092 9:-0.59289962 10:-0.26365946 
1 1:-1.4659287 2:0.96869842 3:0.77159017 4:1.3109992 5:0.22001783 6:0.5345395 7:0.49338758 8:0.64436042 9:-0.89350283 10:-0.576469 
1 1:-1.7043647 2:0.34588255 3:0.620736 4:1.1047853 5:-0.20244664 6:0.62511536 7:0.324917 8:0.50762191 9:-0.81698745 10:-0.62361364 
1 1:-0.45089057 2:-0.32216729 3:0.558635 4:0.52533871 5:0.13673243 6:0.91103943 7:-0.45723071 8:0.18642529 9:0.62357171 10:0.37220257 
1 1:-0.32339745 2:0.052643273 3:-0.21525191 4:0.57783018 5:-0.28760536 6:0.86467418 7:0.019579091 8:0.35744555 9:-0.337544 10:0.45633473 
1 1:-0.14618063 2:-0.73748638 3:0.12366238 4:0.66193875 5:-0.62067525 6:0.97634438 7:0.334829 8:0.43815263 9:-0.86291563 10:0.48789862 
1 1:-0.2661926 2:-0.6265632 3:0.3720173 4:0.4490897 5:0.6037336 6:1.4804987 7:0.1545207 8:-0.587115 9:-0.4643542 10:-0.2104769 
1 1:-1.4659287 2:0.96869842 3:0.77159017 4:1.3109992 5:0.22001783 6:0.5345395 7:0.49338758 8:0.64436042 9:-0.89350283 10:-0.576469 
1 1:-0.34868017 2:0.14623483 3:0.68439692 4:1.2611122 5:0.82643383 6:0.87804583 7:-0.71954742 8:-0.17457017 9:-0.43152167 10:-0.077124583 
1 1:-0.8494545 2:0.1697319 3:-0.538638 4:0.6415905 5:-0.3694205 6:1.4459984 7:-0.0853381 8:0.2910447 9:0.5162968 10:0.3628373 
1 1:-0.51705622 2:-0.73073733 3:-0.66429678 4:0.46050556 5:1.1309369 6:1.4683442 7:-0.59703156 8:0.10015022 9:-0.18737356 10:-0.15709922 
1 1:-0.95272827 2:-0.90993382 3:0.033448909 4:-1.0166625 5:-0.11437055 6:1.6274465 7:0.67859927 8:0.26714073 9:0.80671091 10:0.36020355 
1 1:-0.57459144 2:-0.76245722 3:-0.23224744 4:0.51325322 5:-0.078759667 6:0.91593633 7:-0.070527222 8:-0.35278444 9:-0.0057704444 10:0.97241267 
1 1:-0.1057915 2:0.5168785 3:0.47821167 4:0.8197385 5:0.54496975 6:0.75128533 7:-0.29151225 8:-0.16524458 9:0.23139925 10:0.29331742 
1 1:-0.47873771 2:-0.17854571 3:0.55715414 4:0.517328 5:0.21860443 6:0.85892129 7:-0.42398843 8:0.15471343 9:0.61112057 10:0.33626686 
1 1:-0.063657182 2:-1.0396468 3:0.73605245 4:0.79841055 5:0.76694 6:0.54989191 7:0.62035418 8:0.26984173 9:0.53476273 10:-0.24701582 
1 1:-0.22303745 2:-0.17559782 3:0.21137482 4:0.22693927 5:-0.14407655 6:0.78262364 7:-0.00954 8:0.21674927 9:0.055666545 10:0.12542636 
1 1:-0.61333611 2:-0.051830778 3:0.042788556 4:0.043208889 5:0.24047344 6:1.1052981 7:0.034415444 8:1.1641628 9:0.40606544 10:0.45665311 
1 1:-0.98022269 2:0.65961692 3:0.69695869 4:1.2275928 5:0.33233608 6:0.83211369 7:0.699032 8:0.35494538 9:-1.2625505 10:-0.65804985 
1 1:-0.95232514 2:0.31621457 3:0.53749686 4:0.65010443 5:0.39747271 6:0.95557343 7:-0.57649729 8:-0.29002486 9:0.17675886 10:0.31191571 
1 1:-0.40467136 2:0.25861745 3:-0.68126464 4:0.74546427 5:-0.017068 6:1.0923317 7:0.378293 8:-0.19506145 9:-0.0077738182 10:0.48458918 
1 1:-0.56765043 2:-0.0026174286 3:0.24605186 4:0.55789571 5:0.051746429 6:0.96462186 7:-0.44199771 8:0.32418071 9:0.37369329 10:0.48789557 
1 1:-0.42496363 2:-0.201207 3:0.50897063 4:0.4936045 5:0.20052562 6:0.84891437 7:-0.26773938 8:0.18249562 9:0.57267437 10:0.37070888 
1 1:-1.7043647 2:0.34588255 3:0.620736 4:1.1047853 5:-0.20244664 6:0.62511536 7:0.324917 8:0.50762191 9:-0.81698745 10:-0.62361364 
1 1:-0.3655675 2:-0.5049625 3:0.017019125 4:0.56292375 5:-0.11907175 6:1.2009592 7:-0.22665025 8:-0.23380863 9:0.5120445 10:0.083130375 
1 1:-1.7043647 2:0.34588255 3:0.620736 4:1.1047853 5:-0.20244664 6:0.62511536 7:0.324917 8:0.50762191 9:-0.81698745 10:-0.62361364 
1 1:-0.42496363 2:-0.201207 3:0.50897063 4:0.4936045 5:0.20052562 6:0.84891437 7:-0.26773938 8:0.18249562 9:0.57267437 10:0.37070888 
1 1:-0.43325237 2:0.00691775 3:0.21954938 4:0.41575262 5:-0.23752662 6:1.2483475 7:-0.31634438 8:0.574007 9:0.37434475 10:0.70768737 
1 1:-0.82622429 2:0.63140071 3:-0.66990979 4:2.0624519 5:1.0054679 6:0.80871329 7:-0.85088886 8:0.94062993 9:0.58893814 10:1.4203037 
1 1:-0.30068036 2:-0.88313982 3:-0.078878909 4:0.33976345 5:-0.21782618 6:1.5085513 7:-0.44635764 8:-0.20610955 9:0.58063927 10:0.38980273 
1 1:-0.891175 2:0.5474125 3:-0.31551 4:1.0651907 5:-0.14709458 6:0.88452733 7:0.60561317 8:0.11946783 9:-0.01252875 10:0.41830183 
1 1:-0.84777191 2:0.54364336 3:-1.4456056 4:0.82237109 5:-0.45075409 6:1.086218 7:2.2483808 8:-0.23949418 9:0.44374027 10:1.3215851 
1 1:-0.52045658 2:-0.78795525 3:0.91444375 4:1.4801788 5:0.23282692 6:0.538656 7:0.92787867 8:-0.486137 9:-1.5453964 10:-0.39039942 
0.9472687130450673 1:-0.84777191 2:0.54364336 3:-1.4456056 4:0.82237109 5:-0.45075409 6:1.086218 7:2.2483808 8:-0.23949418 9:0.44374027 10:1.3215851 
1 1:-0.52045658 2:-0.78795525 3:0.91444375 4:1.4801788 5:0.23282692 6:0.538656 7:0.92787867 8:-0.486137 9:-1.5453964 10:-0.39039942 
1 1:-1.0471695 2:0.015446583 3:1.2896996 4:1.4163975 5:0.8383545 6:0.5252645 7:0.28824958 8:0.055174167 9:-0.54036575 10:-1.0284179 
1 1:-0.9366142 2:-0.1070438 3:0.9992383 4:0.7375989 5:0.2410256 6:0.5050136 7:-0.0258412 8:0.2352941 9:-0.7713241 10:-0.2084435 
1 1:-1.1586485 2:0.88555418 3:-0.45634636 4:0.67013164 5:0.94738464 6:0.282384 7:1.3629998 8:-1.183613 9:-1.1975151 10:2.3224218 
1 1:-0.52045658 2:-0.78795525 3:0.91444375 4:1.4801788 5:0.23282692 6:0.538656 7:0.92787867 8:-0.486137 9:-1.5453964 10:-0.39039942 
1 1:-1.7043647 2:0.34588255 3:0.620736 4:1.1047853 5:-0.20244664 6:0.62511536 7:0.324917 8:0.50762191 9:-0.81698745 10:-0.62361364 
1 1:-0.91081015 2:0.422746 3:0.73687923 4:1.5983621 5:0.69490746 6:0.55292038 7:-0.014848692 8:-0.13817092 9:-0.59289962 10:-0.26365946 
1 1:-0.71840142 2:0.5294835 3:0.14031467 4:1.8155364 5:0.46087433 6:0.66379 7:-0.2093645 8:0.65576758 9:-0.15209925 10:0.0078361667 
1 1:-0.95272827 2:-0.90993382 3:0.033448909 4:-1.0166625 5:-0.11437055 6:1.6274465 7:0.67859927 8:0.26714073 9:0.80671091 10:0.36020355 
1 1:-1.7043647 2:0.34588255 3:0.620736 4:1.1047853 5:-0.20244664 6:0.62511536 7:0.324917 8:0.50762191 9:-0.81698745 10:-0.62361364 
1 1:-0.78372445 2:0.426089 3:0.46766273 4:1.5559239 5:0.68867173 6:0.40537855 7:-0.23067436 8:0.13965773 9:0.014388455 10:0.0084308182 
1 1:-0.6489363 2:-0.3809238 3:0.6561977 4:0.7870294 5:0.2809963 6:0.6408692 7:0.001237 8:0.2010863 9:-0.2301171 10:-0.4697074 
1 1:-1.4659287 2:0.96869842 3:0.77159017 4:1.3109992 5:0.22001783 6:0.5345395 7:0.49338758 8:0.64436042 9:-0.89350283 10:-0.576469 
1 1:0.046479 2:-0.6948765 3:0.2589137 4:0.3811329 5:0.4811968 6:0.7493674 7:0.1764845 8:-0.0259076 9:0.4472204 10:0.1270235 
1 1:-0.57284767 2:-0.15730183 3:0.60915583 4:0.28127167 5:0.17134675 6:0.93144125 7:-0.31403792 8:0.044617417 9:-0.23412283 10:-0.15253183 
1 1:-0.71318417 2:0.0139115 3:-0.031562333 4:0.652559 5:-0.488401 6:0.9218055 7:-0.0025885 8:-0.36007833 9:0.5921365 10:0.29254917 
1 1:-0.36973827 2:-0.76410482 3:0.014047727 4:0.13039718 5:-0.12262327 6:1.3407535 7:-0.22710209 8:-0.27298736 9:-0.092272 10:0.55040909 
1 1:-0.7418194 2:0.5185666 3:-0.3313626 4:0.2088679 5:0.1260032 6:0.7818297 7:0.1835561 8:0.5326646 9:0.2405975 10:1.1641127 
1 1:-0.30384037 2:-0.30770412 3:0.47102838 4:0.44605275 5:0.16985137 6:1.0393817 7:-0.3920975 8:0.22215825 9:0.63944488 10:0.502 
1 1:0.19239569 2:1.4873907 3:1.0626186 4:1.9871248 5:1.1343005 6:1.0169037 7:0.0031477692 8:-0.49097992 9:0.853747 10:0.87359131 
1 1:-0.52525545 2:-0.37812045 3:0.87411218 4:0.94730118 5:0.38754773 6:0.61141818 7:-0.34710836 8:-0.019660818 9:-0.017927909 10:-0.155991 
1 1:-1.7043647 2:0.34588255 3:0.620736 4:1.1047853 5:-0.20244664 6:0.62511536 7:0.324917 8:0.50762191 9:-0.81698745 10:-0.62361364 
1 1:-0.63833145 2:-0.087963364 3:0.064611182 4:0.46231809 5:-0.36013745 6:1.0031188 7:-0.21238336 8:0.17189036 9:0.18402464 10:0.17800555 
1 1:-0.52045658 2:-0.78795525 3:0.91444375 4:1.4801788 5:0.23282692 6:0.538656 7:0.92787867 8:-0.486137 9:-1.5453964 10:-0.39039942 
1 1:-1.0778619 2:0.0052833333 3:0.3606035 4:1.031423 5:0.24433033 6:0.79658892 7:0.34034517 8:0.75750992 9:-1.1386511 10:-0.63930542 
1 1:-1.7043647 2:0.34588255 3:0.620736 4:1.1047853 5:-0.20244664 6:0.62511536 7:0.324917 8:0.50762191 9:-0.81698745 10:-0.62361364 
1 1:-0.8680906 2:-0.8260299 3:1.2163317 4:0.9186747 5:0.9803611 6:0.2412268 7:0.836808 8:0.4987559 9:0.1175601 10:-0.7113139 
1 1:-1.1856544 2:-0.018784333 3:0.73754625 4:0.61973917 5:0.5105645 6:0.56515675 7:-0.012726 8:0.30313925 9:-0.22971442 10:-0.54732167 
1 1:-0.52064986 2:-0.37584614 3:-0.11146557 4:0.33442929 5:0.19485114 6:1.0257516 7:-0.13465586 8:-0.36229457 9:0.416523 10:0.24429914 
1 1:-1.3683802 2:-0.3198282 3:0.4412694 4:1.4275209 5:0.8903554 6:-0.3411292 7:0.1622078 8:-0.2148944 9:0.4108203 10:0.836141 
1 1:-0.49753964 2:-0.65480882 3:0.72853936 4:0.70964482 5:0.67491264 6:0.745583 7:-0.31725209 8:-0.14031036 9:-0.084148364 10:-0.26786827 
1 1:-0.17461629 2:-0.29648557 3:1.0319287 4:0.50620986 5:0.61947643 6:0.89103543 7:-0.56632357 8:-0.025911143 9:-0.064890286 10:-0.0069337143 
1 1:-0.71796408 2:0.35758646 3:1.673501 4:1.4950441 5:0.29935354 6:0.58660246 7:-0.045845692 8:-0.85406046 9:-0.66082185 10:0.048593846 
1 1:-0.7678919 2:0.4799035 3:0.0671569 4:1.2207381 5:0.3763087 6:0.8963658 7:-0.7993125 8:0.3522207 9:0.4906671 10:0.9479409 
1 1:-1.2651302 2:-0.046463692 3:1.5515426 4:1.1609225 5:0.95255362 6:0.35369708 7:0.085965231 8:-0.51545069 9:-0.94477115 10:-0.46592538 
1 1:-1.2651302 2:-0.046463692 3:1.5515426 4:1.1609225 5:0.95255362 6:0.35369708 7:0.085965231 8:-0.51545069 9:-0.94477115 10:-0.46592538 
1 1:-0.78372445 2:0.426089 3:0.46766273 4:1.5559239 5:0.68867173 6:0.40537855 7:-0.23067436 8:0.13965773 9:0.014388455 10:0.0084308182 
1 1:-0.78372445 2:0.426089 3:0.46766273 4:1.5559239 5:0.68867173 6:0.40537855 7:-0.23067436 8:0.13965773 9:0.014388455 10:0.0084308182 
1 1:-0.40387512 2:-0.63013175 3:0.3529835 4:0.288798 5:-0.33242825 6:1.1998604 7:-0.31111075 8:0.015311625 9:-0.12612013 10:0.65766738 
1 1:-0.3732577 2:-0.3432637 3:0.0564667 4:0.0980755 5:-0.027004 6:0.7613985 7:0.1331913 8:-0.2785195 9:-0.1393481 10:-0.0046435 
1 1:-0.51954209 2:-0.26687945 3:0.15772645 4:0.42697355 5:0.034251182 6:0.56178036 7:-0.220854 8:-0.23416509 9:0.29486664 10:0.30067473 
1 1:-0.94495636 2:0.418564 3:0.076581429 4:1.3883115 5:0.86700629 6:0.53985607 7:-0.7932555 8:0.43887936 9:0.091338429 10:0.81435636 
1 1:-0.40553633 2:-0.034112333 3:0.25512067 4:0.81505822 5:0.386965 6:0.66014633 7:-0.30211756 8:0.18419556 9:0.12775656 10:0.046578444 
1 1:-0.3919365 2:-0.46570987 3:0.74711675 4:0.52885288 5:-0.48887762 6:1.3329437 7:-0.61352337 8:0.0661795 9:0.153291 10:0.66762175 
0.8961120399243534 1:-1.632889 2:0.006732 3:-0.146994 4:1.2406468 5:-0.2542996 6:0.2549656 7:-0.2033346 8:1.0045526 9:-0.523339 10:0.7173313 
1 1:-0.63693031 2:-0.30791454 3:0.16530592 4:1.2780147 5:0.052961538 6:0.97720569 7:-0.35829338 8:0.042509077 9:-0.52937415 10:0.14733254 
1 1:-0.79694075 2:0.093785583 3:0.650438 4:0.7806225 5:0.31907625 6:0.89199233 7:0.31900808 8:0.24483308 9:-0.84967817 10:-0.600609 
1 1:-0.49242213 2:0.19877725 3:-0.019957625 4:0.65203537 5:-0.2522035 6:0.99233875 7:-0.30797825 8:0.15979425 9:0.22135875 10:0.22251062 
1 1:-1.0471695 2:0.015446583 3:1.2896996 4:1.4163975 5:0.8383545 6:0.5252645 7:0.28824958 8:0.055174167 9:-0.54036575 10:-1.0284179 
0.9783480842695543 1:-1.1586485 2:0.88555418 3:-0.45634636 4:0.67013164 5:0.94738464 6:0.282384 7:1.3629998 8:-1.183613 9:-1.1975151 10:2.3224218 
1 1:-0.9366142 2:-0.1070438 3:0.9992383 4:0.7375989 5:0.2410256 6:0.5050136 7:-0.0258412 8:0.2352941 9:-0.7713241 10:-0.2084435 
1 1:-0.71840142 2:0.5294835 3:0.14031467 4:1.8155364 5:0.46087433 6:0.66379 7:-0.2093645 8:0.65576758 9:-0.15209925 10:0.0078361667 
1 1:-0.91081015 2:0.422746 3:0.73687923 4:1.5983621 5:0.69490746 6:0.55292038 7:-0.014848692 8:-0.13817092 9:-0.59289962 10:-0.26365946 
1 1:-0.78372445 2:0.426089 3:0.46766273 4:1.5559239 5:0.68867173 6:0.40537855 7:-0.23067436 8:0.13965773 9:0.014388455 10:0.0084308182 
1 1:-0.91081015 2:0.422746 3:0.73687923 4:1.5983621 5:0.69490746 6:0.55292038 7:-0.014848692 8:-0.13817092 9:-0.59289962 10:-0.26365946 
1 1:-1.7043647 2:0.34588255 3:0.620736 4:1.1047853 5:-0.20244664 6:0.62511536 7:0.324917 8:0.50762191 9:-0.81698745 10:-0.62361364 
1 1:-1.3683802 2:-0.3198282 3:0.4412694 4:1.4275209 5:0.8903554 6:-0.3411292 7:0.1622078 8:-0.2148944 9:0.4108203 10:0.836141 
1 1:-1.7043647 2:0.34588255 3:0.620736 4:1.1047853 5:-0.20244664 6:0.62511536 7:0.324917 8:0.50762191 9:-0.81698745 10:-0.62361364 
1 1:-0.75840989 2:-0.14359833 3:0.92882322 4:0.98680744 5:0.34454667 6:0.44736189 7:0.10955878 8:-0.12100278 9:-0.23017967 10:-0.52515822 
1 1:-0.84224878 2:-0.88092044 3:0.531065 4:1.2783923 5:-0.23751233 6:0.50672067 7:-0.19771567 8:0.620763 9:-0.74805578 10:0.012849889 
1 1:-1.100973 2:0.70999464 3:0.93868657 4:1.0468204 5:1.0818644 6:0.98616807 7:0.39740186 8:-0.055421357 9:-1.4321669 10:-1.1027762 
1 1:-1.2651302 2:-0.046463692 3:1.5515426 4:1.1609225 5:0.95255362 6:0.35369708 7:0.085965231 8:-0.51545069 9:-0.94477115 10:-0.46592538 
1 1:-1.2651302 2:-0.046463692 3:1.5515426 4:1.1609225 5:0.95255362 6:0.35369708 7:0.085965231 8:-0.51545069 9:-0.94477115 10:-0.46592538 
1 1:-0.71796408 2:0.35758646 3:1.673501 4:1.4950441 5:0.29935354 6:0.58660246 7:-0.045845692 8:-0.85406046 9:-0.66082185 10:0.048593846 
1 1:-0.20973611 2:-0.35395267 3:0.38244411 4:-0.053809778 5:0.29856067 6:1.0528296 7:0.034741556 8:1.5809406 9:0.181526 10:0.29376889 
1 1:-0.37282 2:-0.47384343 3:-0.12059243 4:0.255972 5:-0.17566043 6:1.3898139 7:-0.43743171 8:-0.11521471 9:0.443774 10:0.33697143 
1 1:-0.71294533 2:-0.66761017 3:0.52587208 4:0.81211867 5:0.19347342 6:0.61897775 7:-0.10144308 8:-0.090128583 9:-0.557812 10:-0.0187815 
1 1:-0.891175 2:0.5474125 3:-0.31551 4:1.0651907 5:-0.14709458 6:0.88452733 7:0.60561317 8:0.11946783 9:-0.01252875 10:0.41830183 
1 1:-0.7678919 2:0.4799035 3:0.0671569 4:1.2207381 5:0.3763087 6:0.8963658 7:-0.7993125 8:0.3522207 9:0.4906671 10:0.9479409 
1 1:-0.68172382 2:-0.43474636 3:0.54408645 4:0.78938782 5:0.29252382 6:0.76326327 7:-0.20822336 8:0.017054545 9:-0.740868 10:-0.25985227 
1 1:-0.74307475 2:0.124459 3:0.60053642 4:0.098800667 5:0.66945133 6:1.2651541 7:0.4147575 8:0.30600825 9:-0.63721467 10:-0.62704942 
1 1:-0.65913622 2:0.007495 3:0.30255722 4:-0.0075754444 5:-0.0060591111 6:1.003082 7:0.037942 8:-0.27829022 9:0.068594111 10:0.54568822 
1 1:-0.42496363 2:-0.201207 3:0.50897063 4:0.4936045 5:0.20052562 6:0.84891437 7:-0.26773938 8:0.18249562 9:0.57267437 10:0.37070888 
1 1:-0.52045658 2:-0.78795525 3:0.91444375 4:1.4801788 5:0.23282692 6:0.538656 7:0.92787867 8:-0.486137 9:-1.5453964 10:-0.39039942 
1 1:-1.4659287 2:0.96869842 3:0.77159017 4:1.3109992 5:0.22001783 6:0.5345395 7:0.49338758 8:0.64436042 9:-0.89350283 10:-0.576469 
1 1:-0.40092712 2:-0.16816712 3:0.41470812 4:0.43007612 5:0.17756 6:0.66720487 7:-0.35393275 8:0.12935262 9:0.46751562 10:0.22737575 
1 1:-1.0395222 2:0.67972569 3:1.2732758 4:1.2403538 5:0.22594954 6:0.46727415 7:0.42824246 8:1.2655059 9:-0.35718915 10:-0.41254277 
1 1:-0.42107787 2:-0.20977988 3:0.46406413 4:0.34200575 5:0.17311912 6:0.934901 7:-0.36913363 8:0.11528963 9:0.50309887 10:0.2892005 
1 1:-1.1856544 2:-0.018784333 3:0.73754625 4:0.61973917 5:0.5105645 6:0.56515675 7:-0.012726 8:0.30313925 9:-0.22971442 10:-0.54732167 
1 1:-0.4364156 2:-0.4794009 3:0.1410282 4:0.6173128 5:-0.5215923 6:0.9009567 7:0.2225288 8:0.4057935 9:-0.6473503 10:0.4529297 
1 1:-0.37044075 2:-0.64225875 3:0.6485115 4:-0.131521 5:-0.18097875 6:1.1961425 7:-0.398839 8:0.14575212 9:0.0423605 10:0.57195925 
1 1:-0.799006 2:-0.061706462 3:0.75078077 4:1.1350808 5:0.37835969 6:0.58622477 7:-0.048563154 8:0.44487677 9:-0.35332931 10:-0.37225077 
1 1:-0.32707014 2:-0.24256629 3:0.0085621429 4:0.27843743 5:-0.47083329 6:1.357969 7:-0.10508386 8:-0.046899857 9:0.14416329 10:0.36177271 
1 1:-0.4180651 2:-0.8270931 3:0.7398527 4:0.7583607 5:0.6141628 6:0.7478084 7:-0.2648116 8:0.0335788 9:-0.3410635 10:-0.2190018 
1 1:-0.3732577 2:-0.3432637 3:0.0564667 4:0.0980755 5:-0.027004 6:0.7613985 7:0.1331913 8:-0.2785195 9:-0.1393481 10:-0.0046435 
1 1:-0.431795 2:-0.313504 3:0.0698512 4:0.3567326 5:0.0752428 6:0.6552876 7:-0.2816388 8:-0.2389132 9:0.0816752 10:0.0350022 
1 1:-0.3662326 2:0.1146966 3:-0.0296151 4:0.5660565 5:-0.6441338 6:1.4386736 7:-0.0436606 8:0.474299 9:0.3755761 10:0.4407061 
1 1:-0.49066792 2:0.16109917 3:-0.086675 4:0.88054442 5:-0.24853083 6:0.89167075 7:0.13692925 8:0.22234933 9:0.34056542 10:0.26472067 
1 1:-1.4659287 2:0.96869842 3:0.77159017 4:1.3109992 5:0.22001783 6:0.5345395 7:0.49338758 8:0.64436042 9:-0.89350283 10:-0.576469 
1 1:-0.5593792 2:-0.4438969 3:0.1430126 4:0.5197898 5:-0.0117981 6:1.1582826 7:-0.4551656 8:-0.0052649 9:-0.0103538 10:0.2383419 
1 1:-0.4039038 2:-0.6835056 3:0.5701725 4:0.1751504 5:0.0239174 6:0.8213746 7:-0.0663919 8:-0.1038116 9:0.2411339 10:0.3392483 
1 1:-0.3430729 2:-0.2057166 3:0.3020057 4:0.2918314 5:0.0459981 6:0.7168913 7:-0.27059 8:0.1363351 9:0.4255213 10:0.2159243 
1 1:-0.8494545 2:0.1697319 3:-0.538638 4:0.6415905 5:-0.3694205 6:1.4459984 7:-0.0853381 8:0.2910447 9:0.5162968 10:0.3628373 
1 1:-0.510212 2:-0.1826622 3:0.2802054 4:0.620863 5:0.1226318 6:0.735665 7:-0.2597806 8:-0.0654398 9:-0.0349124 10:-0.0659558 
1 1:-0.6489363 2:-0.3809238 3:0.6561977 4:0.7870294 5:0.2809963 6:0.6408692 7:0.001237 8:0.2010863 9:-0.2301171 10:-0.4697074 
1 1:-1.0471695 2:0.015446583 3:1.2896996 4:1.4163975 5:0.8383545 6:0.5252645 7:0.28824958 8:0.055174167 9:-0.54036575 10:-1.0284179 
1 1:-1.3683802 2:-0.3198282 3:0.4412694 4:1.4275209 5:0.8903554 6:-0.3411292 7:0.1622078 8:-0.2148944 9:0.4108203 10:0.836141 
1 1:-1.3683802 2:-0.3198282 3:0.4412694 4:1.4275209 5:0.8903554 6:-0.3411292 7:0.1622078 8:-0.2148944 9:0.4108203 10:0.836141 
1 1:-1.7043647 2:0.34588255 3:0.620736 4:1.1047853 5:-0.20244664 6:0.62511536 7:0.324917 8:0.50762191 9:-0.81698745 10:-0.62361364 
1 1:-1.3683802 2:-0.3198282 3:0.4412694 4:1.4275209 5:0.8903554 6:-0.3411292 7:0.1622078 8:-0.2148944 9:0.4108203 10:0.836141 
1 1:-0.91081015 2:0.422746 3:0.73687923 4:1.5983621 5:0.69490746 6:0.55292038 7:-0.014848692 8:-0.13817092 9:-0.59289962 10:-0.26365946 
1 1:-0.891175 2:0.5474125 3:-0.31551 4:1.0651907 5:-0.14709458 6:0.88452733 7:0.60561317 8:0.11946783 9:-0.01252875 10:0.41830183 
1 1:-0.67537758 2:0.4937115 3:0.14068858 4:1.8837128 5:0.59779075 6:0.66106608 7:-0.23753417 8:0.70989408 9:-0.13229125 10:-0.14477533 
1 1:-0.3655675 2:-0.5049625 3:0.017019125 4:0.56292375 5:-0.11907175 6:1.2009592 7:-0.22665025 8:-0.23380863 9:0.5120445 10:0.083130375 
1 1:-1.3657706 2:0.56805633 3:0.61357333 4:1.2858763 5:0.76832283 6:1.117637 7:0.47510208 8:-0.4186955 9:-0.59530983 10:-1.3735453 
1 1:-0.98928546 2:0.51765585 3:0.65324877 4:1.6830575 5:0.80293954 6:0.70171946 7:0.23795508 8:-0.22710869 9:-0.94595754 10:-0.59331815 
1 1:-0.915758 2:-0.367205 3:0.4071921 4:0.3203073 5:0.2138098 6:0.8155406 7:-0.3069824 8:-0.3345363 9:-0.0270427 10:-0.118254 
1 1:0.50889946 2:0.18933331 3:1.7648938 4:1.0994693 5:0.53858131 6:1.3478065 7:-0.625078 8:0.64963638 9:-0.063397385 10:0.40242069 
1 1:-1.0041523 2:0.1003179 3:0.1874699 4:0.9317378 5:-0.2365461 6:0.7999341 7:-0.0376353 8:0.1309963 9:-0.2536968 10:0.014092 
1 1:-0.9820831 2:-1.0187714 3:1.2278848 4:0.8025032 5:0.9880599 6:0.1800329 7:0.9864191 8:0.4018595 9:0.1193109 10:-0.6404352 
1 1:-0.75582362 2:0.12678712 3:-0.14679775 4:0.4024945 5:-0.89532062 6:1.5432702 7:-0.22040113 8:0.47735575 9:0.68113325 10:0.647796 
1 1:-1.0217497 2:-0.04264375 3:0.50869425 4:1.499615 5:0.4244955 6:0.00886175 7:-0.28421258 8:-0.13989517 9:-0.124785 10:0.62769358 
1 1:-0.45089057 2:-0.32216729 3:0.558635 4:0.52533871 5:0.13673243 6:0.91103943 7:-0.45723071 8:0.18642529 9:0.62357171 10:0.37220257 
1 1:-0.32339745 2:0.052643273 3:-0.21525191 4:0.57783018 5:-0.28760536 6:0.86467418 7:0.019579091 8:0.35744555 9:-0.337544 10:0.45633473 
1 1:-1.1757491 2:-0.023918083 3:1.5232483 4:1.138221 5:0.83103642 6:0.31724458 7:-0.15453433 8:-0.32236175 9:-0.4370065 10:-0.3539385 
1 1:-1.8949235 2:-0.18836385 3:0.90620369 4:0.35822669 5:0.63560569 6:0.44906085 7:0.019417 8:0.24919885 9:0.24755154 10:-0.27466038 
1 1:-0.31808283 2:-0.20304242 3:1.7230114 4:1.2782244 5:0.28627792 6:0.27111508 7:1.0483718 8:-0.70092158 9:-1.2470197 10:0.18530975 
1 1:-0.799006 2:-0.061706462 3:0.75078077 4:1.1350808 5:0.37835969 6:0.58622477 7:-0.048563154 8:0.44487677 9:-0.35332931 10:-0.37225077 
1 1:-1.3683802 2:-0.3198282 3:0.4412694 4:1.4275209 5:0.8903554 6:-0.3411292 7:0.1622078 8:-0.2148944 9:0.4108203 10:0.836141 
1 1:-1.1757491 2:-0.023918083 3:1.5232483 4:1.138221 5:0.83103642 6:0.31724458 7:-0.15453433 8:-0.32236175 9:-0.4370065 10:-0.3539385 
1 1:-0.74307475 2:0.124459 3:0.60053642 4:0.098800667 5:0.66945133 6:1.2651541 7:0.4147575 8:0.30600825 9:-0.63721467 10:-0.62704942 
1 1:-0.7631625 2:0.12721213 3:0.30160575 4:0.45692212 5:-0.002151625 6:0.90560925 7:0.027473375 8:-0.2821775 9:-0.106571 10:-0.20190175 
1 1:-0.6845553 2:0.9226866 3:0.124951 4:0.9779051 5:0.6337408 6:1.1679217 7:-0.1779624 8:-0.1437443 9:0.8070118 10:0.5675035 
1 1:-0.5593792 2:-0.4438969 3:0.1430126 4:0.5197898 5:-0.0117981 6:1.1582826 7:-0.4551656 8:-0.0052649 9:-0.0103538 10:0.2383419 
1 1:-0.52064986 2:-0.37584614 3:-0.11146557 4:0.33442929 5:0.19485114 6:1.0257516 7:-0.13465586 8:-0.36229457 9:0.416523 10:0.24429914 
1 1:-0.93720427 2:0.30336418 3:0.66464536 4:1.3020307 5:-0.12330127 6:0.42398136 7:0.12169709 8:0.26199573 9:-0.82754036 10:0.17056555 
1 1:-0.6489363 2:-0.3809238 3:0.6561977 4:0.7870294 5:0.2809963 6:0.6408692 7:0.001237 8:0.2010863 9:-0.2301171 10:-0.4697074 
1 1:-0.4312343 2:0.3503766 3:-0.2853575 4:0.5583505 5:-0.5416726 6:1.4894102 7:0.2696866 8:0.2126609 9:0.5297549 10:0.1811578 
1 1:-0.7821348 2:-1.1718962 3:-0.4774294 4:0.3390955 5:0.3683939 6:0.7514084 7:0.4728624 8:-0.5831855 9:0.812581 10:0.6947398 
1 1:-0.26226691 2:-0.62241318 3:-0.32193927 4:0.81671809 5:0.70579145 6:0.99509918 7:-0.45016345 8:-0.015454455 9:0.57956773 10:0.61864927 
1 1:-1.1326204 2:0.19276567 3:1.0234408 4:0.63779533 5:0.11865942 6:1.3267763 7:-0.28452967 8:0.19487792 9:-0.3501335 10:-0.73499142 
1 1:-0.799006 2:-0.061706462 3:0.75078077 4:1.1350808 5:0.37835969 6:0.58622477 7:-0.048563154 8:0.44487677 9:-0.35332931 10:-0.37225077 
1 1:-0.52045658 2:-0.78795525 3:0.91444375 4:1.4801788 5:0.23282692 6:0.538656 7:0.92787867 8:-0.486137 9:-1.5453964 10:-0.39039942 
1 1:-0.75582362 2:0.12678712 3:-0.14679775 4:0.4024945 5:-0.89532062 6:1.5432702 7:-0.22040113 8:0.47735575 9:0.68113325 10:0.647796 
1 1:0.077794 2:0.28676873 3:1.0841239 4:1.3603603 5:0.3886976 6:0.88216273 7:-0.595971 8:0.3347894 9:-0.12256127 10:0.4642842 
1 1:0.40920543 2:0.65009764 3:1.4620401 4:1.512689 5:0.48238679 6:1.3414644 7:-0.49283371 8:0.38262529 9:-0.80233621 10:0.28062564 
1 1:-1.2651302 2:-0.046463692 3:1.5515426 4:1.1609225 5:0.95255362 6:0.35369708 7:0.085965231 8:-0.51545069 9:-0.94477115 10:-0.46592538 
1 1:-0.645602 2:-0.46987233 3:0.130664 4:0.596048 5:0.10269 6:0.95359733 7:-0.52290067 8:-0.44821133 9:0.110163 10:-0.047163333 
0.2256181712093321 1:-1.4358588 2:0.26352577 3:0.65705708 4:1.3019787 5:0.56615892 6:0.56629 7:0.044249308 8:0.24479462 9:-0.54319423 10:-0.48436669 
1 1:-0.64387344 2:0.20488222 3:0.012367778 4:0.54142078 5:0.036118778 6:1.4270714 7:-0.50442667 8:0.18861178 9:0.17438133 10:-0.10956922 
1 1:-0.51435508 2:-0.22830392 3:-0.0205585 4:0.76405108 5:-0.2179935 6:0.70859358 7:-0.2190845 8:-0.15878667 9:-0.084382583 10:0.043752583 
1 1:-0.82622429 2:0.63140071 3:-0.66990979 4:2.0624519 5:1.0054679 6:0.80871329 7:-0.85088886 8:0.94062993 9:0.58893814 10:1.4203037 
1 1:-1.1856544 2:-0.018784333 3:0.73754625 4:0.61973917 5:0.5105645 6:0.56515675 7:-0.012726 8:0.30313925 9:-0.22971442 10:-0.54732167 
1 1:-0.594712 2:-0.370914 3:0.0490758 4:0.4696918 5:-0.0925073 6:0.711848 7:-0.0555099 8:0.0338359 9:-0.2106633 10:0.1730184 
1 1:-0.48729883 2:-0.27725717 3:0.311025 4:0.49741883 5:0.070778167 6:0.67517883 7:-0.3336295 8:-0.12547167 9:0.086850667 10:-0.0082033333 
1 1:-0.37614744 2:-0.25996144 3:0.34003644 4:0.50487744 5:-0.42292611 6:1.0148758 7:-0.44579156 8:0.084510556 9:-0.14195089 10:0.49428022 
1 1:-0.43336137 2:-1.2583844 3:0.0333475 4:-0.05588625 5:-0.12563688 6:1.073069 7:0.29083275 8:-0.4389855 9:0.17709975 10:0.44529637 
1 1:-1.0471695 2:0.015446583 3:1.2896996 4:1.4163975 5:0.8383545 6:0.5252645 7:0.28824958 8:0.055174167 9:-0.54036575 10:-1.0284179 
1 1:-0.91081015 2:0.422746 3:0.73687923 4:1.5983621 5:0.69490746 6:0.55292038 7:-0.014848692 8:-0.13817092 9:-0.59289962 10:-0.26365946 
1 1:-1.3683802 2:-0.3198282 3:0.4412694 4:1.4275209 5:0.8903554 6:-0.3411292 7:0.1622078 8:-0.2148944 9:0.4108203 10:0.836141 
1 1:-0.891175 2:0.5474125 3:-0.31551 4:1.0651907 5:-0.14709458 6:0.88452733 7:0.60561317 8:0.11946783 9:-0.01252875 10:0.41830183 
1 1:-0.67537758 2:0.4937115 3:0.14068858 4:1.8837128 5:0.59779075 6:0.66106608 7:-0.23753417 8:0.70989408 9:-0.13229125 10:-0.14477533 
1 1:-1.2388727 2:0.1382525 3:0.50656025 4:1.0357017 5:0.05540575 6:0.62359942 7:0.21355267 8:0.25651808 9:-0.55813467 10:-0.3932825 
1 1:-0.799006 2:-0.061706462 3:0.75078077 4:1.1350808 5:0.37835969 6:0.58622477 7:-0.048563154 8:0.44487677 9:-0.35332931 10:-0.37225077 
1 1:-1.3683802 2:-0.3198282 3:0.4412694 4:1.4275209 5:0.8903554 6:-0.3411292 7:0.1622078 8:-0.2148944 9:0.4108203 10:0.836141 
1 1:-1.7043647 2:0.34588255 3:0.620736 4:1.1047853 5:-0.20244664 6:0.62511536 7:0.324917 8:0.50762191 9:-0.81698745 10:-0.62361364 
1 1:-1.3657706 2:0.56805633 3:0.61357333 4:1.2858763 5:0.76832283 6:1.117637 7:0.47510208 8:-0.4186955 9:-0.59530983 10:-1.3735453 
1 1:-0.93720427 2:0.30336418 3:0.66464536 4:1.3020307 5:-0.12330127 6:0.42398136 7:0.12169709 8:0.26199573 9:-0.82754036 10:0.17056555 
1 1:-0.6845553 2:0.9226866 3:0.124951 4:0.9779051 5:0.6337408 6:1.1679217 7:-0.1779624 8:-0.1437443 9:0.8070118 10:0.5675035 
1 1:-1.4692783 2:-0.30557764 3:0.56220236 4:1.3448032 5:0.80773255 6:-0.36813955 7:0.10736855 8:-0.208673 9:0.50813036 10:0.73686064 
0.04155317971892382 1:-0.31808283 2:-0.20304242 3:1.7230114 4:1.2782244 5:0.28627792 6:0.27111508 7:1.0483718 8:-0.70092158 9:-1.2470197 10:0.18530975 
1 1:-0.44414929 2:-0.33430243 3:0.26481371 4:0.43294386 5:0.057086714 6:0.85804286 7:-0.25922529 8:-0.073421857 9:0.10473686 10:0.12191914 
1 1:-0.1771113 2:-0.616921 3:0.4812292 4:0.8367799 5:-0.2686164 6:0.7241071 7:0.094226 8:-0.43561 9:-0.2384844 10:0.2886151 
1 1:-0.4091025 2:-0.1863667 3:0.2990248 4:0.5730857 5:0.0728529 6:0.5888337 7:-0.2952305 8:-0.0630301 9:0.1069345 10:-0.0629355 
1 1:-0.97246117 2:0.54781958 3:-0.59362542 4:1.7038178 5:0.76221358 6:0.91609192 7:0.55528425 8:0.39116833 9:-0.19128667 10:-0.28491667 
1 1:-0.25517745 2:0.22179309 3:-0.43791936 4:0.52200464 5:-0.053754091 6:1.6158335 7:-0.36395073 8:0.75005609 9:0.12299455 10:0.16725909 
1 1:-0.362292 2:-0.25173422 3:0.059010556 4:0.17863289 5:0.15221344 6:0.90364122 7:-0.0089097778 8:-0.30219811 9:0.28202511 10:0.30938789 
1 1:-0.47270009 2:-0.30155627 3:-0.016076 4:0.92313282 5:-0.45519945 6:0.90049982 7:-0.34338282 8:0.055342091 9:-0.46279427 10:0.15667809 
1 1:-1.7043647 2:0.34588255 3:0.620736 4:1.1047853 5:-0.20244664 6:0.62511536 7:0.324917 8:0.50762191 9:-0.81698745 10:-0.62361364 
1 1:-0.55070164 2:0.74236357 3:0.93334779 4:1.482016 5:0.76051836 6:0.80942814 7:-0.41618257 8:0.7673535 9:0.56304229 10:0.25596071 
1 1:-0.31494608 2:-0.79363975 3:0.23069775 4:0.24845183 5:-0.073359917 6:1.4758446 7:-0.435372 8:-0.050217833 9:0.18830808 10:0.4405595 
1 1:-0.316116 2:-0.003292125 3:0.026389 4:0.60763912 5:-0.37951763 6:1.079412 7:-0.14883663 8:0.069847625 9:0.082647625 10:0.045944375 
1 1:-0.810777 2:-0.12378743 3:0.45950329 4:1.5562163 5:0.60670536 6:0.38527307 7:-0.20235207 8:-0.013548643 9:-0.17519436 10:0.23242243 
1 1:-0.25434225 2:-0.076653125 3:0.238099 4:0.3682655 5:-0.11522275 6:1.1891443 7:-0.28795175 8:0.33314988 9:0.64163887 10:0.50280762 
1 1:-0.81204008 2:-0.50794567 3:0.51834842 4:0.72820075 5:0.31979342 6:0.41220383 7:0.091369667 8:-0.45540192 9:0.2606505 10:0.21588858 
1 1:-0.13967433 2:-0.11013825 3:0.098403417 4:1.3606757 5:-0.13965333 6:0.86023008 7:0.0865575 8:0.2488895 9:-0.59320475 10:0.595401 
0.09967390013005355 1:0.37754838 2:0.51432508 3:1.8187185 4:1.7561758 5:0.55417269 6:1.2141692 7:-0.56172092 8:0.97444623 9:-0.49486162 10:0.13240554 
1 1:-0.58937062 2:-0.2458705 3:0.2920465 4:0.58175637 5:0.30619387 6:0.95902637 7:-0.50042787 8:-0.0618505 9:0.548529 10:0.16072525 
1 1:0.19239569 2:1.4873907 3:1.0626186 4:1.9871248 5:1.1343005 6:1.0169037 7:0.0031477692 8:-0.49097992 9:0.853747 10:0.87359131 
1 1:-0.62992327 2:-0.31059509 3:0.44589909 4:1.0964421 5:0.21593955 6:0.60995209 7:-0.15313609 8:0.020780636 9:-0.746212 10:-0.0010509091 
1 1:-1.8131762 2:0.23759743 3:0.52097929 4:0.33915929 5:-0.093585786 6:0.84351243 7:0.10586764 8:0.58969607 9:-0.55556314 10:-0.1712955 
1 1:-0.6877836 2:-0.0521317 3:-0.1345142 4:-0.0143991 5:-0.4946657 6:1.211336 7:-0.1915435 8:0.2792278 9:0.1836397 10:0.5032258 
1 1:-0.52523267 2:-0.2500925 3:0.32166217 4:0.50464567 5:0.0674535 6:0.73526317 7:-0.30181783 8:-0.11632483 9:0.072894333 10:0.012394667 
1 1:-1.0041576 2:-0.92031657 3:0.90523686 4:0.64441614 5:0.12711886 6:0.46033557 7:-0.25087986 8:-0.018584714 9:-0.035516429 10:-0.085827714 
1 1:-1.7043647 2:0.34588255 3:0.620736 4:1.1047853 5:-0.20244664 6:0.62511536 7:0.324917 8:0.50762191 9:-0.81698745 10:-0.62361364 
1 1:-0.665441 2:-0.2062258 3:0.2719956 4:0.0493472 5:-0.0131674 6:1.2255148 7:-0.3013982 8:-0.228744 9:-0.0696378 10:-0.2388852 
1 1:-0.80868144 2:-0.31142389 3:0.37173544 4:0.77175356 5:-0.17666978 6:0.85714644 7:-0.43672156 8:-0.10419756 9:0.041623778 10:0.13429156 
1 1:-0.94495636 2:0.418564 3:0.076581429 4:1.3883115 5:0.86700629 6:0.53985607 7:-0.7932555 8:0.43887936 9:0.091338429 10:0.81435636 
1 1:-0.6133092 2:0.4759634 3:0.5814523 4:1.0842353 5:1.0698526 6:0.826115 7:-0.3806102 8:-0.1752138 9:0.7795388 10:0.1290122 
1 1:-0.32707014 2:-0.24256629 3:0.0085621429 4:0.27843743 5:-0.47083329 6:1.357969 7:-0.10508386 8:-0.046899857 9:0.14416329 10:0.36177271 
1 1:-0.7174194 2:-0.2165908 3:-0.20629 4:0.3387144 5:0.1820659 6:0.9614678 7:-0.1458994 8:0.3542811 9:-0.0078468 10:0.0786204 
1 1:-0.7821348 2:-1.1718962 3:-0.4774294 4:0.3390955 5:0.3683939 6:0.7514084 7:0.4728624 8:-0.5831855 9:0.812581 10:0.6947398 
1 1:-0.645602 2:-0.46987233 3:0.130664 4:0.596048 5:0.10269 6:0.95359733 7:-0.52290067 8:-0.44821133 9:0.110163 10:-0.047163333 
1 1:-1.3683802 2:-0.3198282 3:0.4412694 4:1.4275209 5:0.8903554 6:-0.3411292 7:0.1622078 8:-0.2148944 9:0.4108203 10:0.836141 
1 1:-0.22902645 2:-0.21492291 3:-0.165243 4:1.6022776 5:1.30878 6:0.82164827 7:-0.88466382 8:0.42832909 9:0.78699836 10:0.71762691 
1 1:-1.0213357 2:-0.999235 3:-0.20987289 4:0.350303 5:0.50273067 6:0.48120933 7:-0.15210633 8:-0.16187244 9:0.64776644 10:1.3464263 
1 1:-1.1856544 2:-0.018784333 3:0.73754625 4:0.61973917 5:0.5105645 6:0.56515675 7:-0.012726 8:0.30313925 9:-0.22971442 10:-0.54732167 
1 1:-0.74878525 2:0.14192388 3:-0.24958425 4:0.13892062 5:1.0930758 6:0.53043113 7:0.23350413 8:1.0458934 9:0.14164887 10:0.44570687 
1 1:-0.799006 2:-0.061706462 3:0.75078077 4:1.1350808 5:0.37835969 6:0.58622477 7:-0.048563154 8:0.44487677 9:-0.35332931 10:-0.37225077 
1 1:-1.5994639 2:-0.19047538 3:0.98776215 4:0.74577 5:0.616264 6:0.14708069 7:0.23266385 8:0.31574446 9:0.22015169 10:0.0091422308 
1 1:-1.0471695 2:0.015446583 3:1.2896996 4:1.4163975 5:0.8383545 6:0.5252645 7:0.28824958 8:0.055174167 9:-0.54036575 10:-1.0284179 
1 1:-0.91081015 2:0.422746 3:0.73687923 4:1.5983621 5:0.69490746 6:0.55292038 7:-0.014848692 8:-0.13817092 9:-0.59289962 10:-0.26365946 
1 1:-1.3683802 2:-0.3198282 3:0.4412694 4:1.4275209 5:0.8903554 6:-0.3411292 7:0.1622078 8:-0.2148944 9:0.4108203 10:0.836141 
1 1:-0.799006 2:-0.061706462 3:0.75078077 4:1.1350808 5:0.37835969 6:0.58622477 7:-0.048563154 8:0.44487677 9:-0.35332931 10:-0.37225077 
0.2074194786662395 1:-1.3683802 2:-0.3198282 3:0.4412694 4:1.4275209 5:0.8903554 6:-0.3411292 7:0.1622078 8:-0.2148944 9:0.4108203 10:0.836141 
1 1:-1.3657706 2:0.56805633 3:0.61357333 4:1.2858763 5:0.76832283 6:1.117637 7:0.47510208 8:-0.4186955 9:-0.59530983 10:-1.3735453 
1 1:-0.67537758 2:0.4937115 3:0.14068858 4:1.8837128 5:0.59779075 6:0.66106608 7:-0.23753417 8:0.70989408 9:-0.13229125 10:-0.14477533 
1 1:-1.7043647 2:0.34588255 3:0.620736 4:1.1047853 5:-0.20244664 6:0.62511536 7:0.324917 8:0.50762191 9:-0.81698745 10:-0.62361364 
1 1:-0.55070164 2:0.74236357 3:0.93334779 4:1.482016 5:0.76051836 6:0.80942814 7:-0.41618257 8:0.7673535 9:0.56304229 10:0.25596071 
1 1:-0.51944767 2:-0.186333 3:0.10701633 4:0.69058317 5:0.073691 6:0.571924 7:-0.34620317 8:-0.26842433 9:0.278648 10:0.26683967 
1 1:-0.37073114 2:-0.072054286 3:0.35655357 4:0.43728386 5:-0.092211429 6:1.2187707 7:-0.34207529 8:0.31489914 9:0.65305843 10:0.47356943 
1 1:-1.7474782 2:0.15891875 3:1.44746 4:1.0833947 5:0.48583067 6:0.31864733 7:0.39940575 8:0.20657492 9:-0.22018142 10:-0.77651483 
1 1:-0.94495636 2:0.418564 3:0.076581429 4:1.3883115 5:0.86700629 6:0.53985607 7:-0.7932555 8:0.43887936 9:0.091338429 10:0.81435636 
1 1:-0.74878525 2:0.14192388 3:-0.24958425 4:0.13892062 5:1.0930758 6:0.53043113 7:0.23350413 8:1.0458934 9:0.14164887 10:0.44570687 
1 1:-1.7043647 2:0.34588255 3:0.620736 4:1.1047853 5:-0.20244664 6:0.62511536 7:0.324917 8:0.50762191 9:-0.81698745 10:-0.62361364 
1 1:0.37754838 2:0.51432508 3:1.8187185 4:1.7561758 5:0.55417269 6:1.2141692 7:-0.56172092 8:0.97444623 9:-0.49486162 10:0.13240554 
1 1:-0.36897622 2:-0.118248 3:-0.025896889 4:0.060020333 5:0.12881744 6:1.1825868 7:0.052877667 8:0.24770656 9:0.27008989 10:0.23327656 
1 1:-0.90799633 2:-0.64046567 3:0.39460767 4:-0.004395 5:-0.062705889 6:1.0217682 7:0.20953867 8:0.16703856 9:-0.341184 10:-0.18820311 
1 1:-0.98928546 2:0.51765585 3:0.65324877 4:1.6830575 5:0.80293954 6:0.70171946 7:0.23795508 8:-0.22710869 9:-0.94595754 10:-0.59331815 
1 1:-0.53471536 2:-0.72602591 3:0.16519855 4:0.71828364 5:-0.64225609 6:1.3838398 7:-0.33043109 8:-0.37516227 9:-0.33835991 10:0.40910582 
1 1:-0.97246117 2:0.54781958 3:-0.59362542 4:1.7038178 5:0.76221358 6:0.91609192 7:0.55528425 8:0.39116833 9:-0.19128667 10:-0.28491667 
1 1:-0.48313322 2:-0.91371878 3:0.063203667 4:0.73483011 5:-0.56582611 6:1.2233363 7:-0.20765111 8:0.11754733 9:-0.81151944 10:0.743502 
1 1:-0.79479825 2:0.43422567 3:-0.52103958 4:0.53154658 5:0.061583917 6:0.64189183 7:-0.012392333 8:0.25366675 9:0.0033675833 10:0.72569958 
1 1:-2.1645106 2:-0.0467405 3:0.29261233 4:0.92351675 5:-0.77212683 6:0.57525358 7:0.13487592 8:1.0658414 9:-0.79688592 10:0.17338925 
1 1:-1.1856544 2:-0.018784333 3:0.73754625 4:0.61973917 5:0.5105645 6:0.56515675 7:-0.012726 8:0.30313925 9:-0.22971442 10:-0.54732167 
1 1:-0.33442967 2:-0.2642625 3:0.1031 4:0.29688 5:0.071700833 6:0.61580233 7:-0.20221167 8:-0.23954317 9:0.078851167 10:0.062611 
1 1:-1.4692783 2:-0.30557764 3:0.56220236 4:1.3448032 5:0.80773255 6:-0.36813955 7:0.10736855 8:-0.208673 9:0.50813036 10:0.73686064 
1 1:-0.82622429 2:0.63140071 3:-0.66990979 4:2.0624519 5:1.0054679 6:0.80871329 7:-0.85088886 8:0.94062993 9:0.58893814 10:1.4203037 
1 1:-0.645602 2:-0.46987233 3:0.130664 4:0.596048 5:0.10269 6:0.95359733 7:-0.52290067 8:-0.44821133 9:0.110163 10:-0.047163333 
1 1:-0.206196 2:-0.41072625 3:0.1496865 4:0.56875087 5:-1.0515159 6:1.9724181 7:-0.65891925 8:-0.2343005 9:-0.002619375 10:0.73100562 
1 1:-0.54072782 2:-0.85105827 3:0.12844591 4:0.56930073 5:-0.41563536 6:0.904566 7:0.18136609 8:0.290517 9:-0.83687609 10:0.27320736 
1 1:-1.3308189 2:0.61318293 3:0.60627057 4:1.5173677 5:1.0290651 6:1.0783365 7:0.095359286 8:-0.24922293 9:-1.0602365 10:-1.1057693 
1 1:-0.8749752 2:1.0804204 3:0.6800984 4:1.0402812 5:0.9670746 6:0.7857264 7:0.1088352 8:0.1475779 9:0.7062936 10:-0.2647412 
1 1:-1.4692783 2:-0.30557764 3:0.56220236 4:1.3448032 5:0.80773255 6:-0.36813955 7:0.10736855 8:-0.208673 9:0.50813036 10:0.73686064 
1 1:-0.4822462 2:-0.2237188 3:0.0572062 4:0.4240912 5:-0.0435284 6:0.8330656 7:-0.4231048 8:-0.3129898 9:0.1052184 10:0.1032606 
1 1:-0.645602 2:-0.46987233 3:0.130664 4:0.596048 5:0.10269 6:0.95359733 7:-0.52290067 8:-0.44821133 9:0.110163 10:-0.047163333 
1 1:-0.097659571 2:-0.32909386 3:0.56177471 4:0.66196243 5:0.078950857 6:0.62756929 7:-0.17326543 8:0.094867286 9:-0.064154143 10:0.65123571 
1 1:-0.9366142 2:-0.1070438 3:0.9992383 4:0.7375989 5:0.2410256 6:0.5050136 7:-0.0258412 8:0.2352941 9:-0.7713241 10:-0.2084435 
1 1:-0.7821348 2:-1.1718962 3:-0.4774294 4:0.3390955 5:0.3683939 6:0.7514084 7:0.4728624 8:-0.5831855 9:0.812581 10:0.6947398 
1 1:-1.3202598 2:0.50500491 3:0.75315982 4:1.2240955 5:0.84564464 6:1.0709187 7:0.32348355 8:-0.466795 9:-0.71447455 10:-1.3266323 
1 1:-1.0407678 2:0.13079373 3:1.2444535 4:1.2091758 5:0.74027991 6:0.29273782 7:0.49841473 8:0.073486091 9:-1.3445081 10:-0.54821009 
1 1:-0.22902645 2:-0.21492291 3:-0.165243 4:1.6022776 5:1.30878 6:0.82164827 7:-0.88466382 8:0.42832909 9:0.78699836 10:0.71762691 
0.1143997794765686 1:-0.31102487 2:-0.81646137 3:0.195774 4:0.167795 5:-0.20106638 6:1.1653571 7:-0.19015 8:0.17512737 9:-0.37464438 10:0.36250862 
1 1:-0.42435225 2:-0.23431812 3:0.17034 4:0.55116188 5:0.020720875 6:0.689892 7:-0.27845175 8:-0.094206 9:-0.033356875 10:-0.00119875 
1 1:-0.78372445 2:0.426089 3:0.46766273 4:1.5559239 5:0.68867173 6:0.40537855 7:-0.23067436 8:0.13965773 9:0.014388455 10:0.0084308182 
1 1:-0.78372445 2:0.426089 3:0.46766273 4:1.5559239 5:0.68867173 6:0.40537855 7:-0.23067436 8:0.13965773 9:0.014388455 10:0.0084308182 
1 1:-0.4039038 2:-0.6835056 3:0.5701725 4:0.1751504 5:0.0239174 6:0.8213746 7:-0.0663919 8:-0.1038116 9:0.2411339 10:0.3392483 
1 1:-0.3935875 2:-0.238356 3:0.02004975 4:0.46664575 5:-0.1996125 6:1.341359 7:-0.49974925 8:-0.06979125 9:0.359468 10:0.23124625 
1 1:-0.99854454 2:0.95695262 3:0.65787785 4:1.6046062 5:0.42165123 6:0.72385862 7:-0.015672538 8:0.49888192 9:-0.46741177 10:-0.35550923 
1 1:-1.0047819 2:-0.29020617 3:-0.348472 4:0.26608608 5:-0.078025 6:0.92851 7:0.099371 8:-0.09959325 9:0.16840133 10:0.57308975 
1 1:-0.32102446 2:-0.64203954 3:0.35456769 4:0.58616431 5:-0.14354777 6:0.69704708 7:0.51510723 8:0.11346215 9:-0.91570046 10:0.278415 
1 1:-1.0471695 2:0.015446583 3:1.2896996 4:1.4163975 5:0.8383545 6:0.5252645 7:0.28824958 8:0.055174167 9:-0.54036575 10:-1.0284179 
1 1:-0.91081015 2:0.422746 3:0.73687923 4:1.5983621 5:0.69490746 6:0.55292038 7:-0.014848692 8:-0.13817092 9:-0.59289962 10:-0.26365946 
1 1:-1.3657706 2:0.56805633 3:0.61357333 4:1.2858763 5:0.76832283 6:1.117637 7:0.47510208 8:-0.4186955 9:-0.59530983 10:-1.3735453 
1 1:-0.78372445 2:0.426089 3:0.46766273 4:1.5559239 5:0.68867173 6:0.40537855 7:-0.23067436 8:0.13965773 9:0.014388455 10:0.0084308182 
1 1:-0.78372445 2:0.426089 3:0.46766273 4:1.5559239 5:0.68867173 6:0.40537855 7:-0.23067436 8:0.13965773 9:0.014388455 10:0.0084308182 
1 1:-0.6845553 2:0.9226866 3:0.124951 4:0.9779051 5:0.6337408 6:1.1679217 7:-0.1779624 8:-0.1437443 9:0.8070118 10:0.5675035 
1 1:-0.94495636 2:0.418564 3:0.076581429 4:1.3883115 5:0.86700629 6:0.53985607 7:-0.7932555 8:0.43887936 9:0.091338429 10:0.81435636 
1 1:-1.0217497 2:-0.04264375 3:0.50869425 4:1.499615 5:0.4244955 6:0.00886175 7:-0.28421258 8:-0.13989517 9:-0.124785 10:0.62769358 
1 1:-0.6489363 2:-0.3809238 3:0.6561977 4:0.7870294 5:0.2809963 6:0.6408692 7:0.001237 8:0.2010863 9:-0.2301171 10:-0.4697074 
1 1:-1.3308189 2:0.61318293 3:0.60627057 4:1.5173677 5:1.0290651 6:1.0783365 7:0.095359286 8:-0.24922293 9:-1.0602365 10:-1.1057693 
1 1:-0.93720427 2:0.30336418 3:0.66464536 4:1.3020307 5:-0.12330127 6:0.42398136 7:0.12169709 8:0.26199573 9:-0.82754036 10:0.17056555 
1 1:-0.2537047 2:0.0162008 3:0.2571983 4:0.4813549 5:-0.0483264 6:0.9249001 7:-0.3690806 8:0.0716019 9:0.2386296 10:0.2568065 
1 1:-0.66646879 2:1.245716 3:0.69861657 4:1.8475491 5:0.671474 6:0.55025036 7:-0.16834814 8:0.81821243 9:0.23825693 10:0.27995414 
1 1:-0.27314583 2:0.051999333 3:0.15895883 4:0.3430635 5:0.20932183 6:0.21615333 7:-0.260458 8:0.184521 9:-0.15944683 10:-0.028326333 
1 1:-0.64000767 2:-0.99423117 3:0.14178742 4:0.8751375 5:-0.018919333 6:0.66467475 7:0.37844642 8:-0.40893408 9:-0.87080242 10:-0.036201333 
1 1:-0.82492978 2:-0.41302689 3:-0.53264033 4:0.44647467 5:-0.039400444 6:1.4228976 7:-0.25840511 8:-0.074824444 9:0.44914967 10:0.347691 
1 1:-0.4822462 2:-0.2237188 3:0.0572062 4:0.4240912 5:-0.0435284 6:0.8330656 7:-0.4231048 8:-0.3129898 9:0.1052184 10:0.1032606 
1 1:-0.4312343 2:0.3503766 3:-0.2853575 4:0.5583505 5:-0.5416726 6:1.4894102 7:0.2696866 8:0.2126609 9:0.5297549 10:0.1811578 
1 1:-0.9366142 2:-0.1070438 3:0.9992383 4:0.7375989 5:0.2410256 6:0.5050136 7:-0.0258412 8:0.2352941 9:-0.7713241 10:-0.2084435 
1 1:-0.86820955 2:1.1057423 3:-0.039093364 4:0.97504118 5:0.14027691 6:1.3502576 7:-0.36264318 8:1.0402857 9:0.70901391 10:0.27281936 
1 1:-1.0047819 2:-0.29020617 3:-0.348472 4:0.26608608 5:-0.078025 6:0.92851 7:0.099371 8:-0.09959325 9:0.16840133 10:0.57308975 
1 1:-0.99854454 2:0.95695262 3:0.65787785 4:1.6046062 5:0.42165123 6:0.72385862 7:-0.015672538 8:0.49888192 9:-0.46741177 10:-0.35550923 
1 1:-0.74878525 2:0.14192388 3:-0.24958425 4:0.13892062 5:1.0930758 6:0.53043113 7:0.23350413 8:1.0458934 9:0.14164887 10:0.44570687 
1 1:-0.39038808 2:-0.45844215 3:0.19379762 4:0.61592031 5:-0.16802215 6:0.90126869 7:-0.015394923 8:-0.041846923 9:-0.34365746 10:0.16376038 
1 1:-0.43336137 2:-1.2583844 3:0.0333475 4:-0.05588625 5:-0.12563688 6:1.073069 7:0.29083275 8:-0.4389855 9:0.17709975 10:0.44529637 
1 1:-0.48313322 2:-0.91371878 3:0.063203667 4:0.73483011 5:-0.56582611 6:1.2233363 7:-0.20765111 8:0.11754733 9:-0.81151944 10:0.743502 
1 1:-0.21203507 2:0.24022007 3:1.6556595 4:1.0465811 5:0.7010195 6:1.0086554 7:-0.59571093 8:0.46149857 9:-0.28567493 10:-0.2610495 
1 1:-0.6421218 2:-0.6440355 3:0.831352 4:0.7142571 5:0.1905827 6:0.6413607 7:-0.111987 8:0.1953232 9:-0.1732845 10:-0.1880596 
1 1:-1.7043647 2:0.34588255 3:0.620736 4:1.1047853 5:-0.20244664 6:0.62511536 7:0.324917 8:0.50762191 9:-0.81698745 10:-0.62361364 
1 1:0.046549143 2:0.21559771 3:0.764387 4:1.0137414 5:0.39298043 6:0.87908471 7:-0.21627457 8:-0.028620714 9:0.77325786 10:0.56053243 
1 1:-0.78372445 2:0.426089 3:0.46766273 4:1.5559239 5:0.68867173 6:0.40537855 7:-0.23067436 8:0.13965773 9:0.014388455 10:0.0084308182 
1 1:-1.1856544 2:-0.018784333 3:0.73754625 4:0.61973917 5:0.5105645 6:0.56515675 7:-0.012726 8:0.30313925 9:-0.22971442 10:-0.54732167 
1 1:-0.97246117 2:0.54781958 3:-0.59362542 4:1.7038178 5:0.76221358 6:0.91609192 7:0.55528425 8:0.39116833 9:-0.19128667 10:-0.28491667 
1 1:-0.7768213 2:-0.6531683 3:0.0031993 4:0.5162492 5:0.9480876 6:1.2070509 7:-0.0770585 8:0.5311744 9:-0.5969499 10:-0.4213632 
1 1:-0.2575824 2:0.1951049 3:-0.3208814 4:0.7205312 5:0.0117593 6:0.6321878 7:0.2310886 8:0.4379511 9:-0.1119484 10:0.4353049 
1 1:-0.8680906 2:-0.8260299 3:1.2163317 4:0.9186747 5:0.9803611 6:0.2412268 7:0.836808 8:0.4987559 9:0.1175601 10:-0.7113139 
1 1:-1.4692783 2:-0.30557764 3:0.56220236 4:1.3448032 5:0.80773255 6:-0.36813955 7:0.10736855 8:-0.208673 9:0.50813036 10:0.73686064 
1 1:-0.43805355 2:-0.48175336 3:0.11771736 4:-0.062171818 5:0.020724364 6:0.59772282 7:0.22582318 8:-0.080687727 9:0.31862427 10:0.47309127 
1 1:-0.28736836 2:0.40769473 3:0.20661555 4:1.0729314 5:0.38096445 6:0.93383109 7:-0.26765645 8:-0.063916091 9:0.007956 10:0.47153418 
1 1:-0.42943736 2:-0.55992882 3:0.64354273 4:0.68801027 5:0.480205 6:0.94380636 7:-0.27189473 8:-0.049804455 9:-0.033864455 10:-0.18641164 
1 1:-0.81204008 2:-0.50794567 3:0.51834842 4:0.72820075 5:0.31979342 6:0.41220383 7:0.091369667 8:-0.45540192 9:0.2606505 10:0.21588858 
1 1:-1.4692783 2:-0.30557764 3:0.56220236 4:1.3448032 5:0.80773255 6:-0.36813955 7:0.10736855 8:-0.208673 9:0.50813036 10:0.73686064 
1 1:0.077794 2:0.28676873 3:1.0841239 4:1.3603603 5:0.3886976 6:0.88216273 7:-0.595971 8:0.3347894 9:-0.12256127 10:0.4642842 
1 1:-1.4659287 2:0.96869842 3:0.77159017 4:1.3109992 5:0.22001783 6:0.5345395 7:0.49338758 8:0.64436042 9:-0.89350283 10:-0.576469 
1 1:-1.0471695 2:0.015446583 3:1.2896996 4:1.4163975 5:0.8383545 6:0.5252645 7:0.28824958 8:0.055174167 9:-0.54036575 10:-1.0284179 
1 1:-0.91081015 2:0.422746 3:0.73687923 4:1.5983621 5:0.69490746 6:0.55292038 7:-0.014848692 8:-0.13817092 9:-0.59289962 10:-0.26365946 
1 1:-0.78372445 2:0.426089 3:0.46766273 4:1.5559239 5:0.68867173 6:0.40537855 7:-0.23067436 8:0.13965773 9:0.014388455 10:0.0084308182 
1 1:-0.94495636 2:0.418564 3:0.076581429 4:1.3883115 5:0.86700629 6:0.53985607 7:-0.7932555 8:0.43887936 9:0.091338429 10:0.81435636 
1 1:-0.82492978 2:-0.41302689 3:-0.53264033 4:0.44647467 5:-0.039400444 6:1.4228976 7:-0.25840511 8:-0.074824444 9:0.44914967 10:0.347691 
1 1:-0.99854454 2:0.95695262 3:0.65787785 4:1.6046062 5:0.42165123 6:0.72385862 7:-0.015672538 8:0.49888192 9:-0.46741177 10:-0.35550923 
0.9323391967696258 1:-0.70276245 2:0.21982409 3:0.58203173 4:1.381482 5:0.57370345 6:0.60076827 7:-0.50942418 8:0.25508464 9:0.11962027 10:-0.0085911818 
1 1:-0.66646879 2:1.245716 3:0.69861657 4:1.8475491 5:0.671474 6:0.55025036 7:-0.16834814 8:0.81821243 9:0.23825693 10:0.27995414 
1 1:-0.93720427 2:0.30336418 3:0.66464536 4:1.3020307 5:-0.12330127 6:0.42398136 7:0.12169709 8:0.26199573 9:-0.82754036 10:0.17056555 
0.9240501389750967 1:-0.82622429 2:0.63140071 3:-0.66990979 4:2.0624519 5:1.0054679 6:0.80871329 7:-0.85088886 8:0.94062993 9:0.58893814 10:1.4203037 
1 1:-1.0213357 2:-0.999235 3:-0.20987289 4:0.350303 5:0.50273067 6:0.48120933 7:-0.15210633 8:-0.16187244 9:0.64776644 10:1.3464263 
1 1:-0.51705622 2:-0.73073733 3:-0.66429678 4:0.46050556 5:1.1309369 6:1.4683442 7:-0.59703156 8:0.10015022 9:-0.18737356 10:-0.15709922 
1 1:-0.52045658 2:-0.78795525 3:0.91444375 4:1.4801788 5:0.23282692 6:0.538656 7:0.92787867 8:-0.486137 9:-1.5453964 10:-0.39039942 
1 1:-1.1856544 2:-0.018784333 3:0.73754625 4:0.61973917 5:0.5105645 6:0.56515675 7:-0.012726 8:0.30313925 9:-0.22971442 10:-0.54732167 
1 1:-0.52191483 2:0.05945025 3:0.9273745 4:1.4187174 5:0.96259258 6:0.40435433 7:-0.23710883 8:-0.11241458 9:0.036381667 10:0.13344708 
1 1:-0.99854454 2:0.95695262 3:0.65787785 4:1.6046062 5:0.42165123 6:0.72385862 7:-0.015672538 8:0.49888192 9:-0.46741177 10:-0.35550923 
1 1:-0.90799633 2:-0.64046567 3:0.39460767 4:-0.004395 5:-0.062705889 6:1.0217682 7:0.20953867 8:0.16703856 9:-0.341184 10:-0.18820311 
1 1:-1.2388727 2:0.1382525 3:0.50656025 4:1.0357017 5:0.05540575 6:0.62359942 7:0.21355267 8:0.25651808 9:-0.55813467 10:-0.3932825 
1 1:-0.97146115 2:1.0469649 3:0.62393354 4:1.2980352 5:0.090974769 6:0.58554177 7:0.24594231 8:0.550992 9:-1.0735041 10:0.26154915 
1 1:-0.52191483 2:0.05945025 3:0.9273745 4:1.4187174 5:0.96259258 6:0.40435433 7:-0.23710883 8:-0.11241458 9:0.036381667 10:0.13344708 
0.4039336468642861 1:-0.546115 2:-0.54049618 3:0.15884009 4:0.60777491 5:-0.25670082 6:0.55911627 7:0.015458 8:0.094497364 9:-0.55436445 10:0.076888818 
1 1:-1.160149 2:-0.73908856 3:-0.59005067 4:0.38394933 5:0.131642 6:0.32307511 7:0.41726456 8:-0.057236222 9:0.92672256 10:1.7363551 
1 1:-1.1483253 2:-0.24382067 3:0.57904167 4:0.630585 5:0.28529733 6:0.66768667 7:-0.51780033 8:-0.152979 9:0.453411 10:-0.15964533 
1 1:-0.64442443 2:0.040936 3:0.47278343 4:0.78887271 5:0.389267 6:0.73169686 7:-0.54150714 8:0.116881 9:0.26671114 10:-0.007197 
1 1:-0.39038808 2:-0.45844215 3:0.19379762 4:0.61592031 5:-0.16802215 6:0.90126869 7:-0.015394923 8:-0.041846923 9:-0.34365746 10:0.16376038 
1 1:-0.40370669 2:-0.011136385 3:0.57621692 4:-0.22146854 5:-0.090012385 6:1.2798275 7:0.13090223 8:0.32580592 9:0.21544 10:-0.11194762 
1 1:-0.73510685 2:-0.56132162 3:0.50882131 4:1.9081845 5:-0.025591846 6:0.46514708 7:-0.21265846 8:0.74051708 9:-1.0599041 10:-0.048459385 
1 1:-0.38569836 2:-0.46882 3:0.21430536 4:0.69444482 5:-0.22875391 6:0.76208464 7:0.23650964 8:-0.104559 9:-0.58351264 10:0.095667909 
1 1:-0.51948033 2:0.19347767 3:0.016130083 4:0.59437175 5:-0.37171867 6:1.0593972 7:-0.073985583 8:-0.0033465 9:-0.25406042 10:0.29908108 
1 1:-1.4692783 2:-0.30557764 3:0.56220236 4:1.3448032 5:0.80773255 6:-0.36813955 7:0.10736855 8:-0.208673 9:0.50813036 10:0.73686064 
1 1:-0.9366142 2:-0.1070438 3:0.9992383 4:0.7375989 5:0.2410256 6:0.5050136 7:-0.0258412 8:0.2352941 9:-0.7713241 10:-0.2084435 
1 1:-0.5415325 2:-0.55602137 3:0.192127 4:0.34252688 5:0.17301863 6:0.984635 7:-0.51373137 8:-0.199267 9:0.088713875 10:0.586292 
1 1:-0.32102446 2:-0.64203954 3:0.35456769 4:0.58616431 5:-0.14354777 6:0.69704708 7:0.51510723 8:0.11346215 9:-0.91570046 10:0.278415 
1 1:-1.3044816 2:0.4697 3:1.2172746 4:1.531157 5:0.5011865 6:0.52143992 7:0.59159425 8:0.40843575 9:-1.9175613 10:-0.86215458 
1 1:-0.39392813 2:-0.08350475 3:0.15209325 4:0.536584 5:0.2628155 6:0.95339962 7:-0.417612 8:-0.037582625 9:0.53074962 10:0.162076 
1 1:-0.84662193 2:-0.020262 3:0.64493393 4:1.2854511 5:0.13586514 6:0.57134021 7:0.085626571 8:0.42943807 9:-0.45854221 10:-0.21863743 
1 1:-0.56920845 2:0.16406764 3:-0.051804636 4:0.97731809 5:-0.062101364 6:0.68157927 7:0.15116936 8:0.17823236 9:0.24540973 10:0.15573873 
1 1:-0.45525209 2:-0.566638 3:0.11023636 4:0.38584482 5:-0.18980909 6:1.2830601 7:0.22278118 8:-0.080467727 9:-0.12828209 10:0.53962891 
1 1:-0.57383538 2:-0.348005 3:-0.53775737 4:0.28152063 5:-0.19351113 6:1.3409825 7:0.02019975 8:-0.24211912 9:0.48880575 10:0.59782225 
1 1:-0.37282 2:-0.47384343 3:-0.12059243 4:0.255972 5:-0.17566043 6:1.3898139 7:-0.43743171 8:-0.11521471 9:0.443774 10:0.33697143 
1 1:-1.1503817 2:0.014398083 3:0.9987155 4:1.4974699 5:0.561096 6:-0.11209642 7:-0.3933185 8:-0.046812167 9:0.132863 10:0.47662125 
1 1:-2.1645106 2:-0.0467405 3:0.29261233 4:0.92351675 5:-0.77212683 6:0.57525358 7:0.13487592 8:1.0658414 9:-0.79688592 10:0.17338925 
1 1:-0.28595012 2:-0.48237187 3:0.53155562 4:0.3534535 5:0.064127625 6:0.98131112 7:-0.27708188 8:0.11818925 9:0.43922712 10:0.54267913 
1 1:-0.52191483 2:0.05945025 3:0.9273745 4:1.4187174 5:0.96259258 6:0.40435433 7:-0.23710883 8:-0.11241458 9:0.036381667 10:0.13344708 
1 1:-0.54509518 2:-0.53794327 3:0.32982718 4:0.10177582 5:0.18765 6:0.85962155 7:-0.24225664 8:-0.24828264 9:0.063463818 10:0.023576636 
1 1:-0.510212 2:-0.1826622 3:0.2802054 4:0.620863 5:0.1226318 6:0.735665 7:-0.2597806 8:-0.0654398 9:-0.0349124 10:-0.0659558 
1 1:-0.3551445 2:-0.66596062 3:-0.0176495 4:0.21943262 5:-0.09489925 6:0.86984813 7:0.21057012 8:-0.21986575 9:-0.17208825 10:0.007447375 
1 1:-0.54798843 2:-0.41729929 3:0.21725843 4:-0.097429429 5:0.12575343 6:1.1801877 7:-0.23380214 8:-0.22964614 9:0.095237286 10:0.18006971 
1 1:-0.60219014 2:-0.75903871 3:0.50416971 4:0.33292629 5:-0.12511271 6:0.78600829 7:-0.010062714 8:0.29268186 9:-0.049038714 10:0.15701086 
1 1:-1.3044816 2:0.4697 3:1.2172746 4:1.531157 5:0.5011865 6:0.52143992 7:0.59159425 8:0.40843575 9:-1.9175613 10:-0.86215458 
1 1:-0.5767596 2:-0.5653414 3:0.2299022 4:0.605063 5:-0.09778 6:1.12173 7:-0.5239376 8:-0.3264142 9:-0.193498 10:0.3177446 
1 1:-0.89027533 2:0.64400408 3:-0.33652625 4:1.5293154 5:0.20388858 6:0.79855983 7:0.33568275 8:0.22637692 9:-0.15987133 10:0.17521342 
1 1:-0.4368466 2:-0.3511092 3:0.0367896 4:0.3794002 5:0.0123268 6:0.776242 7:-0.2640146 8:-0.3302022 9:0.1428564 10:0.0510562 
1 1:-0.79637373 2:-0.26747082 3:0.169551 4:0.60532545 5:-0.33009245 6:0.784493 7:-0.081324273 8:0.81249427 9:0.024073727 10:0.099735818 
1 1:-0.47000978 2:-0.28312189 3:0.42923078 4:0.314142 5:0.14865244 6:0.97300978 7:-0.21890811 8:0.086839444 9:0.37081511 10:0.39055033 
1 1:-0.97146115 2:1.0469649 3:0.62393354 4:1.2980352 5:0.090974769 6:0.58554177 7:0.24594231 8:0.550992 9:-1.0735041 10:0.26154915 
1 1:-0.94053211 2:-0.15649333 3:-0.54174211 4:0.49736756 5:0.27485511 6:0.54850289 7:0.32740722 8:-0.19754889 9:0.37775756 10:1.2252138 
1 1:-0.5710242 2:0.0387192 3:-0.2633332 4:0.5228111 5:0.2199045 6:1.2173012 7:-0.0943166 8:-0.1674279 9:0.5209855 10:0.150448 
1 1:-1.0471695 2:0.015446583 3:1.2896996 4:1.4163975 5:0.8383545 6:0.5252645 7:0.28824958 8:0.055174167 9:-0.54036575 10:-1.0284179 
1 1:-0.91081015 2:0.422746 3:0.73687923 4:1.5983621 5:0.69490746 6:0.55292038 7:-0.014848692 8:-0.13817092 9:-0.59289962 10:-0.26365946 
1 1:-0.78372445 2:0.426089 3:0.46766273 4:1.5559239 5:0.68867173 6:0.40537855 7:-0.23067436 8:0.13965773 9:0.014388455 10:0.0084308182 
1 1:-0.99854454 2:0.95695262 3:0.65787785 4:1.6046062 5:0.42165123 6:0.72385862 7:-0.015672538 8:0.49888192 9:-0.46741177 10:-0.35550923 
1 1:-0.70276245 2:0.21982409 3:0.58203173 4:1.381482 5:0.57370345 6:0.60076827 7:-0.50942418 8:0.25508464 9:0.11962027 10:-0.0085911818 
1 1:-0.97146115 2:1.0469649 3:0.62393354 4:1.2980352 5:0.090974769 6:0.58554177 7:0.24594231 8:0.550992 9:-1.0735041 10:0.26154915 
1 1:-0.52191483 2:0.05945025 3:0.9273745 4:1.4187174 5:0.96259258 6:0.40435433 7:-0.23710883 8:-0.11241458 9:0.036381667 10:0.13344708 
1 1:-0.95272827 2:-0.90993382 3:0.033448909 4:-1.0166625 5:-0.11437055 6:1.6274465 7:0.67859927 8:0.26714073 9:0.80671091 10:0.36020355 
1 1:-0.43805355 2:-0.48175336 3:0.11771736 4:-0.062171818 5:0.020724364 6:0.59772282 7:0.22582318 8:-0.080687727 9:0.31862427 10:0.47309127 
1 1:-0.82492978 2:-0.41302689 3:-0.53264033 4:0.44647467 5:-0.039400444 6:1.4228976 7:-0.25840511 8:-0.074824444 9:0.44914967 10:0.347691 
1 1:-1.4692783 2:-0.30557764 3:0.56220236 4:1.3448032 5:0.80773255 6:-0.36813955 7:0.10736855 8:-0.208673 9:0.50813036 10:0.73686064 
1 1:-1.7207243 2:1.1868037 3:1.3924905 4:0.70476825 5:0.59074075 6:0.44649242 7:0.66988133 8:0.33593408 9:-0.52604275 10:-0.38167983 
1 1:-1.0304669 2:-1.1247523 3:-0.22686692 4:0.417749 5:0.47442142 6:0.29101925 7:0.57172067 8:-0.41655217 9:0.52877633 10:0.70695458 
1 1:-0.9366142 2:-0.1070438 3:0.9992383 4:0.7375989 5:0.2410256 6:0.5050136 7:-0.0258412 8:0.2352941 9:-0.7713241 10:-0.2084435 
1 1:-0.908861 2:-0.87090542 3:0.42012367 4:0.61538567 5:0.16155142 6:0.82251817 7:-0.142699 8:-0.11313325 9:-0.24381175 10:-0.057953833 
1 1:-1.8700365 2:-0.20541969 3:-0.41482031 4:0.35172977 5:-0.29496054 6:0.50857492 7:-0.15210685 8:0.74828031 9:0.13524892 10:1.1480691 
1 1:-1.4692783 2:-0.30557764 3:0.56220236 4:1.3448032 5:0.80773255 6:-0.36813955 7:0.10736855 8:-0.208673 9:0.50813036 10:0.73686064 
1 1:-0.4436705 2:-0.32925925 3:0.28285475 4:0.32263625 5:0.11876625 6:0.9523395 7:-0.1348225 8:-0.00137925 9:0.26996175 10:0.2236205 
1 1:-0.358151 2:-0.58145833 3:0.24962267 4:0.24732933 5:0.260149 6:0.70384483 7:-0.19940733 8:-0.143151 9:0.090373833 10:0.111755 
1 1:-0.59484733 2:0.46957922 3:0.40226189 4:0.51928022 5:0.10424789 6:0.63531733 7:0.076431889 8:0.57772844 9:0.34644856 10:0.61143733 
1 1:-0.715989 2:0.041998364 3:-0.026143818 4:0.82117282 5:1.0396364 6:1.1273549 7:-0.084234909 8:-0.56551427 9:-0.893694 10:-0.11347418 
1 1:0.37754838 2:0.51432508 3:1.8187185 4:1.7561758 5:0.55417269 6:1.2141692 7:-0.56172092 8:0.97444623 9:-0.49486162 10:0.13240554 
1 1:-0.66406691 2:-0.12000618 3:-0.045019909 4:1.1924142 5:-0.41624355 6:0.64261664 7:0.057178364 8:-0.033392636 9:-0.55689909 10:0.47630545 
1 1:-0.97146115 2:1.0469649 3:0.62393354 4:1.2980352 5:0.090974769 6:0.58554177 7:0.24594231 8:0.550992 9:-1.0735041 10:0.26154915 
0.06794412365502399 1:-0.942673 2:0.41273546 3:-0.35858223 4:1.2313968 5:1.4467742 6:0.97401746 7:-1.3613061 8:1.0955295 9:0.42603123 10:1.7196132 
1 1:-0.34387271 2:-0.17307014 3:0.42506886 4:0.49134157 5:-0.16923671 6:1.2225333 7:-0.38595486 8:0.32864886 9:0.70258929 10:0.50020586 
1 1:-1.8572343 2:-1.0101354 3:-0.322664 4:-0.075595286 5:0.0012594286 6:0.267717 7:0.80333886 8:0.119653 9:0.69969357 10:1.4186324 
1 1:-0.66711609 2:-0.87631255 3:1.3921205 4:0.018735545 5:1.6684375 6:0.072790636 7:0.94904736 8:0.63760036 9:0.284098 10:-0.308919 
1 1:-0.57602336 2:-0.57584409 3:0.672355 4:0.28087109 5:-0.0049058182 6:0.75282118 7:0.48715073 8:0.74221927 9:-1.067198 10:-0.16548055 
1 1:-0.97246117 2:0.54781958 3:-0.59362542 4:1.7038178 5:0.76221358 6:0.91609192 7:0.55528425 8:0.39116833 9:-0.19128667 10:-0.28491667 
1 1:-0.75571809 2:-0.41769891 3:0.54556391 4:0.81788909 5:0.35589064 6:0.41783118 7:0.14969673 8:-0.0057609091 9:0.056634818 10:-0.12121991 
1 1:-0.75571809 2:-0.41769891 3:0.54556391 4:0.81788909 5:0.35589064 6:0.41783118 7:0.14969673 8:-0.0057609091 9:0.056634818 10:-0.12121991 
1 1:-1.0252263 2:-0.41700382 3:0.82716682 4:1.0436651 5:0.62017127 6:0.54541218 7:0.26228491 8:0.091844455 9:-0.40036845 10:-0.391752 
0.9556223474621793 1:0.37754838 2:0.51432508 3:1.8187185 4:1.7561758 5:0.55417269 6:1.2141692 7:-0.56172092 8:0.97444623 9:-0.49486162 10:0.13240554 
1 1:-0.71796408 2:0.35758646 3:1.673501 4:1.4950441 5:0.29935354 6:0.58660246 7:-0.045845692 8:-0.85406046 9:-0.66082185 10:0.048593846 
1 1:-0.75840989 2:-0.14359833 3:0.92882322 4:0.98680744 5:0.34454667 6:0.44736189 7:0.10955878 8:-0.12100278 9:-0.23017967 10:-0.52515822 
1 1:-0.99405822 2:-0.64036156 3:0.59680422 4:0.93830367 5:0.37402822 6:-0.052732111 7:0.40472633 8:0.086074667 9:-0.26143089 10:0.25702333 
1 1:-0.5161344 2:-0.1097401 3:0.2334253 4:0.1129502 5:0.256872 6:1.1502154 7:0.0186462 8:1.5026845 9:0.2457093 10:0.3616232 
1 1:-0.9366142 2:-0.1070438 3:0.9992383 4:0.7375989 5:0.2410256 6:0.5050136 7:-0.0258412 8:0.2352941 9:-0.7713241 10:-0.2084435 
1 1:-0.52527638 2:-0.65560725 3:0.152209 4:0.12243275 5:0.20407625 6:0.67778675 7:-0.08482075 8:-0.39673975 9:0.2621705 10:0.096663625 
1 1:0.40920543 2:0.65009764 3:1.4620401 4:1.512689 5:0.48238679 6:1.3414644 7:-0.49283371 8:0.38262529 9:-0.80233621 10:0.28062564 
0.03501602533930892 1:-0.26066555 2:-1.584776 3:-0.29745927 4:0.35573136 5:-0.43254191 6:1.9850761 7:0.57986382 8:-0.43391955 9:0.901902 10:0.32964682 
1 1:-0.6845553 2:0.9226866 3:0.124951 4:0.9779051 5:0.6337408 6:1.1679217 7:-0.1779624 8:-0.1437443 9:0.8070118 10:0.5675035 
1 1:-0.98928546 2:0.51765585 3:0.65324877 4:1.6830575 5:0.80293954 6:0.70171946 7:0.23795508 8:-0.22710869 9:-0.94595754 10:-0.59331815 
1 1:0.50889946 2:0.18933331 3:1.7648938 4:1.0994693 5:0.53858131 6:1.3478065 7:-0.625078 8:0.64963638 9:-0.063397385 10:0.40242069 
1 1:-0.8680906 2:-0.8260299 3:1.2163317 4:0.9186747 5:0.9803611 6:0.2412268 7:0.836808 8:0.4987559 9:0.1175601 10:-0.7113139 
1 1:-0.45956733 2:-0.41889125 3:0.055163833 4:0.88880667 5:-0.47427017 6:1.125733 7:-0.21465658 8:0.1964425 9:-0.50366883 10:0.29965642 
1 1:0.37754838 2:0.51432508 3:1.8187185 4:1.7561758 5:0.55417269 6:1.2141692 7:-0.56172092 8:0.97444623 9:-0.49486162 10:0.13240554 
1 1:-0.57681271 2:-0.65420786 3:0.59821971 4:0.31431814 5:0.213626 6:0.66999814 7:-0.18337229 8:0.29360886 9:-0.054097714 10:0.24646257 
1 1:-0.52492989 2:-0.066448222 3:-0.25209911 4:0.91955111 5:-0.35804578 6:1.2641343 7:-0.37302222 8:0.38758111 9:-0.18899533 10:0.17492622 
1 1:-0.71796408 2:0.35758646 3:1.673501 4:1.4950441 5:0.29935354 6:0.58660246 7:-0.045845692 8:-0.85406046 9:-0.66082185 10:0.048593846 
1 1:-0.433889 2:-0.65552736 3:0.016792 4:0.71039145 5:-0.20917509 6:0.90084809 7:0.20251636 8:-0.25751145 9:-0.39414409 10:0.024804 
1 1:-0.545258 2:-0.5870531 3:0.1537621 4:0.1306357 5:0.2251379 6:0.8247567 7:0.78088 8:0.1943445 9:0.3352088 10:0.3409156 
1 1:0.19239569 2:1.4873907 3:1.0626186 4:1.9871248 5:1.1343005 6:1.0169037 7:0.0031477692 8:-0.49097992 9:0.853747 10:0.87359131 
1 1:-0.71796408 2:0.35758646 3:1.673501 4:1.4950441 5:0.29935354 6:0.58660246 7:-0.045845692 8:-0.85406046 9:-0.66082185 10:0.048593846 
1 1:-1.7207243 2:1.1868037 3:1.3924905 4:0.70476825 5:0.59074075 6:0.44649242 7:0.66988133 8:0.33593408 9:-0.52604275 10:-0.38167983 
1 1:-1.0471695 2:0.015446583 3:1.2896996 4:1.4163975 5:0.8383545 6:0.5252645 7:0.28824958 8:0.055174167 9:-0.54036575 10:-1.0284179 
1 1:-0.91081015 2:0.422746 3:0.73687923 4:1.5983621 5:0.69490746 6:0.55292038 7:-0.014848692 8:-0.13817092 9:-0.59289962 10:-0.26365946 
1 1:-0.78372445 2:0.426089 3:0.46766273 4:1.5559239 5:0.68867173 6:0.40537855 7:-0.23067436 8:0.13965773 9:0.014388455 10:0.0084308182 
1 1:-0.99854454 2:0.95695262 3:0.65787785 4:1.6046062 5:0.42165123 6:0.72385862 7:-0.015672538 8:0.49888192 9:-0.46741177 10:-0.35550923 
0.001345424695099876 1:-1.0160522 2:-0.44332836 3:0.21085782 4:-1.0170744 5:0.041985 6:1.7605099 7:0.21956973 8:0.35389982 9:0.675313 10:0.147114 
0.1858720627083943 1:-1.2489771 2:-0.53088831 3:1.4350904 4:1.6721064 5:0.089520923 6:0.48245131 7:-0.23982692 8:0.77554623 9:-1.4238986 10:-0.39040354 
1 1:-0.82492978 2:-0.41302689 3:-0.53264033 4:0.44647467 5:-0.039400444 6:1.4228976 7:-0.25840511 8:-0.074824444 9:0.44914967 10:0.347691 
0.09966065125669768 1:-1.0396898 2:-0.7331294 3:0.8965328 4:1.4895116 5:0.5186167 6:-0.0117452 7:0.598161 8:-1.327477 9:-0.5022249 10:0.8790822 
1 1:0.37754838 2:0.51432508 3:1.8187185 4:1.7561758 5:0.55417269 6:1.2141692 7:-0.56172092 8:0.97444623 9:-0.49486162 10:0.13240554 
1 1:-0.4799494 2:0.158742 3:0.2031305 4:0.940885 5:-0.5592191 6:1.1549058 7:-0.3603851 8:0.2841703 9:0.945224 10:0.6804846 
1 1:-0.71796408 2:0.35758646 3:1.673501 4:1.4950441 5:0.29935354 6:0.58660246 7:-0.045845692 8:-0.85406046 9:-0.66082185 10:0.048593846 
1 1:-0.8680906 2:-0.8260299 3:1.2163317 4:0.9186747 5:0.9803611 6:0.2412268 7:0.836808 8:0.4987559 9:0.1175601 10:-0.7113139 
1 1:-0.67537758 2:0.4937115 3:0.14068858 4:1.8837128 5:0.59779075 6:0.66106608 7:-0.23753417 8:0.70989408 9:-0.13229125 10:-0.14477533 
1 1:-0.9366142 2:-0.1070438 3:0.9992383 4:0.7375989 5:0.2410256 6:0.5050136 7:-0.0258412 8:0.2352941 9:-0.7713241 10:-0.2084435 
1 1:-0.330379 2:-0.33212157 3:0.12238657 4:0.26316543 5:0.021514143 6:0.554716 7:-0.29819214 8:-0.23322329 9:0.16637771 10:0.060858429 
1 1:-0.5357513 2:-0.4353279 3:0.4521773 4:0.694914 5:0.1871122 6:0.5732545 7:-0.1709337 8:0.0539962 9:-0.1133024 10:-0.0925763 
1 1:-0.19724811 2:-0.072218 3:0.16488611 4:0.17261044 5:-0.020583111 6:1.1173833 7:-0.11639711 8:-0.013549 9:0.27223633 10:0.298366 
1 1:-0.363952 2:-0.1833705 3:0.131118 4:0.57669162 5:0.03178975 6:0.67838375 7:-0.31034638 8:-0.0954665 9:0.13605112 10:-0.01978325 
0.6233361854144351 1:-1.1503817 2:0.014398083 3:0.9987155 4:1.4974699 5:0.561096 6:-0.11209642 7:-0.3933185 8:-0.046812167 9:0.132863 10:0.47662125 
1 1:-1.8514371 2:-0.7383846 3:0.3398298 4:1.0274886 5:-0.4404864 6:0.3975195 7:0.036261 8:1.3075153 9:-0.6374307 10:0.0452829 
1 1:-1.7043647 2:0.34588255 3:0.620736 4:1.1047853 5:-0.20244664 6:0.62511536 7:0.324917 8:0.50762191 9:-0.81698745 10:-0.62361364 
1 1:-0.14720746 2:-0.20393931 3:0.38661254 4:1.2215358 5:0.81773377 6:0.72951869 7:-1.0065579 8:0.66278038 9:0.57230423 10:1.0404888 
1 1:-0.50818262 2:0.48872992 3:0.58881831 4:1.9406876 5:0.74334038 6:0.36022877 7:-0.21453308 8:0.72649162 9:0.37969454 10:-0.19174846 
1 1:-1.0517205 2:0.78734475 3:-0.33798642 4:0.29460033 5:0.29511525 6:0.72288542 7:0.09941375 8:0.74436358 9:0.170733 10:0.66821242 
1 1:-0.42239987 2:-0.33055337 3:0.29923575 4:0.19544412 5:0.087940875 6:1.1968865 7:-0.440639 8:0.24108888 9:0.61207812 10:0.59166038 
1 1:-0.22226233 2:-0.299629 3:0.12072067 4:0.33222244 5:-0.094634556 6:0.75527056 7:-0.23492456 8:0.56489856 9:0.31899122 10:0.24553467 
1 1:0.2241965 2:-0.1327177 3:0.8608036 4:1.4865726 5:0.9972745 6:1.0404012 7:-0.6834407 8:0.5396569 9:0.6607062 10:0.0636387 
1 1:-0.44250929 2:-0.40514443 3:-0.048820857 4:0.47333314 5:-0.11827257 6:1.0137153 7:-0.36401771 8:-0.19400557 9:0.28054686 10:0.099605857 
